svm_type c_svc
kernel_type rbf
gamma 0.0078125
nr_class 2
total_sv 17
rho -0.454545
label 1 -1
nr_sv 11 6
SV
0.544921875 0:168 1:94 2:119 3:133 4:100 5:150 6:102 7:147 8:108 9:147 10:115 11:138 12:158 13:110 14:161 15:108 16:136 17:118 18:137 19:117 20:130 21:135 22:121 23:145 24:119 25:142 26:120 27:140 28:124 29:127 30:120 31:132 32:140 33:120 34:134 35:126 36:133 37:138 38:124 39:148 40:111 41:142 42:120 43:132 44:115 45:129 46:107 47:138 48:164 49:120 50:137 51:143 52:109 53:150 54:109 55:150 56:95 57:147 58:101 59:139 60:105 61:138 62:98 63:149 64:135 65:128 66:138 67:126 68:118 69:138 70:109 71:150 72:100 73:148 74:105 75:141 76:110 77:141 78:105 79:148 80:79 81:158 82:87 83:144 84:105 85:141 86:101 87:147 88:114 89:146 90:117 91:142 92:120 93:142 94:121 95:141 96:108 97:130 98:83 99:170 100:93 101:153 102:101 103:141 104:123 105:135 106:139 107:119 108:123 109:139 110:109 111:157 112:145 113:118 114:126 115:136 116:97 117:152 118:102 119:145 120:126 121:127 122:140 123:115 124:133 125:121 126:130 127:124 128:-1 
0.5458984375 0:111 1:131 2:107 3:141 4:118 5:128 6:122 7:125 8:112 9:137 10:99 11:159 12:110 13:144 14:148 15:114 16:120 17:134 18:133 19:128 20:127 21:135 22:116 23:136 24:108 25:146 26:90 27:153 28:98 29:140 30:116 31:128 32:122 33:123 34:175 35:102 36:128 37:139 38:130 39:143 40:131 41:142 42:117 43:142 44:121 45:137 46:128 47:128 48:144 49:117 50:136 51:124 52:109 53:155 54:106 55:147 56:120 57:130 58:107 59:138 60:106 61:140 62:122 63:127 64:129 65:125 66:105 67:139 68:96 69:152 70:98 71:140 72:101 73:137 74:94 75:139 76:92 77:141 78:109 79:124 80:123 81:129 82:143 83:107 84:129 85:119 86:137 87:127 88:121 89:143 90:122 91:132 92:131 93:123 94:117 95:122 96:135 97:127 98:178 99:83 100:170 101:87 102:161 103:111 104:122 105:146 106:151 107:118 108:167 109:107 110:125 111:131 112:88 113:169 114:91 115:162 116:106 117:139 118:121 119:133 120:123 121:131 122:128 123:131 124:131 125:128 126:156 127:118 128:-1 
0.5458984375 0:99 1:136 2:89 3:152 4:95 5:137 6:101 7:129 8:103 9:131 10:92 11:147 12:115 13:153 14:141 15:125 16:136 17:107 18:111 19:131 20:136 21:118 22:177 23:91 24:214 25:75 26:203 27:79 28:107 29:145 30:96 31:162 32:180 33:88 34:125 35:126 36:138 37:129 38:135 39:132 40:139 41:128 42:159 43:112 44:137 45:123 46:131 47:128 48:183 49:85 50:123 51:126 52:103 53:141 54:96 55:151 56:89 57:155 58:95 59:145 60:127 61:108 62:189 63:73 64:73 65:150 66:76 67:145 68:85 69:156 70:116 71:114 72:165 73:99 74:106 75:154 76:125 77:131 78:212 79:77 80:94 81:147 82:106 83:130 84:102 85:147 86:137 87:110 88:205 89:72 90:118 91:125 92:105 93:146 94:140 95:109 96:162 97:121 98:193 99:102 100:195 101:115 102:197 103:114 104:208 105:103 106:219 107:98 108:135 109:130 110:119 111:148 112:184 113:97 114:168 115:106 116:170 117:111 118:168 119:112 120:163 121:111 122:171 123:106 124:150 125:117 126:134 127:131 128:-1 
0.5458984375 0:121 1:141 2:150 3:121 4:255 5:52 6:255 7:51 8:188 9:72 10:81 11:133 12:72 13:149 14:88 15:136 16:127 17:143 18:114 19:146 20:127 21:130 22:122 23:107 24:119 25:109 26:75 27:143 28:79 29:136 30:120 31:96 32:129 33:136 34:113 35:140 36:117 37:135 38:105 39:124 40:107 41:122 42:122 43:94 44:111 45:103 46:111 47:108 48:139 49:134 50:125 51:135 52:128 53:131 54:112 55:125 56:111 57:126 58:155 59:66 60:155 61:66 62:84 63:127 64:95 65:143 66:83 67:157 68:84 69:154 70:78 71:147 72:79 73:145 74:100 75:125 76:91 77:138 78:88 79:156 80:139 81:99 82:131 83:119 84:113 85:138 86:105 87:136 88:102 89:140 90:108 91:139 92:112 93:134 94:130 95:126 96:181 97:93 98:172 99:107 100:148 101:124 102:137 103:128 104:127 105:139 106:126 107:136 108:144 109:119 110:145 111:116 112:161 113:111 114:115 115:129 116:110 117:135 118:87 119:137 120:84 121:142 122:89 123:141 124:94 125:133 126:113 127:138 128:-1 
0.544921875 0:81 1:154 2:86 3:145 4:84 5:137 6:84 7:137 8:72 9:162 10:71 11:165 12:109 13:122 14:104 15:127 16:113 17:140 18:111 19:142 20:89 21:134 22:80 23:150 24:61 25:172 26:71 27:147 28:181 29:93 30:143 31:118 32:93 33:142 34:107 35:124 36:101 37:116 38:74 39:159 40:55 41:191 42:62 43:168 44:100 45:127 46:98 47:130 48:77 49:163 50:99 51:126 52:95 53:107 54:96 55:106 56:68 57:124 58:56 59:150 60:51 61:150 62:53 63:143 64:66 65:158 66:93 67:112 68:160 69:78 70:255 71:36 72:255 73:21 74:134 75:61 76:59 77:146 78:57 79:151 80:66 81:167 82:80 83:137 84:119 85:120 86:143 87:100 88:190 89:71 90:255 91:50 92:115 93:122 94:104 95:135 96:81 97:167 98:87 99:155 100:73 101:151 102:79 103:139 104:107 105:114 106:119 107:103 108:120 109:100 110:110 111:109 112:98 113:149 114:99 115:147 116:84 117:146 118:78 119:157 120:86 121:137 122:98 123:120 124:116 125:108 126:102 127:122 128:-1 
0.544921875 0:128 1:98 2:129 3:97 4:91 5:120 6:86 7:127 8:85 9:123 10:93 11:112 12:163 13:58 14:91 15:104 16:58 17:162 18:68 19:139 20:85 21:123 22:109 23:96 24:174 25:79 26:153 27:90 28:151 29:91 30:108 31:128 32:82 33:147 34:92 35:130 36:125 37:112 38:159 39:88 40:166 41:77 42:145 43:88 44:81 45:129 46:76 47:138 48:113 49:126 50:125 51:114 52:114 53:119 54:106 55:128 56:78 57:153 58:78 59:154 60:71 61:118 62:108 63:78 64:81 65:139 66:101 67:111 68:92 69:100 70:70 71:131 72:44 73:170 74:41 75:181 76:72 77:128 78:95 79:97 80:53 81:158 82:97 83:87 84:206 85:26 86:80 87:67 88:41 89:123 90:34 91:152 92:35 93:169 94:34 95:175 96:54 97:136 98:77 99:96 100:125 101:61 102:123 103:62 104:111 105:78 106:91 107:95 108:42 109:151 110:40 111:158 112:52 113:123 114:50 115:128 116:78 117:111 118:129 119:67 120:169 121:74 122:184 123:68 124:105 125:112 126:92 127:127 128:-1 
0.544921875 0:148 1:110 2:131 3:117 4:113 5:135 6:91 7:148 8:106 9:128 10:108 11:120 12:94 13:138 14:107 15:141 16:132 17:112 18:103 19:124 20:100 21:128 22:90 23:122 24:82 25:134 26:95 27:134 28:98 29:130 30:97 31:139 32:136 33:111 34:125 35:118 36:137 37:108 38:180 39:75 40:115 41:118 42:88 43:134 44:110 45:107 46:109 47:110 48:136 49:126 50:103 51:134 52:120 53:115 54:189 55:66 56:124 57:101 58:106 59:120 60:134 61:95 62:155 63:84 64:135 65:128 66:101 67:141 68:106 69:135 70:169 71:89 72:169 73:89 74:181 75:93 76:187 77:90 78:201 79:81 80:104 81:125 82:100 83:132 84:85 85:156 86:90 87:142 88:108 89:118 90:130 91:114 92:129 93:115 94:159 95:106 96:101 97:119 98:123 99:95 100:98 101:120 102:63 103:155 104:71 105:137 106:108 107:120 108:137 109:95 110:168 111:100 112:109 113:124 114:154 115:78 116:152 117:79 118:65 119:150 120:65 121:148 122:82 123:122 124:112 125:89 126:144 127:99 128:-1 
0.544921875 0:117 1:118 2:108 3:120 4:112 5:116 6:96 7:120 8:93 9:124 10:140 11:89 12:189 13:66 14:164 15:87 16:112 17:116 18:111 19:117 20:100 21:130 22:83 23:142 24:80 25:146 26:168 27:76 28:157 29:81 30:122 31:119 32:108 33:113 34:160 35:102 36:114 37:143 38:101 39:146 40:148 41:100 42:148 43:93 44:103 45:134 46:110 47:135 48:93 49:137 50:102 51:137 52:102 53:138 54:98 55:136 56:115 57:115 58:86 59:140 60:87 61:137 62:142 63:106 64:111 65:120 66:75 67:142 68:82 69:131 70:77 71:129 72:69 73:145 74:83 75:144 76:97 77:123 78:139 79:114 80:217 81:53 82:106 83:111 84:86 85:137 86:110 87:118 88:133 89:98 90:175 91:92 92:145 93:111 94:100 95:146 96:114 97:127 98:79 99:155 100:77 101:160 102:93 103:135 104:114 105:110 106:130 107:110 108:112 109:128 110:91 111:149 112:101 113:162 114:81 115:174 116:85 117:165 118:78 119:153 120:88 121:136 122:108 123:130 124:105 125:134 126:107 127:140 128:-1 
0.5458984375 0:106 1:180 2:145 3:146 4:154 5:137 6:149 7:137 8:132 9:154 10:118 11:147 12:153 13:113 14:130 15:124 16:80 17:181 18:91 19:171 20:104 21:150 22:134 23:137 24:126 25:146 26:140 27:140 28:177 29:111 30:158 31:118 32:93 33:153 34:96 35:164 36:106 37:149 38:145 39:134 40:144 41:135 42:164 43:132 44:181 45:120 46:169 47:121 48:194 49:100 50:144 51:142 52:140 53:146 54:148 55:140 56:150 57:138 58:162 59:137 60:164 61:135 62:191 63:119 64:214 65:106 66:196 67:117 68:188 69:122 70:176 71:129 72:175 73:130 74:161 75:135 76:157 77:138 78:160 79:134 80:152 81:131 82:185 83:121 84:175 85:128 86:156 87:132 88:155 89:133 90:130 91:141 92:132 93:139 94:122 95:146 96:117 97:152 98:121 99:131 100:115 101:138 102:92 103:158 104:90 105:161 106:101 107:152 108:116 109:132 110:136 111:141 112:120 113:147 114:158 115:113 116:149 117:120 118:112 119:161 120:115 121:158 122:139 123:134 124:151 125:123 126:148 127:143 128:-1 
0.5458984375 0:89 1:161 2:76 3:187 4:60 5:175 6:77 7:135 8:124 9:80 10:131 11:76 12:125 13:96 14:98 15:122 16:95 17:155 18:91 19:162 20:69 21:156 22:110 23:97 24:255 25:25 26:194 27:42 28:124 29:68 30:83 31:101 32:162 33:112 34:199 35:91 36:125 37:135 38:104 39:162 40:106 41:154 42:146 43:112 44:192 45:77 46:141 47:105 48:182 49:98 50:248 51:72 52:117 53:137 54:86 55:187 56:70 57:171 58:122 59:98 60:217 61:47 62:110 63:93 64:126 65:134 66:111 67:151 68:96 69:167 70:92 71:174 72:80 73:156 74:152 75:82 76:255 77:26 78:133 79:67 80:90 81:153 82:81 83:171 84:93 85:159 86:95 87:156 88:86 89:163 90:99 91:141 92:106 93:111 94:99 95:118 96:94 97:160 98:98 99:153 100:124 101:138 102:112 103:152 104:91 105:168 106:97 107:157 108:91 109:143 110:84 111:155 112:141 113:143 114:169 115:119 116:188 117:121 118:145 119:156 120:114 121:156 122:129 123:138 124:117 125:137 126:95 127:169 128:-1 
0.5458984375 0:148 1:129 2:184 3:111 4:155 5:132 6:141 7:134 8:129 9:146 10:124 11:148 12:141 13:130 14:165 15:127 16:117 17:151 18:122 19:146 20:143 21:125 22:182 23:101 24:139 25:132 26:113 27:156 28:110 29:160 30:130 31:149 32:125 33:163 34:104 35:167 36:125 37:139 38:122 39:127 40:106 41:147 42:104 43:165 44:98 45:175 46:137 47:153 48:106 49:157 50:97 51:155 52:111 53:136 54:93 55:142 56:84 57:157 58:80 59:173 60:75 61:184 62:92 63:178 64:88 65:156 66:101 67:149 68:114 69:132 70:137 71:127 72:130 73:133 74:118 75:156 76:106 77:173 78:97 79:173 80:163 81:141 82:134 83:145 84:138 85:140 86:162 87:124 88:172 89:117 90:154 91:137 92:172 93:123 94:159 95:120 96:165 97:147 98:129 99:154 100:133 101:150 102:110 103:155 104:101 105:170 106:88 107:157 108:102 109:135 110:93 111:145 112:109 113:155 114:107 115:160 116:120 117:142 118:115 119:149 120:98 121:175 122:75 123:171 124:78 125:163 126:87 127:150 128:-1 
-1 0:79 1:10 2:97 3:12 4:97 5:13 6:79 7:9 8:79 9:9 10:54 11:5 12:54 13:5 14:54 15:5 16:78 17:6 18:0 19:0 20:0 21:0 22:0 23:1 24:0 25:1 26:38 27:4 28:38 29:4 30:80 31:3 32:98 33:5 34:0 35:0 36:0 37:0 38:0 39:0 40:0 41:0 42:0 43:0 44:0 45:0 46:80 47:3 48:78 49:6 50:80 51:3 52:80 53:3 54:80 55:3 56:80 57:3 58:0 59:0 60:0 61:0 62:87 63:11 64:38 65:5 66:0 67:0 68:0 69:0 70:0 71:0 72:0 73:0 74:0 75:0 76:0 77:0 78:79 79:10 80:0 81:0 82:0 83:0 84:0 85:0 86:0 87:0 88:0 89:0 90:0 91:0 92:0 93:0 94:80 95:3 96:0 97:0 98:23 99:4 100:23 101:4 102:38 103:4 104:38 105:4 106:38 107:4 108:38 109:4 110:80 111:3 112:0 113:0 114:0 115:0 116:0 117:0 118:0 119:0 120:0 121:0 122:0 123:0 124:0 125:0 126:0 127:0 128:-1 
-1 0:78 1:6 2:78 3:6 4:78 5:6 6:78 7:6 8:80 9:3 10:80 11:3 12:80 13:3 14:80 15:3 16:35 17:18 18:35 19:18 20:38 21:5 22:38 23:5 24:0 25:0 26:0 27:0 28:0 29:0 30:0 31:0 32:68 33:11 34:68 35:10 36:0 37:0 38:0 39:0 40:0 41:0 42:0 43:0 44:0 45:0 46:0 47:0 48:103 49:9 50:103 51:8 52:0 53:0 54:0 55:0 56:23 57:4 58:23 59:4 60:38 61:4 62:38 63:4 64:0 65:0 66:0 67:0 68:0 69:0 70:0 71:0 72:0 73:0 74:0 75:0 76:0 77:0 78:0 79:0 80:96 81:17 82:96 83:18 84:97 85:10 86:97 87:10 88:80 89:3 90:80 91:3 92:38 93:4 94:38 95:4 96:106 97:16 98:106 99:14 100:98 101:4 102:98 103:4 104:0 105:0 106:0 107:0 108:80 109:3 110:80 111:4 112:0 113:0 114:0 115:0 116:0 117:0 118:0 119:0 120:0 121:0 122:0 123:0 124:78 125:6 126:78 127:6 128:-1 
-1 0:60 1:24 2:71 3:27 4:71 5:24 6:80 7:11 8:80 9:11 10:0 11:0 12:0 13:0 14:48 15:14 16:78 17:5 18:80 19:3 20:80 21:3 22:0 23:0 24:0 25:0 26:0 27:0 28:0 29:0 30:60 31:6 32:80 33:3 34:80 35:3 36:80 37:3 38:0 39:0 40:0 41:0 42:80 43:3 44:80 45:3 46:69 47:12 48:90 49:6 50:90 51:6 52:90 53:6 54:78 55:6 56:78 57:6 58:80 59:12 60:80 61:12 62:63 63:25 64:97 65:10 66:107 67:10 68:107 69:10 70:90 71:16 72:90 73:18 74:80 75:43 76:80 77:42 78:67 79:36 80:97 81:10 82:98 83:4 84:98 85:4 86:90 87:6 88:90 89:7 90:63 91:14 92:63 93:15 94:44 95:23 96:97 97:10 98:98 99:4 100:98 101:4 102:98 103:5 104:98 105:5 106:78 107:6 108:78 109:7 110:35 111:9 112:98 113:4 114:80 115:3 116:80 117:3 118:90 119:6 120:90 121:6 122:85 123:16 124:85 125:17 126:80 127:17 128:-1 
-1 0:45 1:29 2:45 3:26 4:43 5:15 6:43 7:15 8:30 9:14 10:30 11:13 12:25 13:8 14:25 15:8 16:51 17:19 18:51 19:17 20:38 21:4 22:38 23:5 24:0 25:1 26:0 27:1 28:0 29:1 30:0 31:1 32:47 33:9 34:47 35:9 36:38 37:4 38:38 39:5 40:0 41:0 42:0 43:0 44:80 45:5 46:80 47:4 48:35 49:7 50:35 51:7 52:38 53:5 54:38 55:5 56:37 57:11 58:37 59:12 60:43 61:13 62:43 63:12 64:35 65:8 66:35 67:8 68:30 69:14 70:30 71:14 72:35 73:14 74:35 75:13 76:43 77:15 78:43 79:16 80:37 81:11 82:37 83:12 84:32 85:18 86:32 87:18 88:35 89:17 90:35 91:16 92:43 93:11 94:43 95:13 96:0 97:0 98:0 99:0 100:38 101:5 102:38 103:5 104:43 105:12 106:43 107:12 108:55 109:14 110:55 111:15 112:80 113:4 114:80 115:4 116:80 117:4 118:80 119:4 120:60 121:11 122:60 123:11 124:55 125:15 126:55 127:15 128:-1 
-1 0:35 1:19 2:35 3:16 4:35 5:15 6:38 7:6 8:38 9:6 10:60 11:8 12:60 13:8 14:48 15:16 16:39 17:35 18:35 19:29 20:35 21:28 22:45 23:19 24:45 25:19 26:48 27:14 28:48 29:14 30:35 31:15 32:39 33:27 34:35 35:25 36:35 37:25 38:35 39:15 40:35 41:15 42:35 43:15 44:35 45:16 46:45 47:16 48:48 49:12 50:38 51:5 52:38 53:5 54:38 55:4 56:38 57:5 58:35 59:8 60:35 61:9 62:43 63:13 64:60 65:6 66:0 67:0 68:0 69:0 70:0 71:0 72:0 73:0 74:38 75:5 76:38 77:5 78:35 79:8 80:173 81:5 82:140 83:3 84:140 85:4 86:0 87:0 88:0 89:0 90:78 91:6 92:78 93:7 94:78 95:7 96:120 97:2 98:0 99:0 100:0 101:0 102:80 103:4 104:80 105:4 106:79 107:11 108:79 109:11 110:48 111:14 112:97 113:10 114:80 115:3 116:80 117:4 118:78 119:7 120:78 121:7 122:80 123:13 124:80 125:13 126:45 127:18 128:-1 
-1 0:87 1:10 2:87 3:10 4:90 5:6 6:90 7:6 8:78 9:6 10:78 11:7 12:53 13:12 14:53 15:13 16:85 17:36 18:85 19:31 20:103 21:8 22:103 23:8 24:80 25:4 26:80 27:4 28:53 29:11 30:53 31:12 32:71 33:31 34:71 35:22 36:90 37:8 38:90 39:8 40:103 41:9 42:103 43:9 44:98 45:5 46:98 47:6 48:103 49:9 50:103 51:8 52:101 53:13 54:101 55:13 56:97 57:11 58:97 59:11 60:98 61:5 62:98 63:6 64:97 65:12 66:97 67:11 68:107 69:11 70:107 71:11 72:98 73:4 74:98 75:5 76:0 77:0 78:0 79:0 80:60 81:8 82:60 83:7 84:98 85:6 86:98 87:5 88:98 89:4 90:98 91:4 92:0 93:0 94:0 95:0 96:35 97:9 98:35 99:8 100:120 101:3 102:120 103:3 104:113 105:21 106:113 107:19 108:120 109:6 110:120 111:6 112:23 113:6 114:23 115:6 116:0 117:1 118:0 119:1 120:25 121:12 122:25 123:12 124:35 125:23 126:35 127:20 128:-1 
