svm_type c_svc
kernel_type rbf
gamma 0.00520833
nr_class 2
total_sv 120
rho -0.878505
label 1 -1
nr_sv 107 13
SV
0.12109375 0:35 1:98 2:133 3:35 4:98 5:133 6:39 7:99 8:139 9:39 10:98 11:140 12:40 13:100 14:132 15:40 16:114 17:116 18:39 19:118 20:106 21:39 22:103 23:121 24:34 25:68 26:153 27:34 28:72 29:146 30:36 31:92 32:144 33:36 34:89 35:149 36:40 37:95 38:139 39:40 40:109 41:122 42:38 43:91 44:129 45:38 46:82 47:143 48:32 49:108 50:127 51:32 52:126 53:109 54:33 55:148 56:114 57:33 58:127 59:133 60:39 61:123 62:126 63:39 64:141 65:110 66:39 67:111 68:117 69:39 70:98 71:133 72:34 73:163 74:97 75:34 76:180 77:88 78:35 79:172 80:101 81:35 82:140 83:124 84:41 85:114 86:123 87:41 88:124 89:113 90:42 91:106 92:116 93:42 94:99 95:124 96:34 97:126 98:107 99:34 100:117 101:116 102:36 103:104 104:127 105:36 106:94 107:141 108:39 109:101 110:136 111:39 112:112 113:123 114:40 115:111 116:120 117:40 118:108 119:123 120:37 121:122 122:121 123:37 124:127 125:116 126:42 127:112 128:128 129:42 130:103 131:138 132:43 133:114 134:127 135:43 136:137 137:106 138:39 139:123 140:112 141:39 142:108 143:127 144:35 145:130 146:120 147:35 148:150 149:104 150:38 151:147 152:106 153:38 154:132 155:118 156:42 157:123 158:110 159:42 160:141 161:96 162:40 163:102 164:118 165:40 166:86 167:140 168:34 169:118 170:125 171:34 172:138 173:107 174:39 175:176 176:100 177:39 178:157 179:112 180:39 181:151 182:108 183:39 184:177 185:92 186:36 187:126 188:119 189:36 190:104 191:145 192:-1 
0.1220703125 0:30 1:58 2:105 3:36 4:135 5:98 6:36 7:129 8:103 9:41 10:176 11:87 12:44 13:255 14:44 15:46 16:188 17:69 18:46 19:119 20:109 21:44 22:88 23:122 24:40 25:48 26:144 27:31 28:82 29:125 30:31 31:94 32:109 33:35 34:125 35:104 36:35 37:134 38:97 39:42 40:99 41:132 42:42 43:85 44:153 45:41 46:81 47:132 48:42 49:82 50:118 51:35 52:91 53:118 54:35 55:87 56:123 57:35 58:91 59:131 60:35 61:84 62:143 63:38 64:87 65:141 66:38 67:93 68:132 69:38 70:90 71:122 72:45 73:104 74:49 75:43 76:95 77:89 78:43 79:60 80:140 81:35 82:76 83:147 84:35 85:83 86:136 87:35 88:126 89:113 90:35 91:190 92:75 93:38 94:208 95:71 96:35 97:166 98:20 99:45 100:94 101:54 102:45 103:37 104:138 105:43 106:63 107:155 108:43 109:80 110:121 111:37 112:103 113:111 114:37 115:108 116:106 117:32 118:157 119:81 120:43 121:99 122:31 123:42 124:61 125:84 126:42 127:36 128:140 129:40 130:45 131:152 132:40 133:75 134:92 135:37 136:105 137:92 138:37 139:73 140:132 141:35 142:126 143:103 144:35 145:117 146:50 147:26 148:96 149:90 150:26 151:84 152:103 153:21 154:110 155:128 156:21 157:143 158:98 159:25 160:145 161:97 162:25 163:120 164:117 165:31 166:105 167:119 168:32 169:166 170:77 171:32 172:133 173:90 174:32 175:115 176:104 177:29 178:104 179:128 180:29 181:114 182:116 183:28 184:125 185:114 186:28 187:120 188:119 189:32 190:117 191:122 192:-1 
0.1220703125 0:29 1:109 2:115 3:29 4:245 5:51 6:34 7:180 8:88 9:34 10:125 11:126 12:38 13:138 14:129 15:38 16:135 17:132 18:38 19:139 20:128 21:38 22:159 23:112 24:29 25:109 26:136 27:29 28:255 29:47 30:35 31:183 32:85 33:35 34:123 35:126 36:39 37:103 38:141 39:39 40:96 41:151 42:39 43:89 44:155 45:39 46:95 47:145 48:29 49:72 50:160 51:29 52:81 53:142 54:37 55:73 56:150 57:37 58:76 59:145 60:44 61:85 62:156 63:44 64:116 65:114 66:45 67:165 68:99 69:45 70:106 71:154 72:35 73:93 74:154 75:35 76:89 77:161 78:35 79:94 80:147 81:35 82:106 83:130 84:39 85:102 86:147 87:39 88:137 89:110 90:41 91:205 92:72 93:41 94:118 95:125 96:36 97:135 98:134 99:36 100:136 101:133 102:35 103:162 104:121 105:35 106:193 107:102 108:36 109:195 110:115 111:36 112:197 113:114 114:37 115:208 116:103 117:37 118:219 119:98 120:34 121:107 122:138 123:34 124:130 125:114 126:35 127:184 128:97 129:35 130:168 131:106 132:34 133:170 134:111 135:34 136:168 137:112 138:36 139:163 140:111 141:36 142:171 143:106 144:34 145:98 146:143 147:34 148:124 149:113 150:34 151:182 152:101 153:34 154:170 155:108 156:33 157:145 158:116 159:33 160:153 161:110 162:35 163:132 164:108 165:35 166:117 167:122 168:36 169:124 170:146 171:36 172:137 173:132 174:33 175:167 176:122 177:33 178:213 179:96 180:29 181:183 182:102 183:29 184:222 185:84 186:29 187:190 188:75 189:29 190:135 191:106 192:-1 
0.1220703125 0:36 1:138 2:155 3:37 4:114 5:154 6:37 7:110 8:160 9:36 10:95 11:171 12:36 13:99 14:165 15:35 16:117 17:144 18:35 19:205 20:82 21:39 22:152 23:116 24:38 25:151 26:140 27:38 28:101 29:171 30:38 31:96 32:181 33:31 34:75 35:173 36:31 37:77 38:169 39:27 40:81 41:170 42:27 43:102 44:135 45:35 46:142 47:113 48:35 49:142 50:144 51:35 52:97 53:165 54:35 55:91 56:177 57:32 58:65 59:169 60:32 61:65 62:170 63:31 64:61 65:175 66:31 67:86 68:124 69:38 70:149 71:111 72:33 73:138 74:140 75:32 76:135 77:142 78:32 79:126 80:152 81:35 82:110 83:153 84:35 85:115 86:146 87:35 88:99 89:150 90:35 91:174 92:85 93:37 94:204 95:90 96:31 97:139 98:132 99:33 100:173 101:130 102:33 103:158 104:142 105:34 106:142 107:142 108:34 109:139 110:145 111:35 112:119 113:142 114:35 115:153 116:110 117:33 118:134 119:126 120:31 121:116 122:147 123:35 124:173 125:125 126:35 127:194 128:112 129:36 130:159 131:135 132:36 133:145 134:148 135:35 136:103 137:138 138:35 139:104 140:137 141:32 142:75 143:153 144:30 145:83 146:162 147:34 148:163 149:102 150:34 151:251 152:66 153:41 154:197 155:101 156:41 157:159 158:125 159:38 160:137 161:130 162:38 163:165 164:108 165:36 166:107 167:153 168:28 169:114 170:134 171:28 172:112 173:152 174:28 175:119 176:143 177:29 178:207 179:95 180:29 181:218 182:90 183:36 184:201 185:108 186:36 187:246 188:88 189:40 190:152 191:134 192:-1 
0.1220703125 0:39 1:111 2:140 3:39 4:110 5:142 6:36 7:188 8:84 9:36 10:174 11:91 12:36 13:154 14:114 15:36 16:143 17:123 18:38 19:135 20:132 21:38 22:131 23:136 24:31 25:156 26:106 27:31 28:173 29:96 30:24 31:255 32:55 33:24 34:198 35:72 36:29 37:170 38:87 39:29 40:129 41:115 42:36 43:140 44:133 45:36 46:132 47:141 48:24 49:189 50:124 51:24 52:221 53:106 54:25 55:236 56:94 57:25 58:234 59:95 60:30 61:207 62:85 63:30 64:180 65:98 66:35 67:147 68:127 69:35 70:126 71:148 72:23 73:132 74:151 75:23 76:193 77:103 78:23 79:169 80:134 81:23 82:176 83:129 84:29 85:188 86:99 87:29 88:255 89:65 90:35 91:161 92:108 93:35 94:111 95:156 96:29 97:48 98:175 99:29 100:58 101:144 102:25 103:77 104:156 105:25 106:78 107:153 108:26 109:99 110:136 111:26 112:145 113:93 114:34 115:138 116:107 117:34 118:103 119:143 120:35 121:30 122:193 123:35 124:33 125:176 126:29 127:52 128:163 129:29 130:50 131:167 132:31 133:68 134:157 135:31 136:88 137:122 138:35 139:90 140:124 141:35 142:86 143:130 144:34 145:71 146:141 147:34 148:63 149:158 150:32 151:68 152:168 153:32 154:74 155:156 156:34 157:102 158:138 159:34 160:118 161:119 162:34 163:135 164:123 165:34 166:127 167:131 168:30 169:169 170:80 171:30 172:145 173:93 174:36 175:121 176:145 177:36 178:121 179:145 180:34 181:154 182:131 183:34 184:156 185:129 186:35 187:163 188:125 189:35 190:148 191:138 192:-1 
0.1220703125 0:35 1:112 2:132 3:35 4:103 5:144 6:34 7:85 8:153 9:34 10:76 11:172 12:32 13:83 14:153 15:32 16:85 17:150 18:35 19:78 20:166 21:35 22:75 23:174 24:36 25:100 26:138 27:36 28:98 29:140 30:34 31:81 32:145 33:34 34:70 35:167 36:29 37:83 38:153 39:29 40:90 41:142 42:31 43:86 44:146 45:31 46:77 47:162 48:37 49:112 50:141 51:37 52:110 53:144 54:35 55:96 56:144 57:35 58:89 59:154 60:28 61:110 62:142 63:28 64:117 65:133 66:29 67:148 68:114 69:29 70:121 71:139 72:38 73:114 74:141 75:38 76:115 77:140 78:36 79:100 80:145 81:36 82:98 83:148 84:29 85:128 86:131 87:29 88:130 89:129 90:27 91:188 92:111 93:27 94:154 95:136 96:38 97:113 98:138 99:38 100:109 101:143 102:37 103:90 104:151 105:37 106:83 107:162 108:31 109:78 110:160 111:31 112:79 113:159 114:28 115:123 116:139 117:28 118:124 119:138 120:37 121:105 122:133 123:37 124:90 125:155 126:38 127:72 128:163 129:38 130:66 131:178 132:32 133:56 134:172 135:32 136:59 137:165 138:29 139:78 140:161 141:29 142:88 143:142 144:41 145:120 146:134 147:41 148:134 149:120 150:41 151:117 152:120 153:41 154:105 155:133 156:37 157:81 158:157 159:37 160:86 161:148 162:32 163:115 164:131 165:32 166:118 167:127 168:37 169:192 170:122 171:38 172:255 173:85 174:41 175:210 176:97 177:41 178:198 179:103 180:39 181:111 182:140 183:39 184:110 185:142 186:36 187:188 188:84 189:36 190:174 191:91 192:-1 
0.1220703125 0:25 1:83 2:145 3:25 4:80 5:150 6:32 7:90 8:153 9:32 10:93 11:148 12:33 13:106 14:137 15:33 16:108 17:135 18:35 19:94 20:138 21:35 22:81 23:160 24:34 25:89 26:146 27:34 28:91 29:143 30:34 31:103 32:143 33:34 34:103 35:143 36:35 37:113 38:142 39:35 40:116 41:139 42:38 43:131 44:132 45:38 46:141 47:123 48:35 49:107 50:145 51:35 52:112 53:139 54:35 55:129 56:134 57:35 58:125 59:139 60:35 61:119 62:146 63:35 64:126 65:138 66:36 67:139 68:130 69:36 70:147 71:123 72:35 73:124 74:140 75:35 76:128 77:136 78:34 79:129 80:132 81:34 82:119 83:143 84:35 85:99 86:157 87:35 88:103 89:151 90:35 91:91 92:152 93:35 94:88 95:157 96:32 97:109 98:138 99:32 100:109 101:138 102:32 103:84 104:151 105:32 106:79 107:161 108:35 109:65 110:173 111:35 112:65 113:173 114:34 115:72 116:164 117:34 118:77 119:152 120:31 121:92 122:136 123:31 124:93 125:135 126:32 127:66 128:147 129:32 130:65 131:148 132:35 133:65 134:153 135:35 136:64 137:155 138:31 139:84 140:149 141:31 142:92 143:136 144:32 145:111 146:129 147:32 148:114 149:125 150:32 151:94 152:136 153:32 154:103 155:124 156:34 157:102 158:127 159:34 160:91 161:143 162:34 163:83 164:148 165:34 166:78 167:156 168:28 169:117 170:133 171:28 172:110 173:142 174:27 175:93 176:143 177:27 178:95 179:140 180:27 181:74 182:145 183:27 184:72 185:148 186:32 187:60 188:153 189:32 190:55 191:168 192:-1 
0.1220703125 0:35 1:96 2:144 3:35 4:94 5:147 6:37 7:89 8:152 9:37 10:91 11:148 12:34 13:104 14:135 15:34 16:93 17:151 18:31 19:82 20:158 21:31 22:87 23:149 24:36 25:105 26:139 27:36 28:99 29:147 30:36 31:89 32:149 33:36 34:85 35:156 36:34 37:64 38:163 39:34 40:62 41:168 42:31 43:66 44:162 45:31 46:87 47:123 48:35 49:91 50:143 51:35 52:91 53:143 54:37 55:80 56:144 57:37 58:74 59:155 60:34 61:52 62:166 63:34 64:52 65:168 66:31 67:69 68:155 69:31 70:103 71:104 72:34 73:94 74:144 75:34 76:98 77:138 78:35 79:93 80:140 81:35 82:88 83:147 84:34 85:67 86:155 87:34 88:67 89:155 90:31 91:74 92:145 93:31 94:94 95:114 96:34 97:81 98:151 99:34 100:85 101:144 102:36 103:91 104:145 105:36 106:92 107:144 108:34 109:90 110:144 111:34 112:88 113:147 114:31 115:87 116:144 117:31 118:92 119:136 120:35 121:79 122:151 123:35 124:82 125:146 126:35 127:89 128:146 129:35 130:90 131:145 132:34 133:99 134:150 135:34 136:95 137:155 138:33 139:109 140:150 141:33 142:113 143:144 144:35 145:120 146:140 147:35 148:116 149:145 150:34 151:101 152:146 153:34 154:99 155:150 156:31 157:78 158:160 159:31 160:73 161:172 162:32 163:85 164:162 165:32 166:98 167:141 168:34 169:116 170:147 171:34 172:118 173:145 174:34 175:128 176:133 177:34 178:123 179:139 180:32 181:84 182:171 183:32 184:86 185:167 186:29 187:81 188:154 189:29 190:83 191:151 192:-1 
0.1220703125 0:31 1:83 2:150 3:31 4:84 5:149 6:31 7:80 8:157 9:31 10:76 11:157 12:31 13:82 14:147 15:29 16:82 17:152 18:29 19:78 20:160 21:32 22:81 23:158 24:30 25:62 26:153 27:31 28:72 29:156 30:31 31:70 32:161 33:31 34:79 35:158 36:31 37:82 38:153 39:29 40:84 41:158 42:29 43:83 44:159 45:30 46:92 47:147 48:30 49:65 50:146 51:32 52:64 53:159 54:32 55:62 56:165 57:31 58:68 59:166 60:31 61:69 62:163 63:31 64:76 65:157 66:31 67:82 68:146 69:29 70:81 71:148 72:29 73:56 74:151 75:30 76:59 77:152 78:30 79:57 80:157 81:31 82:67 83:159 84:31 85:70 86:154 87:32 88:72 89:153 90:32 91:72 92:152 93:32 94:70 95:157 96:29 97:72 98:145 99:29 100:95 101:132 102:29 103:98 104:128 105:32 106:124 107:125 108:32 109:122 110:127 111:33 112:97 113:145 114:33 115:90 116:155 117:34 118:73 119:161 120:27 121:113 122:129 123:29 124:130 125:126 126:29 127:126 128:130 129:31 130:117 131:137 132:31 133:109 134:147 135:32 136:88 137:151 138:32 139:86 140:154 141:32 142:76 143:157 144:28 145:133 146:132 147:30 148:123 149:133 150:30 151:115 152:142 153:32 154:97 155:155 156:32 157:90 158:168 159:31 160:78 161:161 162:31 163:80 164:156 165:34 166:76 167:154 168:32 169:78 170:153 171:35 172:72 173:155 174:35 175:68 176:165 177:35 178:63 179:170 180:35 181:65 182:166 183:32 184:71 185:155 186:32 187:73 188:150 189:35 190:87 191:150 192:-1 
0.1220703125 0:35 1:73 2:172 3:35 4:74 5:169 6:35 7:58 8:171 9:35 10:65 11:154 12:32 13:87 14:146 15:32 16:83 17:154 18:33 19:90 20:155 21:33 22:92 23:153 24:35 25:73 26:165 27:35 28:74 29:162 30:34 31:63 32:166 33:34 34:66 35:159 36:32 37:80 38:150 39:32 40:79 41:151 42:33 43:98 44:148 45:33 46:107 47:136 48:34 49:79 50:154 51:34 52:84 53:145 54:34 55:89 56:146 57:34 58:89 59:146 60:32 61:89 62:144 63:32 64:86 65:149 66:34 67:86 68:152 69:34 70:87 71:149 72:32 73:89 74:149 75:32 76:93 77:142 78:33 79:111 80:131 81:33 82:112 83:130 84:34 85:102 86:137 87:34 88:99 89:142 90:34 91:87 92:149 93:34 94:82 95:159 96:31 97:84 98:154 99:31 100:88 101:148 102:31 103:112 104:132 105:31 106:133 107:111 108:35 109:172 110:111 111:35 112:186 113:103 114:36 115:180 116:119 117:36 118:148 119:145 120:34 121:96 122:146 123:34 124:97 125:145 126:30 127:102 128:138 129:30 130:110 131:127 132:31 133:138 134:120 135:31 136:145 137:114 138:34 139:146 140:122 141:34 142:125 143:143 144:33 145:105 146:139 147:33 148:101 149:144 150:31 151:89 152:146 153:31 154:88 155:147 156:31 157:90 158:139 159:31 160:91 161:137 162:31 163:87 164:144 165:31 166:84 167:148 168:33 169:100 170:146 171:33 172:100 173:145 174:33 175:102 176:142 177:33 178:100 179:146 180:32 181:92 182:144 183:32 184:93 185:143 186:32 187:84 188:152 189:32 190:79 191:162 192:-1 
0.1220703125 0:35 1:65 2:164 3:35 4:67 5:161 6:32 7:77 8:155 9:32 10:80 11:149 12:31 13:88 14:148 15:31 16:88 17:147 18:32 19:90 20:148 21:32 22:86 23:154 24:35 25:72 26:155 27:35 28:73 29:153 30:35 31:73 32:154 33:35 34:74 35:151 36:35 37:86 38:151 39:35 40:86 41:151 42:35 43:85 44:153 45:35 46:84 47:155 48:34 49:128 50:133 51:34 52:125 53:137 54:34 55:101 56:147 57:34 58:91 59:163 60:35 61:83 62:156 63:35 64:85 65:153 66:36 67:89 68:155 69:36 70:89 71:155 72:33 73:110 74:144 75:33 76:115 77:137 78:34 79:104 80:142 81:34 82:92 83:161 84:35 85:88 86:156 87:35 88:89 89:154 90:36 91:86 92:155 93:36 94:84 95:157 96:32 97:84 98:158 99:32 100:93 101:142 102:34 103:95 104:142 105:34 106:87 107:155 108:36 109:87 110:153 111:36 112:87 113:152 114:37 115:88 116:154 117:37 118:83 119:163 120:35 121:81 122:161 123:35 124:87 125:149 126:34 127:89 128:146 129:34 130:87 131:149 132:35 133:87 134:149 135:35 136:88 137:147 138:37 139:84 140:151 141:37 142:81 143:157 144:35 145:87 146:159 147:35 148:88 149:157 150:34 151:87 152:155 153:34 154:90 155:150 156:36 157:92 158:150 159:36 160:92 161:150 162:39 163:91 164:152 165:39 166:90 167:153 168:35 169:76 170:158 171:35 172:74 173:163 174:35 175:74 176:162 177:35 178:80 179:150 180:36 181:90 182:148 183:36 184:90 185:148 186:37 187:103 188:149 189:37 190:107 191:143 192:-1 
0.1220703125 0:39 1:103 2:159 3:39 4:103 5:158 6:36 7:98 8:154 9:36 10:96 11:156 12:33 13:90 14:155 15:33 16:91 17:154 18:32 19:98 20:154 21:32 22:98 23:154 24:38 25:103 26:156 27:38 28:104 29:154 30:35 31:97 32:152 33:35 34:93 35:159 36:32 37:87 38:158 39:32 40:89 41:154 42:31 43:83 44:157 45:31 46:81 47:161 48:35 49:98 50:151 51:35 52:101 53:146 54:35 55:98 56:146 57:35 58:89 59:160 60:35 61:77 62:162 63:35 64:79 65:158 66:32 67:80 68:160 69:32 70:79 71:161 72:35 73:95 74:151 75:35 76:96 77:148 78:35 79:103 80:144 81:35 82:102 83:145 84:34 85:92 86:147 87:34 88:89 89:152 90:31 91:81 92:154 93:31 94:78 95:160 96:33 97:94 98:149 99:33 100:94 101:149 102:33 103:100 104:145 105:33 106:106 107:137 108:33 109:105 110:138 111:33 112:99 113:147 114:32 115:83 116:154 117:32 118:82 119:156 120:32 121:112 122:143 123:32 124:107 125:150 126:33 127:103 128:153 129:33 130:105 131:150 132:32 133:86 134:148 135:32 136:85 137:150 138:32 139:78 140:153 141:32 142:79 143:151 144:35 145:73 146:165 147:35 148:71 149:168 150:35 151:73 152:164 153:35 154:71 155:169 156:32 157:69 158:166 159:32 160:72 161:159 162:31 163:73 164:153 165:31 166:75 167:150 168:31 169:71 170:158 171:31 172:73 173:154 174:32 175:78 176:153 177:32 178:74 179:161 180:32 181:74 182:161 183:32 184:75 185:160 186:31 187:78 188:160 189:31 190:79 191:159 192:-1 
0.12109375 0:34 1:84 2:160 3:35 4:83 5:156 6:35 7:83 8:157 9:35 10:84 11:164 12:35 13:80 14:172 15:34 16:83 17:170 18:34 19:83 20:168 21:34 22:92 23:167 24:34 25:85 26:159 27:34 28:89 29:157 30:34 31:90 32:156 33:35 34:89 35:161 36:35 37:85 38:168 39:34 40:81 41:173 42:34 43:85 44:165 45:34 46:94 47:158 48:34 49:84 50:161 51:34 52:84 53:160 54:34 55:83 56:162 57:35 58:83 59:165 60:35 61:82 62:168 63:35 64:77 65:169 66:35 67:79 68:165 69:33 70:87 71:161 72:35 73:81 74:161 75:35 76:80 77:162 78:35 79:77 80:169 81:35 82:75 83:174 84:35 85:77 86:169 87:35 88:78 89:166 90:35 91:79 92:165 93:34 94:91 95:163 96:35 97:88 98:163 99:35 100:88 101:163 102:35 103:84 104:169 105:35 106:82 107:167 108:35 109:83 110:165 111:34 112:79 113:164 114:34 115:80 116:163 117:34 118:94 119:158 120:35 121:89 122:161 123:36 124:89 125:164 126:36 127:89 128:164 129:35 130:80 131:162 132:35 133:80 134:162 135:35 136:80 137:162 138:35 139:81 140:161 141:34 142:94 143:157 144:35 145:92 146:161 147:35 148:91 149:162 150:35 151:91 152:162 153:33 154:87 155:161 156:33 157:88 158:159 159:33 160:89 161:158 162:33 163:87 164:162 165:33 166:90 167:161 168:35 169:85 170:162 171:35 172:85 173:162 174:35 175:84 176:163 177:34 178:86 179:157 180:34 181:87 182:155 183:32 184:84 185:158 186:32 187:82 188:161 189:34 190:87 191:162 192:-1 
0.12109375 0:34 1:113 2:151 3:34 4:114 5:150 6:35 7:107 8:157 9:35 10:104 11:162 12:36 13:89 14:163 15:36 16:90 17:161 18:35 19:90 20:158 21:35 22:92 23:155 24:35 25:88 26:163 27:35 28:89 29:161 30:36 31:83 32:165 33:36 34:83 35:166 36:36 37:79 38:167 39:36 40:80 41:166 42:35 43:86 44:167 45:35 46:90 47:158 48:35 49:92 50:161 51:35 52:92 53:160 54:36 55:92 56:163 57:36 58:92 59:164 60:36 61:87 62:167 63:36 64:88 65:166 66:36 67:91 68:160 69:36 70:94 71:155 72:36 73:93 74:161 75:36 76:93 77:162 78:36 79:98 80:162 81:36 82:98 83:161 84:35 85:102 86:158 87:35 88:102 89:157 90:37 91:106 92:156 93:37 94:110 95:151 96:35 97:100 98:160 99:35 100:101 101:159 102:35 103:106 104:159 105:35 106:107 107:158 108:34 109:112 110:153 111:34 112:115 113:149 114:35 115:118 116:147 117:35 118:120 119:144 120:35 121:98 122:158 123:35 124:99 125:157 126:34 127:101 128:156 129:34 130:102 131:155 132:34 133:110 134:151 135:34 136:114 137:145 138:35 139:122 140:142 141:35 142:121 143:143 144:35 145:99 146:157 147:35 148:100 149:156 150:34 151:99 152:154 153:34 154:101 155:152 156:34 157:114 158:150 159:34 160:119 161:143 162:35 163:120 164:144 165:35 166:116 167:150 168:35 169:99 170:157 171:35 172:100 173:155 174:34 175:102 176:150 177:34 178:103 179:148 180:35 181:99 182:150 183:35 184:98 185:151 186:36 187:85 188:156 189:36 190:79 191:167 192:-1 
0.12109375 0:35 1:49 2:184 3:35 4:50 5:177 6:32 7:62 8:165 9:32 10:67 11:153 12:32 13:111 14:124 15:32 16:107 17:129 18:32 19:94 20:146 21:32 22:94 23:147 24:36 25:165 26:99 27:36 28:207 29:79 30:39 31:151 32:108 33:39 34:118 35:138 36:35 37:90 38:139 39:35 40:84 41:149 42:34 43:65 44:153 45:34 46:66 47:151 48:37 49:231 50:74 51:38 52:255 53:59 54:41 55:189 56:81 57:41 58:123 59:124 60:40 61:80 62:149 63:40 64:83 65:145 66:35 67:64 68:140 69:35 70:60 71:148 72:33 73:166 74:117 75:33 76:208 77:93 78:33 79:204 80:80 81:33 82:150 83:109 84:42 85:84 86:146 87:42 88:87 89:141 90:38 91:70 92:131 93:38 94:73 95:125 96:34 97:88 98:159 99:34 100:112 101:125 102:31 103:142 104:104 105:31 106:125 107:118 108:36 109:97 110:137 111:36 112:98 113:136 114:37 115:84 116:131 117:37 118:109 119:101 120:31 121:73 122:165 123:31 124:91 125:131 126:31 127:109 128:119 129:31 130:102 131:128 132:34 133:102 134:133 135:34 136:103 137:131 138:35 139:99 140:131 141:35 142:108 143:120 144:32 145:71 146:154 147:32 148:78 149:141 150:31 151:78 152:137 153:31 154:78 155:137 156:32 157:90 158:142 159:32 160:94 161:135 162:35 163:122 164:127 165:35 166:118 167:132 168:32 169:65 170:157 171:32 172:71 173:143 174:32 175:72 176:142 177:32 178:72 179:141 180:34 181:79 182:154 183:34 184:83 185:147 186:35 187:123 188:131 189:35 190:125 191:129 192:-1 
0.12109375 0:41 1:88 2:154 3:36 4:83 5:144 6:36 7:88 8:136 9:34 10:99 11:137 12:34 13:93 14:145 15:34 16:98 17:143 18:34 19:100 20:140 21:35 22:101 23:142 24:44 25:111 26:138 27:41 28:99 29:141 30:41 31:104 32:135 33:37 34:148 35:112 36:37 37:156 38:106 39:37 40:156 41:113 42:37 43:120 44:147 45:37 46:93 47:151 48:42 49:147 50:128 51:38 52:142 53:131 54:38 55:140 56:133 57:35 58:189 59:108 60:35 61:222 62:92 63:35 64:212 65:88 66:35 67:133 68:140 69:36 70:85 71:156 72:36 73:120 74:132 75:37 76:124 77:127 78:37 79:118 80:134 81:34 82:120 83:132 84:34 85:122 86:130 87:32 88:118 89:127 90:32 91:116 92:130 93:31 94:104 95:125 96:39 97:143 98:105 99:41 100:121 101:126 102:41 103:109 104:140 105:35 106:121 107:133 108:35 109:121 110:133 111:33 112:115 113:137 114:33 115:121 116:131 117:32 118:119 119:120 120:36 121:219 122:63 123:38 124:136 125:114 126:38 127:116 128:134 129:35 130:117 131:126 132:35 133:117 134:126 135:33 136:109 137:129 138:33 139:108 140:130 141:34 142:105 143:134 144:33 145:140 146:104 147:34 148:112 149:125 150:34 151:107 152:131 153:35 154:112 155:127 156:35 157:117 158:122 159:35 160:125 161:114 162:35 163:114 164:125 165:35 166:113 167:126 168:32 169:100 170:127 171:34 172:98 173:133 174:34 175:93 176:140 177:36 178:105 179:138 180:36 181:114 182:128 183:36 184:116 185:125 186:36 187:118 188:123 189:36 190:127 191:114 192:-1 
0.12109375 0:33 1:164 2:115 3:33 4:170 5:111 6:36 7:183 8:113 9:36 10:235 11:88 12:43 13:206 14:93 15:43 16:142 17:135 18:42 19:105 20:155 21:42 22:113 23:145 24:35 25:141 26:123 27:35 28:133 29:130 30:36 31:169 32:118 33:36 34:229 35:87 36:45 37:249 38:79 39:45 40:166 41:118 42:45 43:102 44:153 45:45 46:107 47:146 48:35 49:98 50:141 51:35 52:98 53:140 54:35 55:134 56:129 57:35 58:146 59:119 60:37 61:132 62:133 63:37 64:168 65:105 66:40 67:184 68:97 69:40 70:165 71:108 72:39 73:97 74:142 75:39 76:106 77:130 78:36 79:125 80:126 81:36 82:124 83:127 84:37 85:125 86:141 87:37 88:154 89:114 90:41 91:207 92:90 93:41 94:198 95:94 96:39 97:138 98:122 99:39 100:159 101:106 102:40 103:145 104:127 105:40 106:132 107:139 108:38 109:151 110:132 111:38 112:158 113:126 114:38 115:184 116:122 117:38 118:193 119:116 120:39 121:141 122:125 123:39 124:150 125:117 126:38 127:134 128:135 129:38 130:130 131:139 132:38 133:148 134:131 135:38 136:153 137:127 138:40 139:185 140:124 141:40 142:225 143:102 144:36 145:150 146:126 147:36 148:155 149:122 150:36 151:169 152:125 153:36 154:171 155:124 156:36 157:173 158:130 159:36 160:174 161:129 162:40 163:192 164:122 165:40 166:255 167:92 168:36 169:149 170:113 171:36 172:175 173:96 174:39 175:181 176:97 177:39 178:164 179:107 180:42 181:109 182:143 183:42 184:102 185:153 186:35 187:112 188:139 189:35 190:129 191:121 192:-1 
0.12109375 0:36 1:84 2:143 3:36 4:113 5:106 6:36 7:146 8:103 9:36 10:133 11:113 12:35 13:139 14:125 15:35 16:140 17:124 18:35 19:141 20:114 21:35 22:149 23:108 24:35 25:143 26:121 27:35 28:175 29:99 30:36 31:174 32:101 33:36 34:159 35:111 36:38 37:110 38:135 39:38 40:107 41:138 42:34 43:101 44:121 45:34 46:124 47:99 48:37 49:156 50:118 51:37 52:149 53:123 54:38 55:162 56:110 57:38 58:180 59:99 60:42 61:117 62:122 63:42 64:115 65:124 66:35 67:85 68:126 69:35 70:78 71:138 72:38 73:159 74:114 75:38 76:152 77:119 78:41 79:191 80:95 81:41 82:193 83:94 84:43 85:124 86:128 87:43 88:141 89:112 90:39 91:130 92:96 93:39 94:87 95:144 96:39 97:170 98:111 99:39 100:181 101:104 102:40 103:182 104:98 105:40 106:144 107:124 108:43 109:79 110:149 111:43 112:115 113:102 114:35 115:174 116:44 117:35 118:74 119:104 120:35 121:116 122:134 123:35 124:138 125:113 126:36 127:118 128:128 129:36 130:104 131:145 132:39 133:112 134:128 135:39 136:130 137:110 138:36 139:162 140:82 141:36 142:189 143:70 144:35 145:92 146:142 147:35 148:118 149:110 150:37 151:111 152:122 153:37 154:97 155:140 156:38 157:162 158:110 159:38 160:172 161:104 162:35 163:184 164:104 165:36 166:255 167:65 168:37 169:121 170:126 171:37 172:172 173:89 174:42 175:169 176:92 177:42 178:134 179:116 180:40 181:127 182:124 183:40 184:127 185:124 186:35 187:156 188:111 189:35 190:255 191:64 192:-1 
0.12109375 0:36 1:117 2:113 3:42 4:159 5:98 6:42 7:145 8:107 9:40 10:125 11:133 12:40 13:127 14:131 15:39 16:136 17:114 18:39 19:179 20:87 21:39 22:179 23:94 24:36 25:141 26:103 27:43 28:178 29:89 30:43 31:151 32:105 33:45 34:98 35:138 36:45 37:115 38:118 39:41 40:158 41:68 42:42 43:255 44:39 45:39 46:189 47:66 48:42 49:126 50:113 51:43 52:114 53:110 54:43 55:121 56:103 57:45 58:106 59:113 60:45 61:112 62:107 63:41 64:166 65:77 66:42 67:255 68:47 69:44 70:204 71:65 72:41 73:126 74:111 75:41 76:95 77:113 78:41 79:94 80:114 81:43 82:81 83:120 84:43 85:80 86:121 87:44 88:119 89:111 90:44 91:143 92:93 93:41 94:157 95:99 96:40 97:185 98:99 99:39 100:154 101:98 102:39 103:129 104:117 105:40 106:89 107:134 108:40 109:88 110:136 111:43 112:79 113:139 114:43 115:78 116:141 117:40 118:98 119:135 120:38 121:179 122:104 123:38 124:193 125:94 126:38 127:187 128:97 129:42 130:121 131:129 132:42 133:147 134:106 135:44 136:154 137:86 138:44 139:111 140:120 141:39 142:110 143:125 144:38 145:143 146:130 147:38 148:147 149:123 150:38 151:160 152:113 153:41 154:150 155:121 156:41 157:178 158:102 159:44 160:238 161:61 162:44 163:147 164:99 165:41 166:114 167:112 168:40 169:135 170:136 171:40 172:129 173:138 174:40 175:139 176:128 177:38 178:159 179:122 180:38 181:154 182:126 183:36 184:160 185:126 186:36 187:221 188:91 189:35 190:203 191:94 192:-1 
0.12109375 0:43 1:98 2:149 3:40 4:98 5:136 6:40 7:102 8:130 9:41 10:73 11:140 12:41 13:86 14:118 15:38 16:103 17:97 18:38 19:93 20:107 21:33 22:109 23:101 24:45 25:88 26:136 27:36 28:109 29:126 30:36 31:100 32:138 33:40 34:88 35:150 36:40 37:131 38:101 39:41 40:205 41:46 42:41 43:93 44:102 45:37 46:73 47:115 48:40 49:113 50:113 51:36 52:141 53:112 54:36 55:133 56:119 57:41 58:168 59:103 60:41 61:219 62:79 63:41 64:187 65:75 66:41 67:121 68:116 69:38 70:77 71:136 72:37 73:89 74:114 75:37 76:106 77:127 78:37 79:108 80:125 81:42 82:149 83:96 84:42 85:190 86:75 87:44 88:126 89:99 90:44 91:91 92:137 93:43 94:68 95:143 96:41 97:108 98:125 99:39 100:113 101:129 102:39 103:117 104:124 105:39 106:125 107:116 108:39 109:126 110:115 111:41 112:88 113:122 114:41 115:75 116:142 117:39 118:61 119:142 120:46 121:102 122:140 123:43 124:108 125:128 126:43 127:117 128:118 129:41 130:121 131:116 132:41 133:106 134:132 135:40 136:94 137:136 138:40 139:103 140:124 141:40 142:104 143:103 144:44 145:104 146:140 147:42 148:106 149:128 150:42 151:110 152:123 153:41 154:130 155:118 156:41 157:130 158:118 159:39 160:123 161:122 162:39 163:142 164:106 165:39 166:169 167:74 168:41 169:117 170:120 171:42 172:103 173:139 174:42 175:105 176:136 177:39 178:134 179:112 180:39 181:145 182:104 183:38 184:131 185:113 186:38 187:161 188:92 189:39 190:139 191:90 192:-1 
0.12109375 0:38 1:183 2:102 3:35 4:126 5:123 6:35 7:135 8:115 9:33 10:124 11:113 12:33 13:112 14:125 15:34 16:137 17:112 18:34 19:129 20:119 21:35 22:89 23:141 24:35 25:119 26:120 27:31 28:80 29:140 30:31 31:99 32:113 33:31 34:98 35:115 36:31 37:91 38:123 39:37 40:108 41:125 42:37 43:101 44:134 45:38 46:86 47:142 48:34 49:96 50:136 51:32 52:56 53:163 54:32 55:57 56:160 57:26 58:53 59:159 60:26 61:54 62:155 63:32 64:64 65:151 66:32 67:69 68:141 69:34 70:98 71:133 72:29 73:153 74:75 75:35 76:110 77:102 78:35 79:86 80:130 81:25 82:102 83:122 84:25 85:103 86:121 87:22 88:129 89:128 90:22 91:119 92:139 93:26 94:100 95:135 96:25 97:255 98:49 99:41 100:226 101:62 102:41 103:120 104:117 105:28 106:130 107:114 108:28 109:123 110:120 111:26 112:161 113:111 114:26 115:170 116:105 117:32 118:117 119:118 120:22 121:137 122:93 123:37 124:111 125:92 126:37 127:76 128:134 129:32 130:69 131:147 132:32 133:70 134:145 135:33 136:142 137:115 138:33 139:247 140:66 141:34 142:176 143:97 144:17 145:70 146:156 147:24 148:65 149:149 150:24 151:79 152:123 153:25 154:113 155:106 156:25 157:125 158:96 159:33 160:123 161:114 162:33 163:118 164:119 165:29 166:84 167:131 168:15 169:54 170:151 171:24 172:92 173:119 174:24 175:161 176:68 177:25 178:174 179:69 180:25 181:133 182:90 183:29 184:90 185:116 186:29 187:70 188:149 189:22 190:56 191:156 192:-1 
0.12109375 0:29 1:98 2:128 3:32 4:82 5:140 6:32 7:81 8:141 9:31 10:69 11:148 12:31 13:65 14:157 15:25 16:80 17:156 18:25 19:94 20:133 21:26 22:101 23:134 24:29 25:92 26:139 27:29 28:58 29:146 30:29 31:55 32:154 33:29 34:54 35:157 36:29 37:58 38:144 39:29 40:96 41:130 42:29 43:100 44:125 45:29 46:108 47:127 48:25 49:83 50:145 51:25 52:80 53:144 54:25 55:83 56:139 57:34 58:75 59:139 60:34 61:108 62:97 63:37 64:196 65:65 66:37 67:139 68:92 69:35 70:181 71:89 72:29 73:71 74:148 75:29 76:76 77:145 78:29 79:79 80:138 81:34 82:82 83:143 84:34 85:98 86:120 87:34 88:129 89:101 90:34 91:106 92:123 93:31 94:111 95:117 96:29 97:76 98:151 99:31 100:82 101:147 102:31 103:87 104:138 105:31 106:89 107:140 108:31 109:90 110:139 111:31 112:83 113:144 114:31 115:80 116:150 117:29 118:59 119:142 120:28 121:124 122:119 123:29 124:130 125:126 126:29 127:120 128:136 129:29 130:114 131:130 132:29 133:119 134:124 135:29 136:98 137:130 138:29 139:94 140:136 141:32 142:86 143:127 144:26 145:100 146:135 147:25 148:115 149:133 150:25 151:112 152:137 153:25 154:125 155:126 156:25 157:139 158:114 159:21 160:120 161:130 162:21 163:115 164:135 165:23 166:113 167:122 168:28 169:107 170:145 171:22 172:93 173:153 174:22 175:100 176:143 177:26 178:106 179:128 180:26 181:101 182:134 183:25 184:97 185:145 186:25 187:109 188:129 189:26 190:118 191:115 192:-1 
0.12109375 0:36 1:123 2:147 3:36 4:128 5:141 6:38 7:129 8:148 9:38 10:125 11:153 12:37 13:131 14:150 15:37 16:134 17:147 18:35 19:114 20:157 21:35 22:112 23:159 24:37 25:114 26:150 27:37 28:119 29:143 30:38 31:130 32:143 33:38 34:131 35:142 36:37 37:141 38:139 39:37 40:143 41:137 42:35 43:118 44:158 45:35 46:117 47:159 48:36 49:117 50:150 51:36 52:120 53:147 54:38 55:123 56:145 57:38 58:124 59:144 60:36 61:121 62:145 63:36 64:117 65:151 66:34 67:100 68:166 69:34 70:104 71:160 72:34 73:119 74:143 75:34 76:120 77:142 78:35 79:124 80:144 81:35 82:123 83:145 84:35 85:119 86:146 87:35 88:113 89:153 90:34 91:99 92:159 93:34 94:99 95:160 96:33 97:163 98:128 99:33 100:156 101:134 102:33 103:149 104:140 105:33 106:149 107:140 108:33 109:125 110:145 111:33 112:122 113:149 114:33 115:127 116:139 117:33 118:128 119:137 120:31 121:128 122:147 123:31 124:120 125:157 126:29 127:131 128:146 129:29 130:151 131:127 132:30 133:145 134:141 135:30 136:132 137:154 138:30 139:156 140:131 141:30 142:155 143:132 144:29 145:110 146:157 147:29 148:99 149:175 150:27 151:101 152:169 153:27 154:126 155:136 156:28 157:154 158:142 159:28 160:140 161:157 162:30 163:183 164:134 165:30 166:168 167:146 168:29 169:127 170:147 171:29 172:112 173:166 174:25 175:105 176:175 177:25 178:118 179:155 180:25 181:113 182:162 183:25 184:107 185:171 186:30 187:111 188:154 189:30 190:107 191:160 192:-1 
0.12109375 0:38 1:110 2:141 3:38 4:114 5:136 6:36 7:116 8:141 9:36 10:112 11:146 12:35 13:125 14:143 15:35 16:127 17:141 18:34 19:120 20:142 21:34 22:119 23:143 24:38 25:116 26:139 27:38 28:113 29:142 30:36 31:110 32:149 33:36 34:103 35:158 36:35 37:107 38:157 39:35 40:107 41:157 42:35 43:100 44:155 45:35 46:109 47:143 48:36 49:128 50:138 51:36 52:122 53:144 54:35 55:115 56:146 57:35 58:110 59:153 60:34 61:86 62:158 63:34 64:84 65:160 66:35 67:87 68:159 69:35 70:96 71:144 72:36 73:120 74:147 75:36 76:121 77:145 78:34 79:129 80:138 81:34 82:131 83:136 84:32 85:127 86:137 87:32 88:122 89:142 90:32 91:114 92:148 93:32 94:109 95:155 96:35 97:92 98:155 99:35 100:98 101:145 102:34 103:110 104:144 105:34 106:111 107:143 108:33 109:114 110:139 111:33 112:113 113:140 114:32 115:109 116:143 117:32 118:110 119:141 120:34 121:98 122:156 123:34 124:102 125:150 126:34 127:107 128:148 129:34 130:108 131:146 132:34 133:116 134:147 135:34 136:116 137:147 138:34 139:121 140:147 141:34 142:127 143:141 144:35 145:103 146:156 147:35 148:106 149:151 150:35 151:107 152:150 153:35 154:109 155:148 156:36 157:117 158:150 159:36 160:118 161:149 162:36 163:117 164:150 165:36 166:121 167:146 168:36 169:101 170:149 171:36 172:100 173:150 174:36 175:116 176:152 177:36 178:117 179:151 180:36 181:122 182:152 183:36 184:123 185:151 186:35 187:125 188:149 189:35 190:127 191:147 192:-1 
0.12109375 0:34 1:133 2:155 3:32 4:163 5:139 6:32 7:154 8:147 9:31 10:119 11:163 12:31 13:121 14:160 15:32 16:111 17:156 18:32 19:113 20:154 21:35 22:110 23:158 24:35 25:150 26:163 27:35 28:128 29:160 30:35 31:149 32:137 33:32 34:126 35:119 36:32 37:91 38:165 39:32 40:79 41:175 42:32 43:82 44:167 45:35 46:94 47:152 48:34 49:84 50:177 51:32 52:79 53:162 54:32 55:83 56:154 57:30 58:88 59:153 60:30 61:83 62:162 63:31 64:97 65:165 66:31 67:100 68:160 69:40 70:162 71:129 72:38 73:92 74:161 75:41 76:79 77:177 78:41 79:84 80:167 81:32 82:82 83:161 84:32 85:79 86:168 87:32 88:96 89:162 90:32 91:99 92:157 93:34 94:122 95:155 96:41 97:183 98:99 99:45 100:98 101:166 102:45 103:107 104:153 105:34 106:138 107:137 108:34 109:114 110:165 111:33 112:121 113:164 114:33 115:125 116:159 117:33 118:100 119:169 120:35 121:146 122:131 123:36 124:109 125:154 126:36 127:109 128:154 129:35 130:127 131:147 132:35 133:117 134:159 135:34 136:141 137:146 138:34 139:155 140:133 141:35 142:131 143:156 144:30 145:76 146:178 147:29 148:92 149:160 150:29 151:97 152:152 153:35 154:114 155:152 156:35 157:120 158:144 159:36 160:146 161:136 162:36 163:160 164:124 165:36 166:145 167:151 168:28 169:64 170:192 171:27 172:96 173:157 174:27 175:106 176:142 177:35 178:114 179:152 180:35 181:165 182:105 183:38 184:156 185:116 186:38 187:122 188:148 189:36 190:99 191:160 192:-1 
0.12109375 0:36 1:120 2:140 3:36 4:112 5:150 6:34 7:99 8:155 9:34 10:104 11:147 12:34 13:102 14:137 15:34 16:105 17:133 18:37 19:114 20:139 21:37 22:113 23:140 24:35 25:132 26:131 27:35 28:122 29:142 30:35 31:92 32:161 33:35 34:101 35:146 36:35 37:128 38:126 39:35 40:147 41:109 42:38 43:161 44:119 45:38 46:135 47:142 48:38 49:137 50:130 51:38 52:134 53:133 54:37 55:121 56:146 57:37 58:134 59:131 60:35 61:165 62:116 63:35 64:165 65:116 66:39 67:195 68:115 69:39 70:184 71:122 72:39 73:123 74:137 75:39 76:121 77:139 78:36 79:117 80:140 81:36 82:120 83:136 84:33 85:150 86:129 87:33 88:159 89:122 90:35 91:179 92:117 93:35 94:163 95:128 96:37 97:126 98:140 99:37 100:123 101:143 102:35 103:110 104:142 105:35 106:105 107:148 108:32 109:88 110:150 111:32 112:93 113:142 114:35 115:115 116:135 117:35 118:117 119:133 120:35 121:145 122:132 123:35 124:144 125:133 126:36 127:137 128:128 129:36 130:135 131:130 132:37 133:119 134:139 135:37 136:118 137:141 138:37 139:126 140:136 141:37 142:132 143:129 144:35 145:143 146:134 147:35 148:148 149:129 150:35 151:135 152:128 153:35 154:138 155:126 156:37 157:129 158:128 159:37 160:123 161:135 162:38 163:136 164:133 165:38 166:139 167:130 168:35 169:123 170:145 171:35 172:125 173:143 174:35 175:129 176:134 177:35 178:131 179:132 180:37 181:128 182:134 183:37 184:126 185:136 186:39 187:114 188:136 189:39 190:115 191:135 192:-1 
0.12109375 0:36 1:118 2:134 3:35 4:122 5:132 6:35 7:126 8:127 9:36 10:134 11:126 12:36 13:125 14:135 15:36 16:107 17:140 18:36 19:111 20:135 21:37 22:97 23:132 24:35 25:141 26:119 27:37 28:135 29:130 30:37 31:129 32:136 33:38 34:116 35:139 36:38 37:112 38:143 39:37 40:110 41:144 42:37 43:124 44:128 45:37 46:164 47:107 48:35 49:177 50:91 51:38 52:118 53:125 54:38 55:101 56:146 57:35 58:91 59:143 60:35 61:95 62:137 63:35 64:121 65:129 66:35 67:134 68:116 69:35 70:154 71:116 72:35 73:153 74:110 75:35 76:95 77:137 78:35 79:87 80:149 81:34 82:87 83:141 84:34 85:91 86:134 87:34 88:109 89:129 90:34 91:105 92:133 93:33 94:110 95:137 96:36 97:136 98:124 99:37 100:86 101:149 102:37 103:87 104:146 105:37 106:76 107:135 108:37 109:78 110:130 111:37 112:94 113:135 114:37 115:87 116:147 117:35 118:85 119:153 120:38 121:135 122:123 123:37 124:142 125:124 126:37 127:147 128:120 129:35 130:148 131:121 132:35 133:141 134:127 135:33 136:134 137:126 138:33 139:130 140:129 141:34 142:119 143:133 144:37 145:133 146:132 147:36 148:151 149:125 150:36 151:161 152:117 153:35 154:159 155:120 156:35 157:148 158:129 159:35 160:139 161:128 162:35 163:149 164:120 165:36 166:150 167:117 168:40 169:87 170:152 171:37 172:90 173:141 174:37 175:103 176:124 177:36 178:109 179:126 180:36 181:108 182:127 183:36 184:125 185:126 186:36 187:136 188:116 189:37 190:150 191:117 192:-1 
0.12109375 0:39 1:138 2:122 3:38 4:153 5:118 6:38 7:160 8:113 9:38 10:174 11:114 12:38 13:170 14:117 15:38 16:154 17:121 18:38 19:142 20:131 21:38 22:128 23:135 24:37 25:158 26:116 27:38 28:191 29:107 30:38 31:192 32:106 33:39 34:162 35:120 36:39 37:150 38:129 39:39 40:124 41:136 42:39 43:123 44:137 45:37 46:120 47:132 48:37 49:165 50:119 51:37 52:165 53:119 54:37 55:157 56:125 57:37 58:137 59:128 60:37 61:136 62:129 63:36 64:111 65:135 66:36 67:113 68:133 69:36 70:113 71:129 72:40 73:141 74:130 75:40 76:131 77:140 78:40 79:132 80:139 81:39 82:129 83:130 84:39 85:136 86:124 87:39 88:108 89:135 90:39 91:105 92:139 93:37 94:108 95:130 96:41 97:158 98:126 99:39 100:157 101:128 102:39 103:159 104:127 105:40 106:174 107:117 108:40 109:185 110:110 111:42 112:137 113:128 114:42 115:119 116:148 117:39 118:103 119:141 120:39 121:153 122:123 123:38 124:154 125:126 126:38 127:154 128:126 129:39 130:171 131:118 132:39 133:177 134:114 135:40 136:147 137:125 138:40 139:134 140:137 141:39 142:129 143:130 144:38 145:172 146:123 147:38 148:162 149:126 150:38 151:163 152:125 153:38 154:174 155:117 156:38 157:189 158:108 159:40 160:174 161:120 162:40 163:167 164:125 165:38 166:178 167:119 168:37 169:161 170:122 171:37 172:164 173:120 174:37 175:172 176:114 177:37 178:174 179:113 180:37 181:172 182:114 183:41 184:167 185:122 186:41 187:156 188:131 189:40 190:144 191:133 192:-1 
0.12109375 0:37 1:101 2:139 3:36 4:95 5:140 6:36 7:80 8:165 9:35 10:83 11:166 12:35 13:98 14:140 15:35 16:110 17:134 18:35 19:111 20:133 21:35 22:93 23:148 24:38 25:106 26:147 27:35 28:98 29:133 30:35 31:83 32:157 33:35 34:81 35:169 36:35 37:84 38:163 39:35 40:119 41:142 42:35 43:185 44:91 45:37 46:171 47:115 48:43 49:98 50:154 51:39 52:102 53:135 54:39 55:96 56:143 57:35 58:96 59:148 60:35 61:99 62:144 63:33 64:105 65:143 66:33 67:118 68:128 69:34 70:112 71:137 72:46 73:67 74:159 75:42 76:67 77:144 78:42 79:71 80:136 81:35 82:86 83:130 84:35 85:98 86:115 87:32 88:94 89:136 90:32 91:79 92:161 93:32 94:82 95:147 96:40 97:76 98:157 99:39 100:93 101:126 102:39 103:99 104:118 105:39 106:108 107:127 108:39 109:108 110:128 111:35 112:95 113:137 114:35 115:87 116:150 117:32 118:97 119:131 120:34 121:103 122:149 123:35 124:162 125:107 126:35 127:204 128:85 129:38 130:198 131:94 132:38 133:159 134:117 135:37 136:108 137:137 138:37 139:101 140:146 141:35 142:103 143:126 144:32 145:76 146:150 147:33 148:130 149:116 150:33 151:173 152:87 153:35 154:198 155:90 156:35 157:196 158:91 159:37 160:150 161:117 162:37 163:134 164:131 165:37 166:154 167:119 168:34 169:65 170:160 171:28 172:81 173:145 174:28 175:78 176:151 177:29 178:115 179:138 180:29 181:165 182:96 183:34 184:162 185:110 186:34 187:139 188:128 189:38 190:144 191:124 192:-1 
0.12109375 0:35 1:146 2:110 3:37 4:166 5:89 6:37 7:115 8:129 9:35 10:95 11:156 12:35 13:106 14:140 15:37 16:116 17:147 18:37 19:106 20:161 21:35 22:98 23:177 24:35 25:90 26:158 27:36 28:100 29:138 30:36 31:96 32:144 33:38 34:98 35:151 36:38 37:120 38:123 39:39 40:111 41:151 42:39 43:92 44:182 45:36 46:91 47:179 48:38 49:64 50:171 51:34 52:82 53:159 54:34 55:85 56:153 57:34 58:100 59:148 60:34 61:112 62:132 63:38 64:102 65:163 66:38 67:96 68:173 69:38 70:170 71:132 72:43 73:81 74:155 75:34 76:95 77:148 78:34 79:92 80:152 81:33 82:99 83:152 84:33 85:104 86:144 87:36 88:84 89:163 90:36 91:83 92:166 93:37 94:131 95:134 96:42 97:121 98:135 99:34 100:99 101:141 102:34 103:93 104:151 105:33 106:90 107:161 108:33 109:100 110:146 111:36 112:113 113:145 114:36 115:119 116:137 117:38 118:108 119:149 120:44 121:99 122:142 123:31 124:84 125:134 126:31 127:88 128:128 129:35 130:84 131:143 132:35 133:82 134:147 135:39 136:138 137:100 138:39 139:150 140:92 141:42 142:101 143:141 144:33 145:47 146:159 147:18 148:58 149:167 150:18 151:74 152:131 153:20 154:90 155:125 156:20 157:74 158:152 159:26 160:118 161:110 162:26 163:163 164:80 165:26 166:100 167:128 168:21 169:49 170:183 171:13 172:46 173:195 174:13 175:64 176:140 177:15 178:100 179:115 180:15 181:84 182:137 183:19 184:109 185:129 186:19 187:114 188:123 189:24 190:127 191:116 192:-1 
0.12109375 0:28 1:127 2:142 3:33 4:128 5:132 6:33 7:131 8:128 9:33 10:108 11:156 12:33 13:87 14:193 15:27 16:147 17:128 18:27 19:255 20:70 21:25 22:147 23:130 24:28 25:119 26:144 27:32 28:120 29:144 30:32 31:149 32:116 33:31 34:124 35:138 36:31 37:92 38:185 39:26 40:110 41:163 42:26 43:159 44:112 45:21 46:142 47:126 48:28 49:128 50:134 51:31 52:111 53:149 54:31 55:124 56:134 57:29 58:122 59:138 60:29 61:96 62:176 63:28 64:89 65:181 66:28 67:102 68:157 69:24 70:132 71:120 72:29 73:160 74:116 75:28 76:129 77:136 78:28 79:109 80:161 81:27 82:79 83:174 84:27 85:74 86:185 87:26 88:79 89:165 90:26 91:83 92:156 93:29 94:85 95:147 96:27 97:166 98:132 99:26 100:202 101:121 102:26 103:159 104:154 105:29 106:112 107:166 108:29 109:116 110:161 111:30 112:125 113:137 114:30 115:131 116:130 117:30 118:108 119:147 120:25 121:105 122:155 123:24 124:150 125:139 126:24 127:162 128:129 129:26 130:173 131:134 132:26 133:171 134:136 135:29 136:172 137:120 138:29 139:171 140:121 141:27 142:117 143:151 144:27 145:119 146:154 147:27 148:123 149:153 150:27 151:125 152:151 153:26 154:131 155:148 156:26 157:129 158:150 159:25 160:130 161:141 162:25 163:119 164:154 165:23 166:75 167:196 168:30 169:154 170:151 171:29 172:140 173:151 174:29 175:137 176:155 177:28 178:113 179:151 180:28 181:118 182:145 183:25 184:100 185:146 186:25 187:93 188:157 189:25 190:74 191:190 192:-1 
0.12109375 0:32 1:78 2:177 3:32 4:86 5:174 6:32 7:113 8:133 9:26 10:107 11:150 12:26 13:97 14:166 15:26 16:114 17:141 18:26 19:135 20:119 21:29 22:111 23:129 24:35 25:128 26:146 27:33 28:101 29:156 30:33 31:98 32:161 33:26 34:158 35:113 36:26 37:167 38:107 39:28 40:165 41:113 42:28 43:141 44:132 45:29 46:99 47:139 48:33 49:159 50:114 51:33 52:110 53:137 54:33 55:89 56:169 57:28 58:151 59:103 60:28 61:154 62:101 63:28 64:126 65:128 66:28 67:103 68:156 69:27 70:68 71:157 72:30 73:114 74:123 75:30 76:95 77:147 78:30 79:83 80:169 81:27 82:123 83:122 84:27 85:131 86:115 87:25 88:99 89:141 90:25 91:89 92:158 93:23 94:65 95:162 96:27 97:64 98:160 99:27 100:62 101:164 102:27 103:60 104:170 105:25 106:81 107:154 108:25 109:92 110:136 111:23 112:97 113:137 114:23 115:85 116:156 117:25 118:67 119:159 120:30 121:62 122:144 123:29 124:54 125:156 126:29 127:50 128:170 129:25 130:66 131:162 132:25 133:73 134:146 135:26 136:98 137:133 138:26 139:88 140:147 141:29 142:77 143:143 144:29 145:255 146:30 147:35 148:115 149:93 150:35 151:69 152:156 153:29 154:84 155:148 156:29 157:93 158:134 159:28 160:157 161:109 162:28 163:137 164:125 165:30 166:120 167:132 168:25 169:198 170:76 171:25 172:162 173:74 174:25 175:136 176:88 177:35 178:91 179:138 180:35 181:81 182:155 183:29 184:105 185:136 186:29 187:107 188:133 189:30 190:96 191:141 192:-1 
0.12109375 0:23 1:108 2:206 3:26 4:152 5:149 6:26 7:144 8:158 9:25 10:104 11:194 12:25 13:114 14:176 15:29 16:103 17:154 18:29 19:108 20:147 21:35 22:128 23:140 24:25 25:76 26:200 27:23 28:99 29:188 30:23 31:115 32:162 33:26 34:146 35:143 36:26 37:124 38:168 39:32 40:132 41:158 42:32 43:162 44:129 45:35 46:208 47:113 48:26 49:73 50:193 51:25 52:90 53:193 54:25 55:99 56:175 57:28 58:135 59:145 60:28 61:107 62:183 63:28 64:111 65:177 66:28 67:128 68:153 69:29 70:142 71:142 72:28 73:91 74:193 75:26 76:92 77:188 78:26 79:98 80:177 81:28 82:120 83:164 84:28 85:116 86:169 87:27 88:121 89:160 90:27 91:115 92:168 93:28 94:101 95:170 96:29 97:116 98:170 99:26 100:108 101:189 102:26 103:103 104:199 105:26 106:85 107:194 108:26 109:100 110:165 111:27 112:96 113:156 114:27 115:92 116:164 117:30 118:86 119:163 120:31 121:137 122:151 123:29 124:155 125:155 126:29 127:133 128:180 129:29 130:95 131:188 132:29 133:114 134:156 135:31 136:102 137:158 138:31 139:97 140:166 141:32 142:113 143:149 144:34 145:109 146:173 147:30 148:168 149:138 150:30 151:154 152:151 153:29 154:150 155:165 156:29 157:196 158:126 159:31 160:195 161:118 162:31 163:169 164:136 165:33 166:195 167:127 168:35 169:95 170:201 171:29 172:110 173:179 174:29 175:108 176:181 177:27 178:119 179:184 180:27 181:141 182:156 183:30 184:179 185:124 186:30 187:176 188:126 189:33 190:158 191:145 192:-1 
0.12109375 0:34 1:86 2:172 3:34 4:84 5:177 6:32 7:79 8:162 9:32 10:83 11:154 12:30 13:88 14:153 15:30 16:83 17:162 18:31 19:97 20:165 21:31 22:100 23:160 24:38 25:97 26:152 27:38 28:92 29:161 30:41 31:79 32:177 33:41 34:84 35:167 36:32 37:82 38:161 39:32 40:79 41:168 42:32 43:96 44:162 45:32 46:99 47:157 48:42 49:255 50:68 51:41 52:183 53:99 54:45 55:98 56:166 57:45 58:107 59:153 60:34 61:138 62:137 63:34 64:114 65:165 66:33 67:121 68:164 69:33 70:125 71:159 72:35 73:168 74:114 75:35 76:146 77:131 78:36 79:109 80:154 81:36 82:109 83:154 84:35 85:127 86:147 87:35 88:117 89:159 90:34 91:141 92:146 93:34 94:155 95:133 96:30 97:79 98:172 99:30 100:76 101:178 102:29 103:92 104:160 105:29 106:97 107:152 108:35 109:114 110:152 111:35 112:120 113:144 114:36 115:146 116:136 117:36 118:160 119:124 120:28 121:64 122:192 123:28 124:64 125:192 126:27 127:96 128:157 129:27 130:106 131:142 132:35 133:114 134:152 135:35 136:165 137:105 138:38 139:156 140:116 141:38 142:122 143:148 144:27 145:77 146:178 147:27 148:69 149:201 150:25 151:71 152:176 153:25 154:79 155:158 156:32 157:84 158:163 159:32 160:102 161:135 162:33 163:139 164:127 165:33 166:128 167:138 168:29 169:87 170:164 171:29 172:72 173:199 174:26 175:62 176:189 177:26 178:67 179:175 180:32 181:84 182:164 183:32 184:97 185:142 186:33 187:153 188:130 189:33 190:173 191:115 192:-1 
0.12109375 0:27 1:86 2:154 3:27 4:88 5:150 6:28 7:95 8:150 9:28 10:97 11:147 12:30 13:108 14:142 15:30 16:105 17:146 18:32 19:109 20:148 21:32 22:112 23:143 24:28 25:83 26:148 27:28 28:83 29:148 30:29 31:85 32:150 33:29 34:90 35:141 36:30 37:99 38:137 39:30 40:97 41:140 42:33 43:105 44:143 45:33 46:107 47:141 48:31 49:85 50:147 51:31 52:85 53:147 54:29 55:82 56:152 57:29 58:87 59:143 60:30 61:100 62:135 63:30 64:94 65:144 66:33 67:101 68:149 69:33 70:107 71:141 72:35 73:80 74:150 75:35 76:81 77:148 78:35 79:82 80:153 81:35 82:83 83:151 84:35 85:98 86:140 87:35 88:94 89:146 90:35 91:94 92:152 93:35 94:98 95:146 96:39 97:86 98:151 99:39 100:87 101:150 102:37 103:94 104:144 105:37 106:93 107:146 108:37 109:103 110:143 111:37 112:141 113:105 114:40 115:124 116:127 117:40 118:97 119:163 120:34 121:83 122:148 123:34 124:79 125:154 126:35 127:93 128:140 129:35 130:93 131:140 132:36 133:102 134:142 135:36 136:126 137:115 138:39 139:156 140:108 141:39 142:123 143:137 144:31 145:89 146:141 147:31 148:89 149:140 150:33 151:105 152:133 153:33 154:105 155:133 156:35 157:112 158:139 159:35 160:115 161:135 162:38 163:144 164:126 165:38 166:165 167:110 168:33 169:109 170:129 171:33 172:106 173:132 174:35 175:115 176:135 177:35 178:117 179:133 180:37 181:133 182:128 183:37 184:132 185:129 186:38 187:126 188:138 189:38 190:128 191:136 192:-1 
0.12109375 0:36 1:108 2:147 3:35 4:101 5:146 6:35 7:104 8:142 9:33 10:123 11:133 12:33 13:120 14:136 15:33 16:110 17:144 18:33 19:105 20:150 21:33 22:97 23:144 24:35 25:114 26:141 27:35 28:116 29:139 30:35 31:111 32:145 33:32 34:119 35:141 36:32 37:128 38:132 39:32 40:122 41:138 42:32 43:109 44:155 45:32 46:92 47:149 48:35 49:120 50:140 51:32 52:122 53:138 54:32 55:114 56:148 57:29 58:93 59:153 60:29 61:98 62:146 63:29 64:90 65:141 66:29 67:86 68:148 69:31 70:84 71:149 72:33 73:95 74:148 75:31 76:82 77:153 78:31 79:77 80:163 81:26 82:72 83:169 84:26 85:77 86:160 87:26 88:93 89:146 90:26 91:108 92:125 93:29 94:108 95:128 96:35 97:80 98:163 99:31 100:65 101:158 102:31 103:66 104:154 105:29 106:76 107:157 108:29 109:81 110:148 111:30 112:104 113:135 114:30 115:118 116:119 117:33 118:134 119:126 120:32 121:82 122:162 123:29 124:82 125:153 126:29 127:86 128:146 129:30 130:97 131:145 132:30 133:103 134:136 135:30 136:148 137:124 138:30 139:139 140:132 141:33 142:139 143:136 144:32 145:114 146:132 147:32 148:122 149:127 150:32 151:119 152:131 153:35 154:95 155:156 156:35 157:93 158:159 159:29 160:113 161:144 162:29 163:116 164:141 165:31 166:124 167:138 168:29 169:110 170:135 171:31 172:95 173:131 174:31 175:105 176:119 177:35 178:84 179:142 180:35 181:75 182:160 183:31 184:78 185:160 186:31 187:85 188:147 189:31 190:112 191:143 192:-1 
0.12109375 0:35 1:118 2:143 3:35 4:113 5:149 6:35 7:105 8:153 9:35 10:105 11:153 12:37 13:111 14:154 15:37 16:113 17:151 18:35 19:121 20:148 21:35 22:121 23:148 24:35 25:98 26:151 27:35 28:96 29:154 30:35 31:92 32:156 33:35 34:94 35:152 36:36 37:107 38:148 39:36 40:111 41:143 42:35 43:124 44:140 45:35 46:129 47:134 48:30 49:90 50:151 51:30 52:90 53:151 54:34 55:95 56:148 57:34 58:97 59:144 60:36 61:113 62:145 63:36 64:116 65:141 66:37 67:118 68:141 69:37 70:119 71:139 72:31 73:74 74:152 75:31 76:77 77:145 78:35 79:103 80:139 81:35 82:103 83:138 84:37 85:117 86:142 87:37 88:119 89:139 90:37 91:121 92:141 93:37 94:121 95:141 96:34 97:90 98:144 99:34 100:95 101:137 102:38 103:118 104:136 105:38 106:114 107:141 108:38 109:126 110:142 111:38 112:127 113:141 114:37 115:125 116:141 117:37 118:125 119:141 120:36 121:97 122:142 123:36 124:100 125:138 126:39 127:113 128:144 129:39 130:115 131:142 132:38 133:118 134:140 135:38 136:119 137:139 138:38 139:128 140:140 141:38 142:128 143:140 144:37 145:91 146:148 147:37 148:93 149:146 150:39 151:104 152:145 153:39 154:107 155:141 156:38 157:123 158:141 159:38 160:125 161:139 162:36 163:138 164:137 165:36 166:139 167:136 168:35 169:105 170:141 171:35 172:106 173:140 174:36 175:124 176:136 177:36 178:126 179:134 180:36 181:127 182:133 183:36 184:129 185:130 186:37 187:131 188:134 189:37 190:130 191:135 192:-1 
0.12109375 0:34 1:90 2:155 3:33 4:95 5:153 6:33 7:96 8:152 9:34 10:97 11:152 12:34 13:97 14:153 15:35 16:99 17:157 18:35 19:99 20:157 21:35 22:110 23:157 24:35 25:94 26:152 27:33 28:92 29:152 30:33 31:92 32:153 33:33 34:103 35:154 36:33 37:102 38:155 39:35 40:107 41:158 42:35 43:107 44:158 45:35 46:110 47:157 48:34 49:94 50:149 51:34 52:97 53:153 54:34 55:95 56:156 57:34 58:95 59:155 60:34 61:95 62:155 63:35 64:100 65:155 66:35 67:100 68:156 69:35 70:104 71:154 72:34 73:91 74:148 75:35 76:93 77:153 78:35 79:92 80:156 81:35 82:100 83:155 84:35 85:100 86:155 87:35 88:111 89:152 90:35 91:109 92:154 93:35 94:113 95:154 96:32 97:94 98:152 99:34 100:95 101:155 102:34 103:96 104:154 105:35 106:102 107:153 108:35 109:102 110:153 111:35 112:114 113:152 114:35 115:114 116:152 117:35 118:113 119:153 120:34 121:97 122:157 123:35 124:99 125:157 126:35 127:101 128:154 129:35 130:106 131:151 132:35 133:106 134:151 135:35 136:108 137:156 138:35 139:109 140:154 141:35 142:114 143:152 144:34 145:97 146:157 147:35 148:100 149:155 150:35 151:102 152:153 153:35 154:103 155:151 156:35 157:102 158:153 159:35 160:103 161:156 162:35 163:104 164:154 165:34 166:103 167:153 168:35 169:102 170:157 171:35 172:104 173:155 174:35 175:105 176:153 177:35 178:105 179:153 180:35 181:104 182:154 183:35 184:101 185:154 186:35 187:100 188:155 189:35 190:96 191:154 192:-1 
0.12109375 0:36 1:92 2:164 3:36 4:91 5:165 6:38 7:89 8:166 9:38 10:89 11:166 12:38 13:90 14:165 15:38 16:90 17:165 18:37 19:93 20:165 21:37 22:93 23:164 24:37 25:84 26:166 27:37 28:84 29:166 30:37 31:90 32:165 33:37 34:90 35:165 36:36 37:90 38:162 39:36 40:90 41:161 42:35 43:88 44:162 45:35 46:88 47:162 48:37 49:93 50:165 51:37 52:92 53:167 54:35 55:97 56:161 57:35 58:94 59:165 60:35 61:94 62:165 63:35 64:95 65:164 66:35 67:91 68:163 69:35 70:91 71:163 72:35 73:84 74:169 75:35 76:83 77:173 78:30 79:81 80:166 81:30 82:80 83:169 84:30 85:80 86:168 87:30 88:83 89:162 90:34 91:87 92:162 93:34 94:87 95:162 96:35 97:72 98:173 99:35 100:69 101:181 102:31 103:64 104:176 105:31 106:65 107:173 108:31 109:74 110:169 111:31 112:77 113:162 114:31 115:81 116:161 117:31 118:82 119:159 120:37 121:75 122:170 123:37 124:72 125:177 126:35 127:69 128:173 129:35 130:73 131:165 132:32 133:79 134:162 135:32 136:79 137:162 138:32 139:78 140:163 141:32 142:80 143:159 144:35 145:80 146:163 147:35 148:77 149:168 150:34 151:79 152:164 153:34 154:80 155:163 156:32 157:79 158:162 159:32 160:79 161:161 162:32 163:82 164:161 165:32 166:86 167:154 168:35 169:87 170:158 171:35 172:85 173:162 174:34 175:80 176:162 177:34 178:80 179:162 180:34 181:80 182:162 183:34 184:80 185:162 186:34 187:88 188:160 189:34 190:90 191:155 192:-1 
0.12109375 0:35 1:107 2:158 3:35 4:111 5:151 6:35 7:115 8:151 9:35 10:116 11:149 12:35 13:114 14:148 15:35 16:109 17:154 18:35 19:88 20:156 21:35 22:87 23:159 24:35 25:97 26:161 27:35 28:97 29:161 30:35 31:102 32:158 33:35 34:104 35:155 36:36 37:106 38:154 39:36 40:103 41:158 42:37 43:96 44:160 45:37 46:94 47:162 48:35 49:91 50:162 51:35 52:91 53:162 54:36 55:97 56:163 57:36 58:98 59:161 60:36 61:97 62:163 63:36 64:95 65:166 66:38 67:94 68:165 69:38 70:94 71:166 72:34 73:94 74:163 75:34 76:94 77:163 78:34 79:97 80:163 81:34 82:97 83:163 84:35 85:102 86:165 87:35 88:103 89:164 90:36 91:97 92:163 93:36 94:96 95:165 96:35 97:90 98:165 99:35 100:90 101:165 102:35 103:89 104:166 105:35 106:90 107:165 108:35 109:94 110:165 111:35 112:96 113:162 114:35 115:98 116:159 117:35 118:98 119:159 120:36 121:95 122:166 123:36 124:95 125:166 126:35 127:94 128:166 129:35 130:92 131:170 132:35 133:94 134:166 135:35 136:97 137:161 138:35 139:102 140:157 141:35 142:102 143:158 144:38 145:94 146:165 147:38 148:95 149:164 150:36 151:92 152:163 153:36 154:91 155:165 156:35 157:95 158:163 159:35 160:98 161:158 162:35 163:102 164:158 165:35 166:101 167:159 168:38 169:103 170:161 171:38 172:104 173:159 174:38 175:106 176:156 177:38 178:103 179:161 180:35 181:93 182:159 183:35 184:94 185:158 186:35 187:94 188:158 189:35 190:93 191:159 192:-1 
0.12109375 0:36 1:105 2:151 3:36 4:100 5:158 6:35 7:97 8:160 9:35 10:95 11:164 12:33 13:105 14:155 15:33 16:112 17:146 18:33 19:128 20:147 21:33 22:123 23:153 24:35 25:106 26:151 27:35 28:106 29:151 30:36 31:114 32:147 33:36 34:115 35:146 36:35 37:121 38:148 39:35 40:116 41:154 42:34 43:110 44:155 45:34 46:106 47:161 48:34 49:99 50:149 51:34 52:99 53:149 54:35 55:104 56:150 57:35 58:107 59:145 60:35 61:104 62:150 63:35 64:98 65:159 66:34 67:85 68:165 69:34 70:87 71:162 72:32 73:106 74:147 75:32 76:104 77:149 78:32 79:106 80:151 81:32 82:108 83:149 84:32 85:111 86:151 87:32 88:107 89:157 90:32 91:99 92:163 93:32 94:99 95:162 96:31 97:99 98:149 99:31 100:95 101:155 102:30 103:88 104:159 105:30 106:90 107:156 108:32 109:104 110:155 111:32 112:102 113:157 114:32 115:105 116:160 117:32 118:107 119:157 120:32 121:104 122:149 123:32 124:100 125:155 126:32 127:90 128:159 129:32 130:92 131:156 132:31 133:102 134:157 135:31 136:100 137:160 138:32 139:106 140:163 141:32 142:108 143:161 144:32 145:116 146:145 147:32 148:111 149:151 150:32 151:100 152:155 153:32 154:100 155:155 156:32 157:92 158:155 159:32 160:86 161:167 162:34 163:82 164:172 165:34 166:83 167:169 168:32 169:89 170:160 171:32 172:93 173:154 174:30 175:92 176:153 177:30 178:92 179:152 180:34 181:91 182:154 183:34 184:84 185:166 186:35 187:79 188:175 189:35 190:81 191:169 192:-1 
0.12109375 0:38 1:101 2:147 3:37 4:100 5:148 6:37 7:101 8:147 9:36 10:96 11:144 12:36 13:96 14:144 15:35 16:95 17:150 18:35 19:98 20:145 21:33 22:102 23:142 24:36 25:102 26:143 27:35 28:96 29:144 30:35 31:93 32:148 33:37 34:84 35:152 36:37 37:84 38:152 39:37 40:75 41:152 42:37 43:75 44:153 45:34 46:64 47:156 48:36 49:96 50:144 51:37 52:88 53:145 54:37 55:86 56:149 57:38 58:77 59:152 60:38 61:78 62:151 63:37 64:75 65:147 66:37 67:73 68:150 69:34 70:70 71:150 72:32 73:87 74:152 75:34 76:87 77:150 78:34 79:87 80:149 81:35 82:83 83:150 84:35 85:84 86:149 87:35 88:83 89:144 90:35 91:82 92:147 93:34 94:72 95:146 96:34 97:73 98:160 99:35 100:80 101:156 102:35 103:82 104:152 105:34 106:91 107:148 108:34 109:92 110:147 111:33 112:95 113:147 114:33 115:95 116:148 117:31 118:85 119:147 120:35 121:83 122:157 123:35 124:84 125:155 126:35 127:85 128:153 129:31 130:82 131:152 132:31 133:76 134:164 135:29 136:71 137:168 138:29 139:72 140:167 141:31 142:67 143:167 144:35 145:83 146:151 147:33 148:74 149:148 150:33 151:74 152:148 153:31 154:66 155:155 156:31 157:60 158:171 159:29 160:60 161:174 162:29 163:60 164:174 165:29 166:67 167:171 168:34 169:88 170:148 171:31 172:88 173:142 174:31 175:86 176:145 177:31 178:82 179:147 180:31 181:82 182:147 183:29 184:83 185:151 186:29 187:84 188:149 189:29 190:92 191:149 192:-1 
0.1210937499999999 0:34 1:110 2:155 3:34 4:117 5:152 6:34 7:118 8:151 9:34 10:118 11:151 12:34 13:119 14:150 15:34 16:110 17:150 18:34 19:110 20:151 21:31 22:85 23:153 24:35 25:104 26:154 27:33 28:111 29:152 30:33 31:112 32:150 33:33 34:120 35:151 36:33 37:120 38:151 39:33 40:111 41:151 42:33 43:111 44:152 45:33 46:97 47:155 48:33 49:108 50:151 51:32 52:104 53:154 54:32 55:105 56:153 57:32 58:111 59:151 60:32 61:111 62:152 63:33 64:109 65:154 66:33 67:111 68:152 69:33 70:103 71:153 72:33 73:100 74:146 75:34 76:101 77:151 78:34 79:101 80:151 81:34 82:114 83:150 84:34 85:113 86:151 87:34 88:106 89:157 90:34 91:109 92:152 93:33 94:100 95:150 96:33 97:116 98:145 99:35 100:111 101:151 102:35 103:111 104:151 105:35 106:117 107:148 108:35 109:116 110:150 111:35 112:114 113:152 114:35 115:114 116:152 117:33 118:111 119:151 120:34 121:124 122:148 123:35 124:120 125:149 126:35 127:120 128:149 129:35 130:120 131:149 132:35 133:117 134:152 135:35 136:114 137:152 138:35 139:114 140:152 141:35 142:114 143:152 144:33 145:130 146:149 147:35 148:123 149:151 150:35 151:122 152:152 153:35 154:121 155:154 156:35 157:121 158:154 159:35 160:117 161:153 162:35 163:117 164:152 165:35 166:114 167:152 168:34 169:122 170:151 171:36 172:119 173:152 174:36 175:114 176:159 177:36 178:107 179:158 180:36 181:106 182:159 183:36 184:101 185:157 186:36 187:103 188:153 189:36 190:111 191:151 192:-1 
0.1210937499999999 0:36 1:116 2:152 3:36 4:117 5:151 6:36 7:117 8:150 9:36 10:118 11:149 12:36 13:118 14:149 15:37 16:119 17:148 18:37 19:119 20:148 21:37 22:119 23:148 24:35 25:113 26:149 27:35 28:116 29:149 30:35 31:116 32:149 33:35 34:117 35:148 36:35 37:117 38:148 39:36 40:118 41:149 42:36 43:115 44:153 45:36 46:114 47:155 48:34 49:116 50:147 51:34 52:116 53:147 54:34 55:116 56:147 57:35 58:117 59:148 60:35 61:117 62:148 63:35 64:110 65:146 66:35 67:109 68:148 69:35 70:103 71:151 72:34 73:117 74:146 75:34 76:115 77:148 78:34 79:115 80:148 81:35 82:117 83:148 84:35 85:117 86:148 87:35 88:109 89:147 90:35 91:109 92:148 93:34 94:107 95:148 96:34 97:115 98:149 99:33 100:117 101:150 102:33 103:117 104:150 105:34 106:119 107:150 108:34 109:119 110:150 111:35 112:119 113:150 114:35 115:120 116:149 117:34 118:112 119:148 120:35 121:114 122:152 123:35 124:116 125:154 126:35 127:117 128:153 129:35 130:117 131:152 132:35 133:119 134:150 135:34 136:120 137:149 138:34 139:121 140:147 141:34 142:116 143:147 144:35 145:111 146:156 147:34 148:111 149:154 150:34 151:110 152:155 153:34 154:117 155:152 156:34 157:118 158:151 159:34 160:118 161:151 162:34 163:119 164:150 165:34 166:110 167:150 168:35 169:105 170:153 171:35 172:105 173:153 174:35 175:104 176:154 177:33 178:111 179:152 180:33 181:112 182:150 183:33 184:120 185:151 186:33 187:120 188:151 189:33 190:111 191:151 192:-1 
0.12109375 0:35 1:89 2:160 3:35 4:92 5:156 6:35 7:104 8:154 9:35 10:106 11:151 12:35 13:117 14:148 15:35 16:119 17:146 18:34 19:123 20:145 21:34 22:118 23:151 24:35 25:92 26:155 27:35 28:95 29:151 30:34 31:93 32:151 33:34 34:95 35:147 36:35 37:107 38:150 39:35 40:106 41:151 42:35 43:104 44:154 45:35 46:102 47:158 48:35 49:89 50:146 51:35 52:88 53:148 54:34 55:97 56:152 57:34 58:97 59:153 60:34 61:104 62:152 63:34 64:104 65:152 66:35 67:102 68:157 69:35 70:100 71:161 72:34 73:104 74:147 75:34 76:101 77:152 78:35 79:92 80:155 81:35 82:92 83:156 84:35 85:88 86:156 87:35 88:89 89:154 90:35 91:89 92:155 93:35 94:88 95:156 96:35 97:92 98:150 99:35 100:90 101:153 102:35 103:86 104:152 105:35 106:84 107:155 108:35 109:83 110:156 111:35 112:84 113:154 114:35 115:89 116:155 117:35 118:88 119:156 120:34 121:99 122:150 123:34 124:99 125:150 126:35 127:86 128:151 129:35 130:84 131:154 132:35 133:77 134:155 135:35 136:78 137:154 138:36 139:86 140:155 141:36 142:84 143:157 144:35 145:89 146:155 147:35 148:88 149:156 150:35 151:82 152:152 153:35 154:82 155:153 156:35 157:79 158:151 159:35 160:79 161:152 162:35 163:82 164:153 165:35 166:81 167:155 168:37 169:71 170:162 171:37 172:71 173:162 174:38 175:72 176:153 177:38 178:73 179:150 180:35 181:80 182:149 183:35 184:80 185:150 186:37 187:84 188:152 189:37 190:83 191:153 192:-1 
0.12109375 0:33 1:104 2:144 3:33 4:100 5:151 6:31 7:111 8:149 9:31 10:117 11:142 12:30 13:150 14:126 15:30 16:164 17:115 18:29 19:180 20:115 21:29 22:174 23:119 24:35 25:96 26:154 27:35 28:95 29:156 30:33 31:98 32:149 33:33 34:95 35:153 36:32 37:85 38:162 39:32 40:95 41:145 42:28 43:114 44:134 45:28 46:121 47:126 48:33 49:101 50:156 51:33 52:108 53:146 54:31 55:145 56:118 57:31 58:126 59:136 60:32 61:102 62:152 63:32 64:98 65:158 66:29 67:72 68:174 69:29 70:74 71:169 72:32 73:112 74:139 75:32 76:111 77:140 78:32 79:107 80:145 81:32 82:103 83:151 84:32 85:93 86:154 87:32 88:92 89:155 90:29 91:74 92:168 93:29 94:71 95:175 96:32 97:141 98:127 99:32 100:128 101:140 102:31 103:78 104:166 105:31 106:77 107:168 108:30 109:55 110:172 111:30 112:59 113:161 114:29 115:65 116:160 117:29 118:61 119:172 120:33 121:117 122:139 123:33 124:116 125:141 126:34 127:88 128:147 129:34 130:87 131:149 132:34 133:67 134:157 135:34 136:68 137:153 138:32 139:62 140:156 141:32 142:54 143:179 144:34 145:100 146:148 147:34 148:107 149:138 150:34 151:96 152:135 153:34 154:97 155:134 156:32 157:98 158:136 159:32 160:105 161:126 162:31 163:104 164:120 165:31 166:76 167:165 168:33 169:114 170:147 171:33 172:159 173:106 174:33 175:199 176:100 177:33 178:193 179:103 180:33 181:198 182:103 183:33 184:249 185:82 186:32 187:255 188:67 189:32 190:142 191:126 192:-1 
0.12109375 0:31 1:99 2:132 3:32 4:122 5:138 6:32 7:100 8:168 9:26 10:82 11:195 12:26 13:91 14:177 15:21 16:85 17:165 18:21 19:151 20:93 21:21 22:214 23:62 24:27 25:113 26:129 27:31 28:126 29:128 30:31 31:110 32:146 33:29 34:101 35:162 36:29 37:108 38:151 39:28 40:104 41:142 42:28 43:152 44:97 45:30 46:165 47:82 48:23 49:123 50:131 51:29 52:191 53:88 54:29 55:177 56:95 57:35 58:168 59:106 60:35 61:162 62:110 63:35 64:122 65:127 66:35 67:111 68:140 69:35 70:90 71:144 72:28 73:109 74:112 75:32 76:165 77:94 78:32 79:144 80:108 81:33 82:153 83:115 84:33 85:168 86:105 87:36 88:149 89:106 90:36 91:121 92:131 93:36 94:77 95:155 96:30 97:142 98:115 99:33 100:196 101:108 102:33 103:204 104:104 105:32 106:199 107:96 108:32 109:245 110:78 111:39 112:238 113:60 114:39 115:140 116:102 117:45 118:61 119:162 120:28 121:168 122:102 123:32 124:190 125:110 126:32 127:227 128:92 129:31 130:201 131:99 132:31 133:221 134:90 135:38 136:226 137:71 138:38 139:236 140:68 141:50 142:119 143:109 144:28 145:166 146:103 147:35 148:127 149:122 150:35 151:117 152:133 153:33 154:112 155:146 156:33 157:105 158:156 159:33 160:112 161:157 162:33 163:171 164:103 165:36 166:173 167:84 168:29 169:138 170:122 171:37 172:109 173:140 174:37 175:93 176:165 177:35 178:80 179:162 180:35 181:74 182:176 183:35 184:68 185:191 186:35 187:77 188:169 189:34 190:110 191:144 192:-1 
0.12109375 0:43 1:84 2:140 3:43 4:86 5:136 6:45 7:81 8:148 9:45 10:89 11:135 12:40 13:152 14:87 15:40 16:133 17:100 18:42 19:130 20:110 21:42 22:193 23:74 24:43 25:128 26:118 27:43 28:113 29:133 30:43 31:104 32:145 33:43 34:112 35:134 36:41 37:189 38:77 39:41 40:156 41:93 42:44 43:139 44:110 45:44 46:199 47:77 48:42 49:131 50:119 51:42 52:123 53:126 54:46 55:104 56:144 57:46 58:104 59:145 60:42 61:142 62:115 63:42 64:142 65:115 66:41 67:160 68:113 69:41 70:179 71:101 72:44 73:144 74:115 75:44 76:138 77:120 78:43 79:136 80:120 81:43 82:125 83:131 84:39 85:147 86:120 87:39 88:148 89:119 90:38 91:160 92:113 93:38 94:172 95:105 96:43 97:170 98:96 99:43 100:143 101:114 102:41 103:202 104:92 105:41 106:219 107:85 108:42 109:178 110:103 111:42 112:152 113:121 114:41 115:129 116:121 117:41 118:153 119:102 120:39 121:115 122:113 123:39 124:112 125:116 126:39 127:199 128:78 129:39 130:222 131:70 132:40 133:191 134:87 135:40 136:182 137:91 138:40 139:165 140:96 141:40 142:151 143:105 144:39 145:98 146:140 147:39 148:110 149:125 150:39 151:175 152:86 153:39 154:201 155:75 156:43 157:167 158:90 159:43 160:193 161:78 162:39 163:170 164:81 165:39 166:115 167:120 168:39 169:128 170:132 171:39 172:124 173:136 174:38 175:150 176:121 177:38 178:155 179:117 180:39 181:104 182:132 183:39 184:104 185:133 186:29 187:95 188:121 189:29 190:91 191:126 192:-1 
0.12109375 0:25 1:90 2:128 3:34 4:108 5:120 6:34 7:118 8:110 9:29 10:170 11:75 12:29 13:168 14:76 15:25 16:107 17:112 18:25 19:78 20:154 21:28 22:64 23:156 24:30 25:81 26:117 27:37 28:95 29:121 30:37 31:101 32:114 33:31 34:128 35:98 36:31 37:129 38:97 39:29 40:91 41:120 42:29 43:86 44:127 45:34 46:85 47:123 48:33 49:73 50:125 51:35 52:62 53:144 54:35 55:56 56:160 57:28 58:58 59:162 60:28 61:68 62:139 63:29 64:85 65:123 66:29 67:109 68:96 69:35 70:174 71:79 72:31 73:63 74:133 75:31 76:67 77:152 78:31 79:67 80:153 81:29 82:82 83:147 84:29 85:92 86:130 87:26 88:125 89:112 90:26 91:159 92:88 93:29 94:166 95:77 96:24 97:79 98:139 99:26 100:88 101:145 102:26 103:90 104:141 105:28 106:113 107:126 108:28 109:125 110:114 111:26 112:114 113:119 114:26 115:106 116:128 117:23 118:78 119:153 120:24 121:77 122:142 123:25 124:75 125:150 126:25 127:78 128:144 129:25 130:81 131:139 132:25 133:101 134:111 135:26 136:92 137:100 138:26 139:70 140:131 141:26 142:44 143:170 144:27 145:75 146:142 147:24 148:58 149:167 150:24 151:61 152:159 153:20 154:53 155:158 156:20 157:97 158:87 159:21 160:206 161:26 162:21 163:80 164:67 165:42 166:41 167:123 168:27 169:97 170:92 171:29 172:79 173:106 174:29 175:66 176:128 177:33 178:54 179:136 180:33 181:77 182:96 183:35 184:125 185:61 186:35 187:123 188:62 189:45 190:111 191:78 192:-1 
0.12109375 0:29 1:130 2:126 3:33 4:108 5:135 6:33 7:113 8:129 9:39 10:101 11:137 12:39 13:92 14:149 15:36 16:101 17:137 18:36 19:109 20:126 21:39 22:141 23:103 24:33 25:127 26:133 27:35 28:124 29:140 30:35 31:161 32:108 33:38 34:137 35:117 36:38 37:109 38:147 39:38 40:142 41:126 42:38 43:158 44:113 45:38 46:183 47:102 48:39 49:103 50:134 51:36 52:140 53:113 54:36 55:125 56:126 57:35 58:135 59:132 60:35 61:137 62:130 63:37 64:160 65:110 66:37 67:148 68:119 69:35 70:108 71:137 72:39 73:98 74:133 75:35 76:151 77:103 78:35 79:118 80:132 81:36 82:129 83:136 84:36 85:134 86:131 87:38 88:173 89:103 90:38 91:173 92:103 93:35 94:120 95:140 96:39 97:103 98:134 99:37 100:113 101:136 102:37 103:103 104:149 105:37 106:109 107:145 108:37 109:116 110:136 111:37 112:180 113:109 114:37 115:198 116:99 117:35 118:152 119:129 120:36 121:135 122:130 123:39 124:96 125:144 126:39 127:91 128:152 129:39 130:84 131:148 132:39 133:89 134:140 135:35 136:103 137:138 138:35 139:115 140:124 141:36 142:143 143:123 144:41 145:118 146:140 147:38 148:86 149:143 150:38 151:78 152:156 153:37 154:77 155:143 156:37 157:82 158:134 159:35 160:81 161:138 162:35 163:92 164:122 165:39 166:126 167:113 168:38 169:122 170:142 171:35 172:99 173:131 174:35 175:95 176:137 177:34 178:103 179:131 180:34 181:107 182:126 183:35 184:110 185:130 186:35 187:126 188:113 189:40 190:151 191:105 192:-1 
0.12109375 0:36 1:177 2:85 3:36 4:169 5:89 6:42 7:133 8:127 9:42 10:122 11:138 12:41 13:128 14:136 15:41 16:125 17:139 18:41 19:136 20:133 21:41 22:144 23:126 24:36 25:123 26:133 27:36 28:134 29:122 30:38 31:158 32:123 33:38 34:154 35:126 36:39 37:148 38:131 39:39 40:146 41:133 42:40 43:128 44:133 45:40 46:125 47:137 48:39 49:98 50:148 51:39 52:98 53:148 54:39 55:103 56:146 57:39 58:110 59:137 60:38 61:142 62:131 63:38 64:158 65:118 66:38 67:154 68:116 69:38 70:127 71:141 72:39 73:96 74:143 75:39 76:94 77:147 78:39 79:96 80:144 81:39 82:100 83:138 84:38 85:136 86:133 87:38 88:155 89:117 90:38 91:148 92:122 93:38 94:115 95:157 96:40 97:166 98:106 99:40 100:187 101:94 102:42 103:232 104:76 105:42 106:173 107:102 108:46 109:127 110:135 111:46 112:132 113:129 114:41 115:107 116:136 117:41 118:89 119:164 120:45 121:218 122:75 123:45 124:194 125:84 126:48 127:161 128:106 129:48 130:144 131:119 132:45 133:131 134:128 135:45 136:133 137:127 138:41 139:123 140:131 141:41 142:112 143:143 144:44 145:244 146:71 147:44 148:219 149:79 150:48 151:122 152:138 153:48 154:131 155:128 156:40 157:184 158:97 159:40 160:149 161:120 162:41 163:168 164:123 165:41 166:199 167:104 168:38 169:91 170:135 171:38 172:95 173:129 174:38 175:81 176:151 177:38 178:109 179:112 180:36 181:201 182:66 183:36 184:144 185:92 186:41 187:140 188:118 189:41 190:129 191:128 192:-1 
0.12109375 0:47 1:112 2:144 3:41 4:99 5:147 6:41 7:119 8:122 9:37 10:125 11:122 12:37 13:132 14:116 15:40 16:158 17:105 18:40 19:133 20:125 21:41 22:124 23:130 24:44 25:179 26:108 27:44 28:133 29:136 30:44 31:151 32:120 33:38 34:151 35:118 36:38 37:170 38:105 39:37 40:239 41:62 42:37 43:159 44:93 45:44 46:102 47:130 48:40 49:188 50:95 51:46 52:189 53:109 54:46 55:165 56:125 57:41 58:131 59:132 60:41 61:121 62:143 63:37 64:159 65:85 66:37 67:225 68:60 69:43 70:177 71:82 72:43 73:147 74:111 75:44 76:179 77:101 78:44 79:155 80:117 81:43 82:122 83:130 84:43 85:105 86:151 87:40 88:123 89:129 90:40 91:188 92:84 93:40 94:219 95:78 96:48 97:159 98:119 99:45 100:160 101:113 102:45 103:159 104:114 105:43 106:137 107:119 108:43 109:118 110:138 111:39 112:102 113:148 114:39 115:113 116:133 117:38 118:159 119:114 120:47 121:168 122:103 123:44 124:172 125:101 126:44 127:173 128:100 129:41 130:162 131:107 132:41 133:131 134:132 135:41 136:98 137:148 138:41 139:98 140:149 141:39 142:106 143:137 144:47 145:194 146:83 147:45 148:207 149:79 150:45 151:218 152:75 153:43 154:188 155:91 156:43 157:144 158:119 159:42 160:140 161:120 162:42 163:133 164:127 165:41 166:110 167:141 168:42 169:106 170:91 171:42 172:198 173:45 174:42 175:175 176:51 177:47 178:112 179:91 180:47 181:83 182:123 183:50 184:173 185:87 186:50 187:188 188:80 189:51 190:177 191:111 192:-1 
0.12109375 0:39 1:52 2:153 3:39 4:57 5:138 6:29 7:61 8:137 9:29 10:65 11:130 12:26 13:119 14:114 15:26 16:150 17:90 18:30 19:151 20:86 21:30 22:191 23:68 24:35 25:52 26:157 27:35 28:52 29:158 30:28 31:59 32:159 33:28 34:64 35:147 36:29 37:113 38:111 39:29 40:133 41:94 42:34 43:100 44:135 45:34 46:108 47:125 48:34 49:116 50:127 51:34 52:115 53:129 54:33 55:109 56:133 57:33 58:106 59:137 60:34 61:112 62:125 63:34 64:117 65:120 66:35 67:96 68:149 69:35 70:96 71:148 72:37 73:255 74:41 75:41 76:255 77:28 78:42 79:213 80:42 81:42 82:114 83:78 84:38 85:105 86:112 87:38 88:95 89:123 90:34 91:92 92:141 93:34 94:90 95:144 96:35 97:130 98:100 99:35 100:171 101:76 102:45 103:221 104:45 105:45 106:221 107:45 108:45 109:116 110:99 111:45 112:90 113:127 114:37 115:106 116:127 117:37 118:102 119:133 120:34 121:97 122:139 123:34 124:113 125:120 126:35 127:160 128:86 129:35 130:186 131:74 132:36 133:138 134:105 135:36 136:119 137:122 138:37 139:116 140:117 141:37 142:117 143:116 144:37 145:111 146:122 147:37 148:91 149:148 150:40 151:76 152:158 153:40 154:78 155:153 156:35 157:98 158:128 159:35 160:119 161:105 162:37 163:134 164:110 165:37 166:140 167:106 168:40 169:83 170:135 171:40 172:89 173:126 174:40 175:83 176:144 177:40 178:77 179:155 180:39 181:108 182:128 183:39 184:129 185:107 186:37 187:105 188:133 189:37 190:105 191:133 192:-1 
0.12109375 0:33 1:154 2:114 3:33 4:153 5:115 6:34 7:180 8:105 9:34 10:201 11:94 12:35 13:194 14:105 15:35 16:150 17:136 18:37 19:145 20:135 21:37 22:144 23:136 24:32 25:143 26:121 27:32 28:143 29:121 30:35 31:171 32:112 33:35 34:193 35:99 36:37 37:169 38:116 39:37 40:143 41:137 42:36 43:134 44:139 45:36 46:138 47:135 48:31 49:129 50:125 51:31 52:129 53:125 54:34 55:135 56:117 57:34 58:132 59:120 60:37 61:110 62:134 63:37 64:110 65:134 66:37 67:122 68:136 69:37 70:123 71:135 72:31 73:129 74:125 75:31 76:128 77:126 78:34 79:95 80:142 81:34 82:86 83:157 84:36 85:86 86:155 87:36 88:97 89:137 90:35 91:105 92:136 93:35 94:108 95:132 96:34 97:139 98:128 99:34 100:142 101:126 102:35 103:127 104:133 105:35 106:111 107:151 108:38 109:104 110:155 111:38 112:106 113:152 114:37 115:127 116:135 117:37 118:154 119:111 120:35 121:138 122:129 123:35 124:141 125:127 126:36 127:141 128:125 129:36 130:130 131:135 132:37 133:117 134:150 135:37 136:112 137:157 138:38 139:155 140:132 141:38 142:208 143:98 144:34 145:164 146:123 147:34 148:169 149:119 150:35 151:151 152:123 153:35 154:147 155:127 156:38 157:128 158:140 159:38 160:108 161:166 162:35 163:127 164:150 165:35 166:148 167:129 168:33 169:185 170:113 171:33 172:190 173:110 174:35 175:190 176:110 177:35 178:194 179:108 180:36 181:159 182:119 183:36 184:124 185:152 186:35 187:128 188:146 189:35 190:142 191:131 192:-1 
0.1210937499999999 0:34 1:128 2:133 3:34 4:127 5:135 6:35 7:140 8:137 9:35 10:155 11:123 12:35 13:182 14:115 15:35 16:133 17:157 18:35 19:116 20:154 21:35 22:125 23:143 24:34 25:90 26:151 27:34 28:98 29:138 30:34 31:112 32:132 33:34 34:113 35:131 36:34 37:111 38:138 39:34 40:96 41:159 42:35 43:98 44:159 45:35 46:98 47:158 48:37 49:100 50:128 51:37 52:102 53:125 54:39 55:112 56:128 57:39 58:111 59:129 60:37 61:104 62:135 63:37 64:95 65:147 66:37 67:94 68:158 69:37 70:87 71:170 72:45 73:142 74:70 75:45 76:105 77:95 78:43 79:120 80:125 81:43 82:120 83:125 84:38 85:145 86:111 87:38 88:136 89:118 90:37 91:109 92:141 93:37 94:93 95:165 96:33 97:196 98:56 99:33 100:152 101:72 102:35 103:112 104:116 105:35 106:110 107:118 108:35 109:143 110:109 111:35 112:157 113:99 114:35 115:148 116:114 117:35 118:126 119:134 120:32 121:183 122:60 123:32 124:211 125:52 126:34 127:120 128:113 129:34 130:114 131:119 132:34 133:125 134:122 135:34 136:130 137:118 138:32 139:138 140:113 141:32 142:131 143:119 144:29 145:150 146:109 147:29 148:155 149:105 150:30 151:169 152:104 153:30 154:150 155:117 156:33 157:126 158:130 159:33 160:109 161:150 162:34 163:88 164:147 165:34 166:95 167:137 168:27 169:97 170:150 171:27 172:106 173:137 174:28 175:140 176:118 177:28 178:135 179:123 180:33 181:122 182:134 183:33 184:106 185:154 186:35 187:100 188:143 189:35 190:113 191:126 192:-1 
0.1210937499999999 0:36 1:120 2:132 3:36 4:118 5:134 6:35 7:94 8:139 9:35 10:87 11:149 12:31 13:82 14:152 15:31 16:90 17:139 18:29 19:117 20:122 21:29 22:120 23:119 24:37 25:111 26:138 27:37 28:111 29:138 30:35 31:79 32:152 33:35 34:74 35:162 36:31 37:65 38:158 39:31 40:70 41:145 42:28 43:86 44:137 45:28 46:99 47:118 48:36 49:125 50:135 51:36 52:119 53:141 54:34 55:84 56:155 57:34 58:82 59:158 60:32 61:72 62:153 63:32 64:77 65:142 66:29 67:94 68:136 69:29 70:125 71:102 72:33 73:143 74:123 75:33 76:118 77:149 78:34 79:113 80:151 81:34 82:118 83:145 84:36 85:98 86:149 87:36 88:104 89:140 90:33 91:109 92:129 93:33 94:130 95:108 96:30 97:97 98:134 99:30 100:83 101:156 102:35 103:110 104:146 105:35 106:121 107:133 108:37 109:113 110:147 111:37 112:127 113:131 114:34 115:140 116:118 117:34 118:119 119:139 120:32 121:94 122:135 123:32 124:89 125:144 126:35 127:116 128:134 129:35 130:115 131:135 132:35 133:119 134:142 135:35 136:139 137:121 138:33 139:148 140:114 141:33 142:112 143:150 144:30 145:106 146:128 147:30 148:102 149:133 150:35 151:107 152:133 153:35 154:103 155:138 156:34 157:111 158:138 159:34 160:130 161:118 162:31 163:130 164:118 165:31 166:106 167:144 168:29 169:96 170:133 171:29 172:97 173:132 174:34 175:102 176:133 177:34 178:98 179:138 180:34 181:95 182:137 183:34 184:99 185:131 186:32 187:103 188:129 189:32 190:102 191:130 192:-1 
0.12109375 0:35 1:99 2:150 3:35 4:103 5:143 6:35 7:124 8:136 9:35 10:128 11:131 12:35 13:124 14:136 15:35 16:119 17:141 18:36 19:103 20:146 21:36 22:102 23:147 24:35 25:92 26:149 27:35 28:98 29:140 30:35 31:114 32:137 33:35 34:114 35:136 36:37 37:127 38:139 39:37 40:125 41:141 42:36 43:118 44:143 45:36 46:114 47:147 48:35 49:104 50:142 51:35 52:111 53:133 54:36 55:124 56:136 57:36 58:122 59:138 60:37 61:130 62:141 63:37 64:129 65:142 66:37 67:124 68:142 69:37 70:124 71:142 72:35 73:119 74:135 75:35 76:118 77:136 78:37 79:114 80:139 81:37 82:114 83:139 84:38 85:127 86:143 87:38 88:126 89:144 90:36 91:132 92:141 93:36 94:135 95:138 96:36 97:125 98:135 99:36 100:121 101:139 102:39 103:124 104:142 105:39 106:124 107:142 108:38 109:130 110:143 111:38 112:130 113:143 114:35 115:133 116:140 117:35 118:135 119:138 120:36 121:128 122:138 123:36 124:125 125:141 126:38 127:128 128:141 129:38 130:127 131:142 132:38 133:131 134:142 135:38 136:132 137:141 138:34 139:131 140:136 141:34 142:131 143:136 144:36 145:128 146:138 147:36 148:125 149:141 150:38 151:136 152:141 153:38 154:136 155:141 156:36 157:134 158:139 159:36 160:135 161:138 162:35 163:136 164:137 165:35 166:137 167:136 168:36 169:128 170:137 171:36 172:127 173:139 174:38 175:136 176:137 177:38 178:136 179:137 180:38 181:134 182:143 183:38 184:139 185:138 186:37 187:149 188:132 189:37 190:147 191:134 192:-1 
0.12109375 0:32 1:90 2:142 3:35 4:87 5:143 6:35 7:87 8:144 9:38 10:84 11:145 12:38 13:81 14:152 15:36 16:80 17:150 18:36 19:77 20:155 21:33 22:68 23:161 24:32 25:90 26:148 27:32 28:86 29:148 30:32 31:89 32:144 33:35 34:90 35:145 36:35 37:90 38:144 39:37 40:88 41:145 42:37 43:86 44:148 45:35 46:78 47:153 48:33 49:72 50:153 51:35 52:76 53:148 54:35 55:77 56:145 57:35 58:86 59:145 60:35 61:90 62:139 63:35 64:94 65:138 66:35 67:94 68:139 69:35 70:98 71:140 72:32 73:71 74:154 75:32 76:78 77:148 78:32 79:81 80:141 81:32 82:85 83:141 84:32 85:86 86:140 87:35 88:101 89:137 90:35 91:109 92:126 93:33 94:137 95:123 96:34 97:68 98:153 99:33 100:75 101:146 102:33 103:79 104:139 105:34 106:91 107:143 108:34 109:91 110:143 111:34 112:115 113:137 114:34 115:124 116:127 117:34 118:145 119:123 120:35 121:93 122:140 123:34 124:93 125:145 126:34 127:93 128:145 129:35 130:105 131:141 132:35 133:106 134:139 135:36 136:96 137:151 138:36 139:89 140:163 141:37 142:77 143:166 144:35 145:91 146:151 147:34 148:87 149:161 150:34 151:87 152:161 153:35 154:106 155:152 156:35 157:111 158:145 159:37 160:101 161:156 162:37 163:94 164:169 165:34 166:75 167:174 168:35 169:92 170:174 171:35 172:71 173:184 174:35 175:73 176:179 177:35 178:74 179:168 180:35 181:80 182:157 183:36 184:86 185:154 186:36 187:82 188:162 189:35 190:72 191:174 192:-1 
0.12109375 0:34 1:99 2:141 3:34 4:102 5:137 6:34 7:110 8:135 9:34 10:107 11:138 12:32 13:93 14:142 15:32 16:92 17:144 18:32 19:91 20:146 21:32 22:90 23:148 24:34 25:109 26:140 27:34 28:116 29:132 30:34 31:113 32:135 33:34 34:106 35:145 36:32 37:87 38:146 39:32 40:86 41:149 42:33 43:72 44:153 45:33 46:72 47:153 48:33 49:102 50:143 51:33 52:103 53:141 54:31 55:84 56:149 57:31 58:80 59:157 60:31 61:70 62:153 63:31 64:70 65:152 66:32 67:72 68:152 69:32 70:71 71:154 72:33 73:93 74:150 75:33 76:93 77:151 78:32 79:76 80:157 81:32 82:74 83:161 84:33 85:69 86:159 87:33 88:72 89:153 90:34 91:71 92:148 93:34 94:68 95:153 96:32 97:81 98:157 99:32 100:84 101:152 102:34 103:88 104:154 105:34 106:91 107:149 108:35 109:94 110:146 111:35 112:93 113:148 114:35 115:89 116:146 117:35 118:93 119:140 120:35 121:79 122:158 123:35 124:79 125:158 126:32 127:85 128:156 129:32 130:91 131:145 132:34 133:96 134:141 135:34 136:98 137:138 138:35 139:101 140:137 141:35 142:91 143:151 144:35 145:73 146:154 147:35 148:68 149:165 150:34 151:81 152:161 153:34 154:89 155:146 156:35 157:103 158:144 159:35 160:107 161:138 162:35 163:120 164:134 165:35 166:92 167:174 168:35 169:96 170:144 171:35 172:86 173:160 174:34 175:89 176:152 177:34 178:95 179:143 180:35 181:93 182:148 183:35 184:93 185:148 186:37 187:93 188:145 189:37 190:82 191:164 192:-1 
0.12109375 0:36 1:93 2:157 3:36 4:91 5:159 6:36 7:91 8:160 9:36 10:91 11:159 12:35 13:91 14:157 15:35 16:90 17:158 18:34 19:87 20:156 21:34 22:91 23:149 24:37 25:71 26:162 27:37 28:71 29:161 30:35 31:77 32:155 33:35 34:77 35:156 36:35 37:84 38:155 39:35 40:83 41:156 42:34 43:81 44:160 45:34 46:86 47:151 48:35 49:87 50:149 51:35 52:88 53:148 54:37 55:93 56:146 57:37 58:90 59:151 60:36 61:87 62:152 63:36 64:85 65:156 66:34 67:76 68:161 69:34 70:80 71:153 72:34 73:124 74:138 75:34 76:122 77:140 78:35 79:116 80:139 81:35 82:112 83:144 84:35 85:83 86:151 87:35 88:79 89:158 90:32 91:69 92:159 93:32 94:74 95:148 96:36 97:98 98:140 99:36 100:100 101:138 102:35 103:81 104:160 105:35 106:79 107:165 108:33 109:68 110:162 111:33 112:69 113:159 114:35 115:79 116:152 117:35 118:81 119:148 120:34 121:87 122:149 123:34 124:94 125:139 126:35 127:79 128:158 129:35 130:75 131:166 132:34 133:75 134:163 135:34 136:84 137:145 138:34 139:105 140:141 141:34 142:103 143:144 144:34 145:80 146:163 147:34 148:85 149:153 150:35 151:80 152:156 153:35 154:78 155:161 156:33 157:88 158:159 159:33 160:107 161:131 162:31 163:156 164:121 165:31 166:137 167:138 168:34 169:74 170:165 171:34 172:78 173:157 174:33 175:69 176:158 177:33 178:69 179:160 180:32 181:79 182:161 183:32 184:86 185:148 186:31 187:115 188:140 189:31 190:119 191:135 192:-1 
0.12109375 0:34 1:88 2:148 3:35 4:94 5:147 6:35 7:89 8:154 9:35 10:81 11:161 12:35 13:80 14:163 15:35 16:82 17:158 18:35 19:87 20:150 21:36 22:96 23:151 24:34 25:97 26:145 27:35 28:73 29:172 30:35 31:72 32:174 33:34 34:70 35:167 36:34 37:76 38:154 39:35 40:103 41:144 42:35 43:110 44:135 45:38 46:128 47:141 48:32 49:103 50:139 51:35 52:84 53:155 54:35 55:81 56:161 57:35 58:79 59:158 60:35 61:83 62:150 63:36 64:111 65:143 66:36 67:115 68:137 69:38 70:132 71:135 72:31 73:85 74:147 75:35 76:103 77:144 78:35 79:101 80:146 81:35 82:95 83:150 84:35 85:96 86:149 87:37 88:108 89:146 90:37 91:112 92:141 93:38 94:143 95:130 96:34 97:74 98:166 99:35 100:87 101:159 102:35 103:90 104:153 105:36 106:99 107:152 108:36 109:100 110:150 111:38 112:110 113:146 114:38 115:112 116:143 117:39 118:115 119:142 120:35 121:76 122:164 123:35 124:89 125:161 126:35 127:92 128:155 129:35 130:114 131:152 132:35 133:114 134:152 135:36 136:120 137:147 138:36 139:121 140:146 141:37 142:109 143:152 144:34 145:85 146:153 147:36 148:96 149:157 150:36 151:96 152:156 153:36 154:104 155:157 156:36 157:105 158:155 159:38 160:106 161:156 162:38 163:104 164:159 165:37 166:94 167:162 168:34 169:92 170:153 171:36 172:105 173:156 174:36 175:104 176:157 177:37 178:104 179:159 180:37 181:106 182:157 183:37 184:105 185:158 186:37 187:102 188:162 189:37 190:98 191:162 192:-1 
0.12109375 0:31 1:80 2:162 3:32 4:84 5:157 6:32 7:81 8:163 9:34 10:82 11:164 12:34 13:83 14:163 15:32 16:80 17:159 18:32 19:81 20:157 21:32 22:82 23:156 24:34 25:79 26:164 27:32 28:83 29:160 30:32 31:88 32:151 33:32 34:87 35:153 36:32 37:84 38:157 39:31 40:83 41:157 42:31 43:83 44:157 45:31 46:81 47:155 48:34 49:72 50:164 51:34 52:80 53:162 54:34 55:87 56:149 57:32 58:95 59:151 60:32 61:91 62:157 63:33 64:87 65:161 66:33 67:87 68:162 69:34 70:81 71:161 72:35 73:68 74:164 75:35 76:77 77:168 78:35 79:83 80:156 81:33 82:91 83:154 84:33 85:90 86:156 87:35 88:86 89:166 90:35 91:84 92:169 93:35 94:79 95:165 96:35 97:76 98:157 99:38 100:72 101:169 102:38 103:76 104:161 105:35 106:84 107:154 108:35 109:84 110:154 111:35 112:71 113:168 114:35 115:68 116:175 117:35 118:64 119:168 120:35 121:87 122:144 123:37 124:86 125:158 126:37 127:82 128:164 129:35 130:80 131:156 132:35 133:83 134:151 135:34 136:77 137:153 138:34 139:76 140:155 141:35 142:73 143:154 144:35 145:104 146:132 147:35 148:89 149:146 150:35 151:84 152:154 153:32 154:76 155:150 156:32 157:80 158:144 159:32 160:92 161:139 162:32 163:92 164:138 165:35 166:91 167:143 168:34 169:84 170:140 171:32 172:71 173:143 174:32 175:70 176:146 177:32 178:75 179:147 180:32 181:78 182:141 183:31 184:94 185:133 186:31 187:97 188:129 189:32 190:98 191:136 192:-1 
0.12109375 0:31 1:83 2:150 3:33 4:106 5:142 6:33 7:118 8:127 9:35 10:155 11:112 12:35 13:125 14:139 15:35 16:93 17:168 18:35 19:94 20:166 21:32 22:91 23:146 24:31 25:84 26:148 27:31 28:92 29:141 30:31 31:95 32:137 33:34 34:96 35:136 36:34 37:84 38:154 39:34 40:69 41:169 42:34 43:71 44:165 45:32 46:84 47:151 48:33 49:96 50:151 51:32 52:78 53:147 54:32 55:75 56:154 57:34 58:59 59:168 60:34 61:60 62:166 63:34 64:65 65:162 66:34 67:67 68:155 69:34 70:87 71:149 72:32 73:83 74:153 75:32 76:74 77:149 78:32 79:72 80:152 81:32 82:75 83:160 84:32 85:78 86:153 87:35 88:95 89:145 90:35 91:92 92:150 93:35 94:107 95:145 96:35 97:76 98:148 99:34 100:90 101:144 102:34 103:87 104:149 105:33 106:105 107:156 108:33 109:113 110:145 111:34 112:130 113:137 114:34 115:119 116:150 117:35 118:125 119:149 120:35 121:116 122:139 123:35 124:133 125:134 126:35 127:124 128:144 129:34 130:104 131:159 132:34 133:106 134:157 135:33 136:105 137:150 138:33 139:108 140:147 141:35 142:118 143:147 144:35 145:109 146:155 147:33 148:110 149:149 150:33 151:108 152:151 153:33 154:87 155:162 156:33 157:88 158:159 159:33 160:105 161:150 162:33 163:108 164:147 165:33 166:126 167:144 168:35 169:78 170:166 171:31 172:79 173:158 174:31 175:82 176:153 177:31 178:84 179:155 180:31 181:86 182:152 183:32 184:114 185:147 186:32 187:116 188:145 189:32 190:129 191:138 192:-1 
0.12109375 0:37 1:79 2:161 3:37 4:83 5:154 6:36 7:89 8:149 9:36 10:92 11:144 12:39 13:100 14:150 15:39 16:100 17:151 18:39 19:100 20:143 21:39 22:104 23:137 24:35 25:99 26:144 27:35 28:100 29:143 30:35 31:100 32:148 33:35 34:103 35:144 36:39 37:113 38:144 39:39 40:119 41:137 42:40 43:130 44:131 45:40 46:151 47:113 48:34 49:135 50:127 51:34 52:137 53:125 54:35 55:128 56:136 57:35 58:125 59:139 60:37 61:141 62:130 63:37 64:160 65:115 66:39 67:185 68:121 69:39 70:218 71:103 72:34 73:112 74:132 75:34 76:114 77:130 78:35 79:115 80:135 81:35 82:112 83:139 84:37 85:128 86:134 87:37 88:135 89:127 90:38 91:148 92:129 93:38 94:155 95:123 96:38 97:107 98:138 99:38 100:106 101:140 102:37 103:109 104:145 105:37 106:110 107:144 108:34 109:126 110:136 111:34 112:128 113:134 114:33 115:126 116:134 117:33 118:122 119:138 120:36 121:115 122:138 123:36 124:108 125:147 126:36 127:109 128:145 129:36 130:112 131:141 132:35 133:119 134:135 135:35 136:118 137:136 138:34 139:93 140:146 141:34 142:83 143:163 144:36 145:119 146:137 147:36 148:117 149:140 150:35 151:112 152:139 153:35 154:111 155:140 156:34 157:111 158:138 159:34 160:105 161:146 162:34 163:84 164:155 165:34 166:81 167:160 168:36 169:123 170:137 171:36 172:128 173:131 174:36 175:111 176:135 177:36 178:107 179:141 180:35 181:91 182:143 183:35 184:87 185:149 186:32 187:74 188:149 189:32 190:74 191:149 192:-1 
0.12109375 0:31 1:134 2:97 3:37 4:99 5:136 6:37 7:103 8:131 9:37 10:113 11:131 12:37 13:106 14:139 15:39 16:102 17:152 18:39 19:102 20:152 21:38 22:117 23:137 24:35 25:179 26:97 27:42 28:122 29:138 30:42 31:116 32:145 33:41 34:110 35:139 36:41 37:120 38:128 39:40 40:114 41:139 42:40 43:103 44:154 45:36 46:116 47:141 48:34 49:146 50:117 51:38 52:136 53:133 54:38 55:128 56:141 57:41 58:129 59:140 60:41 61:162 62:112 63:42 64:150 65:126 66:42 67:120 68:157 69:38 70:120 71:149 72:32 73:117 74:129 75:37 76:137 77:134 78:37 79:135 80:136 81:39 82:147 83:137 84:39 85:166 86:121 87:41 88:192 89:114 90:41 91:160 92:137 93:41 94:119 95:157 96:35 97:116 98:134 99:36 100:171 101:124 102:36 103:167 104:127 105:36 106:159 107:138 108:36 109:161 110:136 111:40 112:180 113:116 114:40 115:190 116:110 117:41 118:131 119:148 120:37 121:124 122:138 123:36 124:166 125:129 126:36 127:170 128:126 129:36 130:159 131:138 132:36 133:154 134:142 135:39 136:175 137:128 138:39 139:208 140:108 141:41 142:148 143:140 144:36 145:111 146:143 147:36 148:121 149:146 150:36 151:120 152:147 153:36 154:123 155:147 156:36 157:131 158:138 159:37 160:148 161:133 162:37 163:156 164:126 165:40 166:132 167:139 168:39 169:99 170:147 171:39 172:91 173:157 174:39 175:88 176:162 177:37 178:89 179:158 180:37 181:104 182:135 183:38 184:128 185:136 186:38 187:128 188:136 189:38 190:128 191:141 192:-1 
0.12109375 0:36 1:152 2:131 3:36 4:155 5:128 6:34 7:116 8:136 9:34 10:120 11:132 12:33 13:132 14:120 15:33 16:123 17:129 18:32 19:97 20:132 21:32 22:98 23:130 24:36 25:154 26:129 27:36 28:160 29:124 30:34 31:95 32:142 33:34 34:95 35:142 36:26 37:93 38:126 39:26 40:88 41:133 42:29 43:63 44:133 45:29 46:66 47:128 48:36 49:140 50:129 51:36 52:144 53:126 54:32 55:74 56:138 57:32 58:72 59:142 60:19 61:57 62:139 63:19 64:60 65:132 66:16 67:49 68:130 69:16 70:44 71:146 72:35 73:96 74:130 75:35 76:93 77:134 78:30 79:46 80:143 81:30 82:44 83:152 84:14 85:48 86:155 87:14 88:60 89:124 90:14 91:91 92:115 93:14 94:62 95:169 96:31 97:69 98:122 99:31 100:71 101:119 102:21 103:36 104:150 105:21 106:32 107:170 108:16 109:38 110:166 111:16 112:42 113:151 114:19 115:52 116:151 117:19 118:44 119:178 120:21 121:51 122:121 123:21 124:62 125:99 126:13 127:47 128:146 129:13 130:41 131:168 132:16 133:37 134:173 135:16 136:36 137:175 138:17 139:37 140:187 141:17 142:36 143:191 144:18 145:45 146:137 147:18 148:53 149:116 150:18 151:53 152:115 153:18 154:41 155:150 156:21 157:30 158:176 159:21 160:31 161:175 162:17 163:38 164:182 165:17 166:35 167:195 168:21 169:32 170:153 171:21 172:33 173:149 174:18 175:40 176:152 177:18 178:37 179:167 180:18 181:36 182:182 183:18 184:36 185:182 186:19 187:40 188:187 189:19 190:42 191:176 192:-1 
0.12109375 0:40 1:196 2:100 3:40 4:193 5:102 6:41 7:139 8:130 9:41 10:152 11:119 12:44 13:198 14:94 15:44 16:216 17:86 18:45 19:194 20:105 21:45 22:174 23:117 24:40 25:213 26:92 27:40 28:205 29:96 30:40 31:158 32:121 33:40 34:145 35:132 36:40 37:171 38:122 39:40 40:180 41:116 42:39 43:171 44:121 45:39 46:158 47:131 48:41 49:205 50:97 51:41 52:216 53:92 54:42 55:199 56:105 57:42 58:173 59:121 60:39 61:180 62:123 63:39 64:176 65:126 66:39 67:174 68:123 69:39 70:167 71:128 72:36 73:171 74:121 75:36 76:177 77:117 78:38 79:194 80:105 81:38 82:184 83:111 84:38 85:176 86:116 87:38 88:170 89:120 90:40 91:162 92:121 93:40 94:157 95:125 96:35 97:94 98:147 99:35 100:92 101:150 102:37 103:95 104:147 105:37 106:122 107:115 108:38 109:166 110:109 111:38 112:176 113:103 114:40 115:160 116:115 117:40 118:143 119:128 120:38 121:162 122:112 123:38 124:152 125:119 126:40 127:147 128:125 129:40 130:173 131:106 132:41 133:195 134:102 135:41 136:205 137:97 138:39 139:163 140:116 141:39 142:145 143:130 144:40 145:218 146:102 147:40 148:218 149:102 150:40 151:224 152:99 153:40 154:222 155:100 156:40 157:198 158:107 159:40 160:191 161:111 162:37 163:148 164:119 165:37 166:136 167:129 168:40 169:123 170:143 171:40 172:129 173:136 174:40 175:144 176:119 177:40 178:147 179:116 180:43 181:112 182:134 183:43 184:96 185:156 186:35 187:83 188:145 189:35 190:86 191:139 192:-1 
0.12109375 0:46 1:96 2:127 3:46 4:99 5:124 6:36 7:109 8:110 9:36 10:110 11:109 12:32 13:108 14:118 15:32 16:108 17:118 18:34 19:114 20:119 21:34 22:108 23:125 24:36 25:108 26:123 27:36 28:109 29:122 30:36 31:104 32:127 33:36 34:112 35:118 36:36 37:126 38:109 39:36 40:135 41:102 42:35 43:158 44:102 45:35 46:143 47:112 48:41 49:153 50:100 51:41 52:137 53:112 54:41 55:109 56:129 57:41 58:116 59:121 60:35 61:100 62:125 63:35 64:89 65:141 66:30 67:137 68:112 69:30 70:159 71:96 72:39 73:183 74:64 75:39 76:129 77:91 78:41 79:114 80:119 81:41 82:125 83:108 84:35 85:74 86:145 87:35 88:60 89:178 90:29 91:78 92:148 93:29 94:84 95:137 96:35 97:164 98:28 99:35 100:60 101:76 102:35 103:84 104:119 105:35 106:106 107:94 108:35 109:88 110:136 111:35 112:74 113:161 114:30 115:65 116:145 117:30 118:60 119:157 120:30 121:229 122:29 123:30 124:74 125:89 126:23 127:71 128:148 129:23 130:93 131:113 132:29 133:98 134:130 135:29 136:86 137:148 138:27 139:70 140:152 141:27 142:64 143:167 144:29 145:110 146:114 147:29 148:89 149:140 150:25 151:73 152:165 153:25 154:89 155:134 156:25 157:69 158:147 159:25 160:61 161:166 162:28 163:63 164:158 165:28 166:65 167:153 168:34 169:97 170:126 171:34 172:90 173:136 174:31 175:70 176:146 177:31 178:73 179:140 180:27 181:62 182:144 183:27 184:59 185:150 186:26 187:67 188:145 189:26 190:68 191:143 192:-1 
0.12109375 0:39 1:135 2:115 3:39 4:133 5:117 6:38 7:136 8:114 9:38 10:140 11:111 12:39 13:156 14:100 15:39 16:150 17:104 18:41 19:109 20:140 21:41 22:109 23:141 24:37 25:170 26:93 27:37 28:170 29:93 30:35 31:183 32:92 33:35 34:191 35:88 36:39 37:210 38:80 39:39 40:210 41:80 42:43 43:120 44:121 45:43 46:105 47:138 48:53 49:237 50:28 51:53 52:255 53:26 54:54 55:162 56:22 57:54 58:102 59:35 60:53 61:145 62:51 63:53 64:180 65:41 66:52 67:178 68:66 69:52 70:109 71:108 72:45 73:214 74:56 75:45 76:176 77:68 78:48 79:117 80:76 81:48 82:117 83:76 84:45 85:135 86:85 87:45 88:153 89:75 90:47 91:194 92:71 93:47 94:189 95:73 96:41 97:190 98:74 99:41 100:143 101:98 102:45 103:83 104:145 105:45 106:90 107:133 108:40 109:113 110:113 111:40 112:118 113:108 114:41 115:138 116:102 117:41 118:192 119:73 120:39 121:158 122:95 123:39 124:173 125:87 126:44 127:127 128:114 129:44 130:104 131:140 132:42 133:115 134:124 135:42 136:115 137:124 138:42 139:94 140:138 141:42 142:112 143:116 144:39 145:127 146:114 147:39 148:155 149:94 150:39 151:181 152:79 153:39 154:144 155:99 156:41 157:111 158:126 159:41 160:97 161:145 162:39 163:83 164:151 165:39 166:88 167:142 168:43 169:116 170:119 171:43 172:117 173:118 174:39 175:129 176:107 177:39 178:136 179:101 180:40 181:96 182:138 183:40 184:78 185:170 186:38 187:59 188:168 189:38 190:62 191:160 192:-1 
0.12109375 0:41 1:69 2:129 3:41 4:64 5:139 6:38 7:56 8:141 9:38 10:71 11:111 12:35 13:95 14:99 15:35 16:101 17:93 18:34 19:202 20:43 21:35 22:255 23:26 24:35 25:93 26:115 27:35 28:86 29:124 30:35 31:96 32:117 33:35 34:106 35:106 36:38 37:82 38:122 39:38 40:68 41:146 42:35 43:103 44:74 45:35 46:219 47:35 48:35 49:95 50:126 51:35 52:99 53:121 54:39 55:157 56:91 57:39 58:170 59:84 60:43 61:131 62:111 63:43 64:98 65:149 66:35 67:84 68:127 69:35 70:125 71:86 72:35 73:104 74:125 75:35 76:109 77:119 78:38 79:164 80:90 81:38 82:183 83:81 84:43 85:155 86:94 87:43 88:108 89:135 90:32 91:79 92:138 93:32 94:103 95:106 96:35 97:102 98:127 99:35 100:104 101:125 102:35 103:103 104:126 105:35 106:108 107:120 108:35 109:114 110:105 111:35 112:107 113:112 114:27 115:60 116:171 117:27 118:67 119:153 120:29 121:87 122:138 123:29 124:89 125:135 126:35 127:77 128:140 129:35 130:79 131:136 132:38 133:120 134:98 135:38 136:161 137:73 138:36 139:73 140:165 141:36 142:64 143:186 144:27 145:66 146:135 147:27 148:70 149:127 150:36 151:94 152:127 153:36 154:96 155:125 156:40 157:120 158:106 159:40 160:154 161:83 162:40 163:70 164:160 165:40 166:62 167:181 168:35 169:110 170:81 171:35 172:83 173:107 174:42 175:98 176:133 177:42 178:101 179:129 180:41 181:112 182:125 183:41 184:117 185:120 186:38 187:78 188:150 189:38 190:72 191:164 192:-1 
0.12109375 0:39 1:126 2:103 3:39 4:124 5:105 6:44 7:105 8:107 9:44 10:97 11:116 12:48 13:72 14:134 15:48 16:70 17:138 18:48 19:73 20:144 21:48 22:70 23:150 24:42 25:108 26:109 27:42 28:112 29:105 30:42 31:125 32:104 33:42 34:135 35:96 36:51 37:163 38:86 39:51 40:163 41:86 42:59 43:88 44:159 45:59 46:91 47:154 48:44 49:139 50:101 51:44 52:135 53:104 54:43 55:141 56:103 57:43 58:160 59:91 60:43 61:148 62:93 63:43 64:139 65:99 66:44 67:78 68:144 69:44 70:81 71:139 72:45 73:172 74:86 75:45 76:146 77:101 78:44 79:134 80:99 81:44 82:152 83:87 84:40 85:103 86:109 87:40 88:82 89:137 90:35 91:94 92:114 93:35 94:115 95:93 96:42 97:192 98:61 99:42 100:121 101:97 102:43 103:96 104:109 105:43 106:103 107:102 108:41 109:94 110:108 111:41 112:88 113:116 114:38 115:152 116:72 117:38 118:211 119:52 120:39 121:148 122:98 123:39 124:153 125:95 126:43 127:107 128:117 129:43 130:100 131:125 132:44 133:92 134:116 135:44 136:96 137:111 138:38 139:120 140:102 141:38 142:119 143:103 144:36 145:112 146:107 147:36 148:184 149:65 150:37 151:131 152:78 153:37 154:90 155:113 156:44 157:94 158:120 159:44 160:98 161:115 162:41 163:133 164:111 165:41 166:133 167:111 168:35 169:143 170:96 171:35 172:219 173:63 174:34 175:219 176:56 177:34 178:141 179:87 180:45 181:109 182:110 183:45 184:108 185:111 186:45 187:137 188:108 189:45 190:141 191:105 192:-1 
0.12109375 0:37 1:222 2:69 3:35 4:205 5:72 6:35 7:208 8:71 9:39 10:160 11:97 12:39 13:144 14:108 15:46 16:100 17:151 18:46 19:102 20:148 21:46 22:110 23:118 24:35 25:156 26:111 27:32 28:188 29:92 30:32 31:234 32:74 33:34 34:205 35:92 36:34 37:225 38:84 39:40 40:152 41:116 42:40 43:105 44:167 45:39 46:82 47:159 48:35 49:138 50:116 51:32 52:105 53:121 54:32 55:114 56:112 57:29 58:126 59:99 60:29 61:100 62:125 63:33 64:119 65:122 66:33 67:129 68:113 69:36 70:154 71:103 72:35 73:142 74:104 75:35 76:115 77:109 78:35 79:133 80:94 81:35 82:148 83:76 84:35 85:100 86:112 87:35 88:112 89:116 90:35 91:138 92:94 93:31 94:176 95:74 96:38 97:188 98:103 99:39 100:181 101:83 102:39 103:188 104:80 105:40 106:142 107:79 108:40 109:111 110:101 111:38 112:106 113:103 114:38 115:125 116:88 117:32 118:118 119:108 120:44 121:116 122:97 123:37 124:169 125:80 126:37 127:165 128:82 129:35 130:136 131:92 132:35 133:124 134:101 135:35 136:119 137:105 138:35 139:139 140:90 141:32 142:93 143:129 144:46 145:176 146:81 147:37 148:155 149:82 150:37 151:157 152:81 153:37 154:124 155:82 156:37 157:129 158:79 159:38 160:116 161:90 162:38 163:99 164:106 165:35 166:98 167:122 168:35 169:229 170:39 171:38 172:112 173:93 174:38 175:128 176:82 177:35 178:212 179:47 180:36 181:255 182:28 183:35 184:173 185:62 186:35 187:93 188:115 189:35 190:138 191:113 192:-1 
0.12109375 0:44 1:162 2:44 3:44 4:90 5:79 6:49 7:179 8:64 9:49 10:130 11:88 12:46 13:101 14:141 15:46 16:114 17:125 18:40 19:146 20:108 21:40 22:134 23:118 24:47 25:192 26:69 27:47 28:225 29:59 30:51 31:210 32:63 33:51 34:123 35:108 36:47 37:89 38:141 39:47 40:132 41:95 42:47 43:195 44:64 45:47 46:114 47:110 48:45 49:97 50:123 51:45 52:132 53:91 54:46 55:147 56:97 57:46 58:112 59:127 60:42 61:113 62:126 63:42 64:135 65:106 66:42 67:183 68:67 69:42 70:153 71:80 72:41 73:110 74:132 75:41 76:122 77:119 78:41 79:162 80:115 81:41 82:162 83:115 84:41 85:170 86:117 87:41 88:155 89:128 90:37 91:106 92:132 93:37 94:161 95:87 96:43 97:155 98:123 99:43 100:157 101:122 102:41 103:171 104:119 105:41 106:173 107:118 108:40 109:173 110:118 111:40 112:150 113:136 114:40 115:91 116:145 117:40 118:164 119:81 120:47 121:131 122:123 123:47 124:126 125:127 126:45 127:143 128:123 129:45 130:154 131:114 132:43 133:168 134:114 135:43 136:144 137:133 138:43 139:102 140:143 141:43 142:208 143:70 144:42 145:154 146:114 147:42 148:195 149:90 150:43 151:192 152:93 153:43 154:210 155:85 156:46 157:246 158:58 159:46 160:123 161:116 162:52 163:62 164:153 165:52 166:166 167:57 168:42 169:156 170:75 171:42 172:165 173:71 174:42 175:137 176:95 177:42 178:149 179:87 180:45 181:212 182:54 183:45 184:118 185:97 186:49 187:61 188:150 189:49 190:100 191:92 192:-1 
