svm_type c_svc
kernel_type polynomial
degree 3
gamma 0.0078125
coef0 0
nr_class 2
total_sv 5
rho 1.07897
label 1 -1
nr_sv 1 4
SV
2.186811605592063e-10 0:35 1:55 2:34 3:53 4:34 5:54 6:32 7:50 8:32 9:51 10:32 11:54 12:32 13:57 14:34 15:69 16:34 17:56 18:32 19:55 20:32 21:55 22:32 23:54 24:32 25:54 26:34 27:54 28:34 29:55 30:35 31:68 32:34 33:55 34:34 35:55 36:34 37:55 38:34 39:55 40:34 41:55 42:35 43:55 44:35 45:56 46:35 47:68 48:34 49:55 50:34 51:55 52:34 53:55 54:32 55:54 56:32 57:55 58:34 59:58 60:34 61:58 62:35 63:61 64:34 65:55 66:34 67:55 68:34 69:54 70:34 71:54 72:34 73:54 74:35 75:55 76:35 77:58 78:36 79:62 80:34 81:55 82:32 83:54 84:32 85:54 86:34 87:51 88:34 89:51 90:35 91:53 92:35 93:59 94:35 95:70 96:35 97:55 98:34 99:54 100:34 101:54 102:32 103:58 104:32 105:60 106:34 107:64 108:34 109:66 110:35 111:68 112:35 113:58 114:35 115:60 116:35 117:64 118:34 119:65 120:34 121:64 122:35 123:64 124:35 125:66 126:35 127:68 128:-1 
-1.435694139090985e-10 0:33 1:21 2:33 3:21 4:30 5:10 6:30 7:9 8:30 9:4 10:30 11:4 12:36 13:5 14:36 15:5 16:29 17:23 18:30 19:22 20:30 21:9 22:30 23:9 24:30 25:5 26:35 27:6 28:35 29:11 30:35 31:11 32:26 33:17 34:30 35:15 36:34 37:8 38:34 39:8 40:40 41:6 42:43 43:7 44:38 45:15 46:38 47:15 48:33 49:10 50:33 51:10 52:40 53:9 54:40 55:9 56:36 57:10 58:38 59:11 60:35 61:17 62:35 63:17 64:33 65:10 66:33 67:10 68:34 69:8 70:34 71:8 72:32 73:14 74:32 75:14 76:29 77:24 78:29 79:25 80:35 81:11 82:35 83:11 84:63 85:10 86:63 87:10 88:49 89:17 90:49 91:17 92:35 93:27 94:35 95:27 96:35 97:11 98:35 99:11 100:43 101:16 102:43 103:16 104:36 105:24 106:36 107:25 108:35 109:25 110:35 111:24 112:35 113:6 114:35 115:6 116:35 117:18 118:35 119:20 120:37 121:44 122:37 123:32 124:39 125:26 126:40 127:27 128:-1 
-5.89311975659929e-11 0:0 1:0 2:0 3:0 4:0 5:0 6:35 7:6 8:35 9:6 10:35 11:6 12:35 13:6 14:38 15:15 16:90 17:6 18:75 19:2 20:75 21:2 22:68 23:8 24:66 25:10 26:48 27:10 28:48 29:11 30:36 31:29 32:48 33:12 34:49 35:19 36:49 37:17 38:54 39:16 40:55 41:17 42:51 43:24 44:51 45:34 46:39 47:57 48:51 49:7 50:57 51:11 52:57 53:11 54:55 55:17 56:55 57:19 58:50 59:51 60:50 61:49 62:38 63:54 64:42 65:5 66:63 67:10 68:63 69:10 70:54 71:19 72:54 73:20 74:44 75:33 76:44 77:29 78:31 79:36 80:83 81:4 82:57 83:11 84:57 85:11 86:48 87:21 88:48 89:21 90:40 91:29 92:40 93:28 94:34 95:35 96:80 97:9 98:80 99:9 100:80 101:9 102:63 103:10 104:63 105:11 106:40 107:27 108:40 109:35 110:35 111:82 112:0 113:0 114:83 115:4 116:83 117:4 118:69 119:13 120:69 121:16 122:46 123:62 124:46 125:84 126:37 127:117 128:-1 
-1.179678396260995e-11 0:34 1:30 2:44 3:42 4:44 5:58 6:51 7:172 8:60 9:255 10:60 11:25 12:60 13:14 14:50 15:6 16:33 17:41 18:39 19:50 20:39 21:39 22:51 23:21 24:51 25:21 26:64 27:8 28:65 29:6 30:90 31:1 32:36 33:39 34:48 35:20 36:44 37:15 38:38 39:4 40:38 41:4 42:90 43:1 44:90 45:1 46:0 47:0 48:34 49:22 50:35 51:11 52:30 53:9 54:30 55:4 56:30 57:4 58:30 59:5 60:30 61:5 62:30 63:5 64:38 65:11 66:24 67:5 68:30 69:4 70:30 71:4 72:30 73:4 74:30 75:5 76:30 77:5 78:30 79:5 80:64 81:8 82:75 83:2 84:75 85:2 86:30 87:4 88:30 89:4 90:30 91:4 92:30 93:4 94:30 95:4 96:54 97:5 98:38 99:4 100:38 101:4 102:38 103:4 104:38 105:4 106:30 107:4 108:30 109:4 110:30 111:4 112:54 113:5 114:30 115:4 116:30 117:4 118:30 119:4 120:30 121:4 122:30 123:4 124:30 125:4 126:0 127:0 128:-1 
-4.383765121504933e-12 0:83 1:4 2:51 3:7 4:51 5:7 6:54 7:24 8:54 9:28 10:49 11:44 12:49 13:36 14:39 15:38 16:83 17:4 18:51 19:16 20:51 21:18 22:44 23:31 24:44 25:30 26:44 27:30 28:44 29:29 30:39 31:30 32:83 33:4 34:48 35:10 36:48 37:10 38:42 39:18 40:42 41:19 42:39 43:30 44:39 45:32 46:42 47:41 48:90 49:8 50:75 51:2 52:75 53:2 54:40 55:9 56:40 57:9 58:42 59:19 60:42 61:20 62:43 63:47 64:90 65:7 66:75 67:2 68:75 69:2 70:42 71:5 72:42 73:5 74:58 75:16 76:58 77:17 78:48 79:32 80:113 81:4 82:90 83:6 84:90 85:7 86:83 87:4 88:83 89:4 90:55 91:19 92:55 93:19 94:47 95:34 96:103 97:7 98:80 99:12 100:80 101:13 102:69 103:13 104:69 105:13 106:54 107:14 108:54 109:15 110:45 111:29 112:0 113:0 114:48 115:10 116:48 117:10 118:62 119:14 120:63 121:12 122:67 123:13 124:67 125:13 126:56 127:27 128:-1 
