svm_type c_svc
kernel_type rbf
gamma 0.00520833
nr_class 2
total_sv 6
rho -0.5
label 1 -1
nr_sv 4 2
SV
0.5 0:35 1:96 2:136 3:35 4:98 5:133 6:37 7:82 8:134 9:37 10:81 11:135 12:37 13:66 14:136 15:37 16:58 17:155 18:35 19:47 20:151 21:35 22:53 23:134 24:41 25:112 26:144 27:41 28:106 29:151 30:35 31:95 32:137 33:35 34:101 35:129 36:41 37:73 38:123 39:41 40:57 41:157 42:35 43:29 44:157 45:35 46:34 47:137 48:37 49:95 50:155 51:37 52:92 53:160 54:35 55:106 56:135 57:35 58:123 59:116 60:38 61:95 62:116 63:38 64:70 65:156 66:33 67:44 68:155 69:33 70:51 71:135 72:31 73:77 74:162 75:31 76:75 77:166 78:35 79:99 80:131 81:35 82:99 83:132 84:38 85:59 86:155 87:38 88:56 89:165 90:21 91:37 92:145 93:21 94:42 95:129 96:39 97:134 98:112 99:39 100:114 101:132 102:39 103:107 104:129 105:39 106:103 107:134 108:35 109:60 110:148 111:35 112:54 113:164 114:28 115:33 116:138 117:28 118:39 119:119 120:43 121:175 122:86 123:43 124:190 125:79 126:42 127:115 128:124 129:42 130:124 131:115 132:34 133:75 134:109 135:34 136:50 137:164 138:35 139:35 140:147 141:35 142:44 143:116 144:39 145:115 146:120 147:39 148:138 149:100 150:35 151:158 152:76 153:35 154:230 155:52 156:33 157:83 158:74 159:33 160:37 161:165 162:41 163:23 164:155 165:41 166:36 167:100 168:39 169:126 170:109 171:39 172:132 173:104 174:40 175:135 176:83 177:40 178:229 179:49 180:39 181:75 182:82 183:39 184:38 185:161 186:35 187:30 188:151 189:35 190:40 191:114 192:-1 
0.5 0:39 1:135 2:125 3:39 4:111 5:124 6:39 7:112 8:123 9:41 10:136 11:107 12:41 13:140 14:104 15:44 16:153 17:105 18:44 19:173 20:93 21:48 22:137 23:108 24:41 25:98 26:143 27:41 28:93 29:137 30:41 31:103 32:124 33:39 34:140 35:104 36:39 37:123 38:118 39:45 40:131 41:119 42:45 43:183 44:85 45:51 46:176 47:87 48:43 49:107 50:136 51:43 52:108 53:134 54:43 55:121 56:120 57:41 58:132 59:112 60:41 61:110 62:134 63:42 64:82 65:149 66:42 67:86 68:143 69:43 70:82 71:134 72:42 73:108 74:156 75:41 76:116 77:138 78:41 79:156 80:103 81:44 82:152 83:109 84:44 85:126 86:132 87:43 88:102 89:143 90:43 91:103 92:141 93:39 94:93 95:126 96:41 97:113 98:165 99:38 100:122 101:142 102:38 103:147 104:118 105:41 106:130 107:120 108:41 109:122 110:128 111:44 112:114 113:134 114:44 115:150 116:102 117:44 118:176 119:71 120:39 121:84 122:163 123:36 124:77 125:155 126:36 127:88 128:136 129:35 130:118 131:110 132:35 133:100 134:130 135:39 136:81 137:144 138:39 139:178 140:66 141:50 142:247 143:31 144:39 145:94 146:133 147:37 148:97 149:131 150:37 151:105 152:121 153:35 154:163 155:80 156:35 157:128 158:102 159:37 160:87 161:147 162:37 163:104 164:123 165:39 166:143 167:91 168:39 169:158 170:92 171:37 172:194 173:79 174:37 175:163 176:94 177:35 178:147 179:97 180:35 181:125 182:114 183:38 184:80 185:137 186:38 187:77 188:143 189:35 190:67 191:141 192:-1 
0.5 0:17 1:90 2:51 3:39 4:73 5:118 6:39 7:70 8:124 9:38 10:71 11:130 12:38 13:60 14:153 15:40 16:55 17:125 18:40 19:92 20:75 21:40 22:70 23:88 24:37 25:91 26:106 27:42 28:109 29:124 30:42 31:108 32:125 33:41 34:84 35:128 36:41 37:72 38:148 39:39 40:65 41:121 42:39 43:105 44:75 45:43 46:109 47:77 48:35 49:82 50:130 51:34 52:92 53:128 54:34 55:106 56:111 57:30 58:95 59:94 60:30 61:91 62:98 63:31 64:101 65:83 66:31 67:168 68:50 69:37 70:116 71:77 72:30 73:49 74:146 75:29 76:55 77:145 78:29 79:82 80:96 81:17 82:191 83:36 84:17 85:222 86:31 87:19 88:181 89:31 90:19 91:187 92:30 93:34 94:101 95:86 96:22 97:58 98:150 99:29 100:56 101:142 102:29 103:64 104:124 105:31 106:96 107:88 108:31 109:95 110:89 111:34 112:95 113:91 114:34 115:101 116:86 117:34 118:100 119:105 120:35 121:37 122:137 123:31 124:59 125:135 126:31 127:59 128:135 129:35 130:77 131:129 132:35 133:66 134:151 135:35 136:78 137:144 138:35 139:93 140:121 141:34 142:114 143:107 144:45 145:74 146:135 147:34 148:78 149:134 150:34 151:79 152:132 153:39 154:91 155:138 156:39 157:83 158:150 159:40 160:90 161:148 162:40 163:98 164:136 165:35 166:155 167:89 168:42 169:68 170:131 171:37 172:80 173:137 174:37 175:97 176:113 177:39 178:118 179:121 180:39 181:102 182:140 183:38 184:121 185:133 186:38 187:124 188:130 189:38 190:142 191:113 192:-1 
0.5 0:29 1:83 2:139 3:26 4:60 5:152 6:26 7:59 8:155 9:32 10:84 11:122 12:32 13:112 14:91 15:36 16:116 17:114 18:36 19:113 20:117 21:36 22:150 23:100 24:34 25:65 26:134 27:31 28:52 29:152 30:31 31:49 32:160 33:37 34:95 35:94 36:37 37:124 38:72 39:44 40:97 41:129 42:44 43:97 44:129 45:39 46:129 47:113 48:36 49:98 50:135 51:35 52:68 53:157 54:35 55:71 56:150 57:41 58:135 59:70 60:41 61:115 62:82 63:44 64:78 65:137 66:44 67:81 68:133 69:40 70:109 71:122 72:40 73:131 74:130 75:35 76:124 77:111 78:35 79:177 80:78 81:35 82:250 83:48 84:35 85:154 86:78 87:44 88:103 89:129 90:44 91:109 92:122 93:41 94:131 95:111 96:40 97:121 98:137 99:35 100:108 101:127 102:35 103:127 104:108 105:37 106:146 107:96 108:37 109:146 110:96 111:44 112:127 113:130 114:44 115:143 116:116 117:40 118:154 119:114 120:39 121:104 122:133 123:37 124:78 125:148 126:37 127:75 128:152 129:35 130:66 131:143 132:35 133:67 134:141 135:40 136:91 137:140 138:40 139:102 140:125 141:40 142:135 143:127 144:36 145:112 146:118 147:36 148:95 149:126 150:36 151:91 152:131 153:34 154:95 155:124 156:34 157:83 158:142 159:39 160:76 161:155 162:39 163:79 164:149 165:41 166:95 167:147 168:39 169:131 170:105 171:39 172:145 173:104 174:39 175:150 176:100 177:41 178:194 179:79 180:41 181:128 182:120 183:44 184:95 185:147 186:44 187:108 188:130 189:43 190:115 191:126 192:-1 
-1 0:0 1:0 2:0 3:0 4:48 5:14 6:48 7:14 8:62 9:18 10:62 11:17 12:68 13:20 14:68 15:23 16:0 17:0 18:0 19:0 20:60 21:6 22:60 23:7 24:58 25:17 26:58 27:17 28:60 29:22 30:60 31:24 32:80 33:3 34:80 35:3 36:69 37:12 38:69 39:16 40:60 41:24 42:60 43:23 44:52 45:30 46:52 47:30 48:80 49:12 50:80 51:12 52:63 53:25 54:63 55:35 56:53 57:53 58:53 59:46 60:44 61:50 62:44 63:52 64:80 65:43 66:80 67:42 68:67 69:36 70:67 71:41 72:56 73:40 74:56 75:36 76:48 77:47 78:48 79:50 80:63 81:14 82:63 83:15 84:44 85:23 86:44 87:21 88:39 89:23 90:39 91:23 92:35 93:29 94:35 95:31 96:78 97:6 98:78 99:7 100:35 101:9 102:35 103:8 104:35 105:14 106:35 107:15 108:35 109:29 110:35 111:31 112:85 113:16 114:85 115:17 116:80 117:17 118:80 119:16 120:63 121:13 122:63 123:14 124:50 125:33 126:50 127:35 128:-1 
-1 0:103 1:9 2:103 3:9 4:110 5:7 6:110 7:7 8:90 9:7 10:90 11:8 12:78 13:8 14:78 15:7 16:92 17:23 18:92 19:22 20:103 21:9 22:103 23:9 24:80 25:17 26:80 27:19 28:73 29:20 30:73 31:18 32:80 33:11 34:80 35:11 36:0 37:0 38:0 39:0 40:48 41:14 42:48 43:14 44:62 45:18 46:62 47:17 48:0 49:0 50:0 51:0 52:0 53:0 54:0 55:0 56:60 57:6 58:60 59:7 60:58 61:17 62:58 63:17 64:0 65:0 66:0 67:0 68:80 69:3 70:80 71:3 72:69 73:12 74:69 75:16 76:60 77:24 78:60 79:23 80:78 81:6 82:78 83:6 84:80 85:12 86:80 87:12 88:63 89:25 90:63 91:35 92:53 93:53 94:53 95:46 96:90 97:16 98:90 99:18 100:80 101:43 102:80 103:42 104:67 105:36 106:67 107:41 108:56 109:40 110:56 111:36 112:90 113:6 114:90 115:7 116:63 117:14 118:63 119:15 120:44 121:23 122:44 123:21 124:39 125:23 126:39 127:23 128:-1 
