svm_type c_svc
kernel_type polynomial
degree 3
gamma 0.0078125
coef0 0
nr_class 2
total_sv 153
rho 0.99991
label 1 -1
nr_sv 72 81
SV
2.463425973456429e-08 0:66 1:18 2:63 3:18 4:63 5:18 6:57 7:19 8:57 9:19 10:57 11:19 12:52 13:19 14:52 15:19 16:66 17:18 18:63 19:17 20:63 21:18 22:57 23:19 24:57 25:19 26:57 27:20 28:52 29:19 30:52 31:19 32:66 33:17 34:63 35:17 36:57 37:19 38:57 39:19 40:57 41:19 42:57 43:19 44:52 45:20 46:52 47:19 48:63 49:17 50:63 51:17 52:57 53:18 54:57 55:19 56:52 57:18 58:52 59:19 60:52 61:19 62:52 63:19 64:56 65:14 66:57 67:19 68:52 69:19 70:52 71:19 72:52 73:18 74:52 75:19 76:52 77:19 78:52 79:19 80:48 81:18 82:52 83:20 84:48 85:18 86:45 87:21 88:45 89:21 90:45 91:21 92:48 93:22 94:48 95:22 96:48 97:19 98:48 99:19 100:45 101:23 102:45 103:23 104:45 105:22 106:45 107:21 108:45 109:21 110:48 111:22 112:48 113:19 114:48 115:19 116:38 117:21 118:38 119:21 120:38 121:21 122:45 123:23 124:48 125:18 126:48 127:18 128:-1 
1.156092400639215e-07 0:70 1:10 2:70 3:10 4:70 5:11 6:70 7:11 8:70 9:11 10:70 11:11 12:70 13:10 14:60 15:12 16:70 17:11 18:70 19:11 20:70 21:11 22:70 23:11 24:70 25:11 26:70 27:10 28:70 29:10 30:73 31:14 32:80 33:15 34:80 35:16 36:80 37:12 38:80 39:12 40:80 41:17 42:80 43:15 44:73 45:13 46:73 47:14 48:80 49:16 50:80 51:17 52:80 53:12 54:80 55:13 56:80 57:19 58:80 59:19 60:73 61:16 62:73 63:14 64:79 65:20 66:79 67:21 68:80 69:18 70:80 71:18 72:80 73:19 74:80 75:19 76:73 77:18 78:73 79:15 80:79 81:20 82:79 83:21 84:80 85:18 86:80 87:18 88:80 89:18 90:80 91:19 92:73 93:18 94:73 95:17 96:74 97:24 98:74 99:25 100:74 101:22 102:74 103:22 104:73 105:19 106:73 107:19 108:73 109:18 110:73 111:17 112:74 113:25 114:74 115:26 116:74 117:22 118:74 119:23 120:73 121:19 122:73 123:19 124:73 125:19 126:73 127:18 128:-1 
7.31576366038241e-08 0:66 1:11 2:80 3:12 4:80 5:11 6:80 7:17 8:79 9:21 10:74 11:21 12:74 13:22 14:68 15:20 16:83 17:9 18:80 19:12 20:80 21:11 22:80 23:17 24:80 25:18 26:80 27:18 28:73 29:18 30:66 31:19 32:83 33:8 34:80 35:12 36:80 37:11 38:80 39:16 40:80 41:16 42:80 43:17 44:73 45:17 46:66 47:18 48:83 49:9 50:70 51:12 52:70 53:12 54:73 55:16 56:73 57:16 58:73 59:16 60:73 61:17 62:66 63:18 64:66 65:11 66:70 67:12 68:70 69:12 70:73 71:17 72:73 73:16 74:73 75:17 76:73 77:16 78:66 79:18 80:66 81:9 82:70 83:12 84:60 85:13 86:66 87:18 88:66 89:18 90:73 91:17 92:73 93:17 94:66 95:19 96:70 97:11 98:60 99:13 100:56 101:15 102:66 103:18 104:66 105:19 106:66 107:19 108:73 109:18 110:66 111:20 112:60 113:13 114:56 115:16 116:57 117:20 118:63 119:18 120:63 121:18 122:66 123:20 124:66 125:20 126:66 127:21 128:-1 
8.80478589461479e-08 0:76 1:23 2:76 3:23 4:76 5:23 6:76 7:23 8:80 9:25 10:80 11:24 12:80 13:18 14:80 15:17 16:76 17:24 18:76 19:24 20:76 21:24 22:76 23:24 24:80 25:19 26:80 27:20 28:80 29:18 30:80 31:17 32:74 33:21 34:76 35:25 36:76 37:25 38:76 39:24 40:80 41:20 42:80 43:19 44:80 45:19 46:80 47:18 48:74 49:21 50:74 51:21 52:74 53:21 54:74 55:21 56:74 57:22 58:74 59:22 60:74 61:21 62:74 63:20 64:74 65:18 66:74 67:21 68:74 69:21 70:74 71:22 72:74 73:23 74:74 75:22 76:74 77:22 78:74 79:22 80:79 81:19 82:79 83:17 84:79 85:18 86:79 87:19 88:74 89:22 90:74 91:22 92:74 93:19 94:74 95:19 96:79 97:18 98:79 99:17 100:79 101:19 102:79 103:19 104:74 105:22 106:74 107:22 108:74 109:19 110:74 111:19 112:79 113:18 114:79 115:17 116:79 117:19 118:79 119:19 120:79 121:19 122:79 123:19 124:74 125:18 126:74 127:19 128:-1 
6.665537923340679e-09 0:75 1:3 2:75 3:3 4:75 5:3 6:75 7:4 8:110 9:7 10:110 11:7 12:126 13:10 14:126 15:7 16:83 17:6 18:83 19:6 20:75 21:3 22:75 23:4 24:110 25:7 26:110 27:8 28:126 29:10 30:126 31:9 32:83 33:7 34:83 35:7 36:75 37:3 38:75 39:4 40:110 41:6 42:110 43:6 44:126 45:10 46:126 47:10 48:83 49:7 50:83 51:8 52:83 53:7 54:83 55:7 56:110 57:5 58:110 59:5 60:120 61:4 62:120 63:4 64:83 65:7 66:83 67:7 68:83 69:7 70:83 71:7 72:110 73:5 74:110 75:5 76:120 77:4 78:120 79:4 80:66 81:8 82:66 83:9 84:66 85:9 86:66 87:9 88:75 89:4 90:75 91:4 92:110 93:5 94:110 95:5 96:66 97:8 98:66 99:8 100:66 101:9 102:66 103:9 104:75 105:4 106:75 107:4 108:110 109:5 110:110 111:5 112:66 113:8 114:66 115:9 116:66 117:9 118:66 119:9 120:75 121:4 122:75 123:4 124:75 125:4 126:75 127:4 128:-1 
2.071397348632159e-08 0:164 1:18 2:164 3:18 4:163 5:15 6:150 7:12 8:145 9:10 10:145 11:10 12:145 13:9 14:145 15:8 16:169 17:18 18:164 19:18 20:163 21:15 22:160 23:10 24:156 25:9 26:145 27:9 28:145 29:9 30:145 31:8 32:169 33:18 34:163 35:15 36:163 37:15 38:160 39:10 40:156 41:8 42:156 43:8 44:145 45:8 46:145 47:9 48:170 49:15 50:163 51:15 52:163 53:15 54:170 55:10 56:170 57:9 58:170 59:9 60:160 61:9 62:160 63:8 64:170 65:16 66:163 67:15 68:163 69:15 70:170 71:14 72:170 73:9 74:170 75:9 76:170 77:9 78:160 79:9 80:164 81:20 82:163 83:15 84:163 85:15 86:170 87:15 88:170 89:15 90:170 91:14 92:170 93:13 94:170 95:9 96:164 97:19 98:164 99:18 100:164 101:17 102:164 103:18 104:169 105:18 106:169 107:16 108:170 109:13 110:170 111:9 112:164 113:21 114:164 115:21 116:164 117:21 118:164 119:21 120:164 121:17 122:164 123:16 124:163 125:13 126:170 127:8 128:-1 
4.20896247630689e-08 0:50 1:5 2:50 3:5 4:42 5:8 6:42 7:8 8:50 9:5 10:50 11:5 12:75 13:4 14:75 15:4 16:50 17:5 18:50 19:5 20:42 21:9 22:42 23:9 24:50 25:5 26:50 27:5 28:75 29:3 30:75 31:4 32:66 33:9 34:66 35:9 36:55 37:11 38:55 39:10 40:66 41:8 42:66 43:8 44:66 45:8 46:66 47:10 48:70 49:11 50:70 51:12 52:55 53:11 54:55 55:10 56:66 57:8 58:66 59:8 60:66 61:8 62:66 63:10 64:73 65:17 66:73 67:18 68:60 69:14 70:60 71:12 72:66 73:8 74:66 75:8 76:66 77:8 78:66 79:10 80:73 81:16 82:73 83:18 84:60 85:13 86:60 87:11 88:66 89:7 90:66 91:7 92:66 93:7 94:66 95:9 96:73 97:14 98:73 99:15 100:70 101:10 102:70 103:10 104:66 105:8 106:66 107:7 108:50 109:5 110:50 111:6 112:73 113:14 114:73 115:14 116:70 117:10 118:70 119:10 120:66 121:8 122:66 123:7 124:50 125:5 126:50 127:6 128:-1 
5.08969107286886e-10 0:83 1:7 2:110 3:5 4:110 5:5 6:110 7:5 8:120 9:4 10:120 11:5 12:120 13:6 14:0 15:0 16:110 17:5 18:0 19:0 20:0 21:0 22:120 23:3 24:140 25:6 26:140 27:7 28:140 29:8 30:140 31:8 32:110 33:5 34:0 35:0 36:0 37:0 38:140 39:5 40:140 41:5 42:140 43:6 44:140 45:9 46:140 47:8 48:120 49:4 50:140 51:7 52:140 53:7 54:140 55:5 56:140 57:5 58:156 59:11 60:156 61:14 62:140 63:8 64:120 65:6 66:140 67:9 68:140 69:10 70:140 71:7 72:140 73:5 74:156 75:10 76:140 77:8 78:140 79:6 80:165 81:5 82:120 83:6 84:120 85:6 86:140 87:7 88:140 89:5 90:140 91:6 92:140 93:7 94:132 95:9 96:165 97:4 98:120 99:5 100:120 101:6 102:140 103:7 104:140 105:6 106:140 107:5 108:120 109:4 110:126 111:9 112:165 113:5 114:120 115:5 116:110 117:8 118:126 119:13 120:126 121:9 122:126 123:8 124:126 125:8 126:126 127:8 128:-1 
2.286867548734369e-08 0:109 1:12 2:109 3:13 4:103 5:13 6:114 7:9 8:126 9:9 10:126 11:9 12:125 13:11 14:115 15:11 16:103 17:14 18:103 19:16 20:103 21:16 22:114 23:12 24:110 25:7 26:110 27:6 28:114 29:9 30:114 31:9 32:103 33:14 34:103 35:15 36:103 37:12 38:103 39:13 40:110 41:6 42:110 43:6 44:110 45:6 46:114 47:9 48:109 49:13 50:103 51:11 52:103 53:12 54:103 55:12 56:103 57:12 58:103 59:13 60:103 61:13 62:114 63:9 64:103 65:13 66:114 67:8 68:103 69:11 70:103 71:12 72:103 73:12 74:103 75:12 76:103 77:13 78:114 79:9 80:114 81:9 82:126 83:8 84:114 85:8 86:103 87:12 88:109 89:14 90:109 91:15 92:109 93:16 94:114 95:10 96:126 97:10 98:120 99:4 100:110 101:5 102:114 103:8 104:109 105:15 106:109 107:16 108:109 109:16 110:114 111:10 112:110 113:6 114:110 115:5 116:110 117:5 118:114 119:8 120:114 121:10 122:114 123:10 124:114 125:10 126:126 127:10 128:-1 
8.795322597868088e-09 0:159 1:30 2:166 3:36 4:166 5:41 6:166 7:34 8:166 9:34 10:166 11:32 12:166 13:31 14:166 15:29 16:164 17:31 18:164 19:33 20:164 21:31 22:166 23:33 24:166 25:32 26:161 27:34 28:161 29:35 30:161 31:33 32:164 33:41 34:164 35:33 36:164 37:29 38:166 39:32 40:166 41:34 42:161 43:37 44:161 45:39 46:161 47:32 48:169 49:31 50:164 51:36 52:164 53:30 54:161 55:35 56:161 57:37 58:161 59:38 60:161 61:37 62:162 63:31 64:169 65:29 66:164 67:34 68:164 69:30 70:161 71:35 72:161 73:33 74:161 75:36 76:161 77:37 78:162 79:34 80:177 81:24 82:169 83:28 84:164 85:25 86:159 87:26 88:159 89:25 90:161 91:31 92:161 93:37 94:162 95:35 96:177 97:24 98:169 99:28 100:169 101:25 102:164 103:27 104:159 105:26 106:161 107:33 108:161 109:36 110:161 111:35 112:0 113:17 114:170 115:24 116:170 117:22 118:164 119:25 120:164 121:23 122:164 123:28 124:164 125:30 126:164 127:30 128:-1 
8.514889424967779e-10 0:0 1:0 2:75 3:4 4:75 5:4 6:0 7:0 8:0 9:0 10:0 11:0 12:30 13:3 14:36 15:7 16:30 17:3 18:50 19:5 20:50 21:5 22:0 23:0 24:30 25:3 26:30 27:3 28:36 29:8 30:42 31:8 32:36 33:7 34:36 35:7 36:36 37:7 38:30 39:3 40:36 41:8 42:42 43:8 44:42 45:8 46:36 47:8 48:35 49:8 50:36 51:7 52:36 53:8 54:36 55:8 56:36 57:8 58:42 59:8 60:42 61:8 62:36 63:8 64:36 65:8 66:36 67:8 68:36 69:9 70:30 71:3 72:30 73:3 74:50 75:5 76:50 77:5 78:50 79:5 80:36 81:9 82:36 83:9 84:36 85:9 86:30 87:3 88:30 89:3 90:50 91:5 92:50 93:5 94:50 95:5 96:30 97:4 98:30 99:3 100:30 101:3 102:30 103:3 104:30 105:3 106:75 107:3 108:75 109:3 110:75 111:3 112:30 113:3 114:30 115:3 116:30 117:3 118:30 119:3 120:30 121:3 122:75 123:3 124:75 125:3 126:75 127:4 128:-1 
8.033311114789731e-08 0:80 1:25 2:76 3:25 4:76 5:29 6:79 7:28 8:80 9:25 10:80 11:28 12:80 13:28 14:79 15:22 16:80 17:19 18:80 19:21 20:80 21:27 22:80 23:25 24:80 25:25 26:80 27:29 28:80 29:27 30:80 31:23 32:80 33:21 34:80 35:23 36:80 37:24 38:80 39:28 40:80 41:27 42:80 43:28 44:80 45:30 46:80 47:22 48:79 49:21 50:85 51:24 52:85 53:24 54:84 55:29 56:84 57:27 58:84 59:27 60:84 61:27 62:80 63:20 64:79 65:21 66:85 67:23 68:85 69:23 70:84 71:28 72:84 73:27 74:84 75:27 76:84 77:26 78:80 79:20 80:79 81:21 82:85 83:23 84:85 85:23 86:84 87:29 88:84 89:27 90:80 91:25 92:80 93:25 94:80 95:25 96:73 97:17 98:79 99:21 100:85 101:24 102:85 103:24 104:84 105:30 106:80 107:26 108:80 109:24 110:80 111:24 112:73 113:17 114:79 115:20 116:80 117:26 118:80 119:28 120:80 121:28 122:80 123:22 124:80 125:20 126:74 127:22 128:-1 
1.449330843758214e-07 0:66 1:17 2:66 3:17 4:66 5:16 6:66 7:15 8:60 9:11 10:60 11:13 12:70 13:12 14:70 15:12 16:66 17:18 18:66 19:17 20:66 21:16 22:66 23:15 24:60 25:11 26:60 27:12 28:70 29:12 30:70 31:12 32:66 33:18 34:66 35:18 36:73 37:14 38:73 39:14 40:73 41:14 42:73 43:15 44:73 45:17 46:73 47:17 48:66 49:20 50:66 51:19 52:73 53:15 54:73 55:14 56:73 57:14 58:73 59:14 60:73 61:16 62:73 63:16 64:74 65:21 66:74 67:21 68:74 69:21 70:74 71:18 72:74 73:17 74:74 75:18 76:73 77:15 78:73 79:15 80:74 81:20 82:74 83:20 84:74 85:22 86:74 87:20 88:74 89:18 90:74 91:18 92:73 93:15 94:66 95:16 96:79 97:20 98:79 99:21 100:74 101:23 102:74 103:21 104:74 105:19 106:74 107:19 108:66 109:17 110:66 111:17 112:79 113:19 114:79 115:20 116:74 117:22 118:74 119:23 120:74 121:19 122:68 123:19 124:66 125:17 126:66 127:18 128:-1 
8.630492860709694e-08 0:67 1:21 2:65 3:19 4:60 5:21 6:63 7:18 8:63 9:19 10:56 11:16 12:56 13:17 14:60 15:15 16:67 17:22 18:65 19:21 20:60 21:22 22:57 23:20 24:57 25:21 26:56 27:16 28:56 29:18 30:60 31:16 32:67 33:22 34:65 35:21 36:65 37:22 38:57 39:22 40:57 41:22 42:56 43:16 44:56 45:17 46:60 47:16 48:69 49:22 50:68 51:18 52:65 53:22 54:63 55:22 56:57 57:23 58:52 59:23 60:56 61:18 62:56 63:18 64:76 65:24 66:69 67:20 68:65 69:20 70:63 71:20 72:57 73:23 74:52 75:23 76:52 77:24 78:48 79:25 80:74 81:19 82:69 83:19 84:68 85:18 86:63 87:18 88:63 89:19 90:52 91:22 92:52 93:22 94:52 95:24 96:74 97:16 98:68 99:16 100:66 101:16 102:66 103:17 104:63 105:20 106:63 107:20 108:63 109:20 110:63 111:21 112:74 113:16 114:66 115:16 116:66 117:16 118:66 119:17 120:66 121:20 122:66 123:22 124:63 125:22 126:63 127:21 128:-1 
8.901413146972133e-08 0:79 1:18 2:74 3:18 4:74 5:19 6:74 7:19 8:74 9:19 10:68 11:19 12:68 13:19 14:68 15:19 16:79 17:18 18:79 19:19 20:74 21:19 22:74 23:22 24:74 25:23 26:68 27:20 28:68 29:20 30:68 31:19 32:87 33:16 34:87 35:17 36:79 37:19 38:74 39:19 40:74 41:19 42:68 43:21 44:68 45:20 46:65 47:21 48:87 49:16 50:87 51:17 52:87 53:17 54:79 55:19 56:74 57:19 58:74 59:21 60:68 61:21 62:68 63:19 64:87 65:15 66:87 67:15 68:87 69:15 70:80 71:15 72:73 73:15 74:73 75:15 76:66 77:17 78:66 79:17 80:87 81:15 82:87 83:14 84:87 85:14 86:80 87:15 88:80 89:14 90:73 91:14 92:73 93:15 94:73 95:16 96:80 97:10 98:80 99:10 100:80 101:10 102:80 103:10 104:80 105:9 106:80 107:9 108:80 109:9 110:80 111:10 112:80 113:11 114:80 115:10 116:80 117:10 118:80 119:10 120:80 121:9 122:80 123:9 124:80 125:8 126:80 127:9 128:-1 
1.125033395002743e-06 0:34 1:14 2:34 3:14 4:34 5:14 6:34 7:14 8:34 9:14 10:35 11:11 12:35 13:11 14:35 15:11 16:35 17:11 18:35 19:11 20:35 21:11 22:34 23:14 24:34 25:14 26:34 27:14 28:34 29:15 30:30 31:15 32:35 33:11 34:35 35:11 36:35 37:10 38:35 39:10 40:34 41:14 42:34 43:14 44:34 45:14 46:30 47:14 48:36 49:8 50:36 51:8 52:35 53:10 54:35 55:10 56:35 57:11 58:30 59:15 60:30 61:14 62:30 63:13 64:36 65:8 66:36 67:8 68:36 69:8 70:35 71:10 72:35 73:11 74:30 75:15 76:30 77:14 78:30 79:14 80:30 81:3 82:30 83:3 84:36 85:8 86:35 87:9 88:35 89:10 90:30 91:14 92:30 93:14 94:21 95:17 96:30 97:4 98:30 99:4 100:36 101:9 102:36 103:8 104:35 105:10 106:25 107:10 108:30 109:14 110:30 111:14 112:42 113:11 114:42 115:10 116:42 117:9 118:36 119:9 120:36 121:9 122:36 123:9 124:35 125:11 126:35 127:11 128:-1 
7.796702470351278e-07 0:42 1:9 2:43 3:13 4:43 5:13 6:43 7:13 8:43 9:13 10:43 11:13 12:43 13:13 14:43 15:13 16:36 17:9 18:36 19:9 20:36 21:9 22:43 23:13 24:43 25:13 26:43 27:13 28:43 29:13 30:43 31:13 32:36 33:9 34:36 35:9 36:36 37:9 38:43 39:13 40:43 41:13 42:43 43:14 44:43 45:13 46:42 47:9 48:36 49:9 50:35 51:10 52:35 53:11 54:43 55:13 56:43 57:13 58:42 59:9 60:42 61:9 62:50 63:5 64:36 65:9 66:35 67:10 68:35 69:11 70:43 71:13 72:43 73:13 74:42 75:10 76:42 77:9 78:50 79:5 80:36 81:9 82:43 83:12 84:43 85:12 86:40 87:16 88:40 89:17 90:43 91:13 92:42 93:10 94:50 95:5 96:36 97:9 98:43 99:12 100:43 101:12 102:40 103:16 104:40 105:16 106:43 107:14 108:43 109:14 110:42 111:10 112:42 113:9 114:43 115:13 116:43 117:12 118:40 119:16 120:40 121:17 122:40 123:18 124:43 125:14 126:51 127:15 128:-1 
1.399811960896408e-07 0:66 1:17 2:73 3:16 4:73 5:16 6:73 7:15 8:73 9:15 10:73 11:15 12:74 13:19 14:74 15:19 16:66 17:17 18:73 19:16 20:73 21:16 22:73 23:16 24:74 25:19 26:74 27:19 28:74 29:23 30:74 31:22 32:60 33:12 34:70 35:11 36:73 37:16 38:80 39:15 40:79 41:19 42:79 43:19 44:80 45:22 46:80 47:26 48:60 49:12 50:70 51:11 52:73 53:16 54:79 55:19 56:79 57:19 58:80 59:21 60:80 61:22 62:80 63:27 64:66 65:18 66:73 67:16 68:73 69:16 70:79 71:19 72:79 73:19 74:80 75:22 76:80 77:22 78:80 79:22 80:68 81:20 82:73 83:17 84:74 85:21 86:79 87:20 88:79 89:20 90:80 91:22 92:80 93:23 94:80 95:22 96:74 97:23 98:74 99:20 100:74 101:20 102:79 103:20 104:79 105:20 106:79 107:19 108:79 109:20 110:79 111:20 112:74 113:21 114:74 115:22 116:74 117:23 118:79 119:19 120:79 121:19 122:79 123:19 124:79 125:20 126:79 127:20 128:-1 
6.22821902814995e-09 0:66 1:9 2:50 3:6 4:50 5:6 6:50 7:6 8:50 9:6 10:30 11:4 12:30 13:4 14:30 15:4 16:50 17:6 18:50 19:6 20:50 21:6 22:50 23:6 24:50 25:6 26:30 27:4 28:30 29:4 30:30 31:4 32:50 33:6 34:50 35:6 36:50 37:6 38:50 39:6 40:50 41:6 42:30 43:4 44:30 45:4 46:30 47:4 48:30 49:4 50:30 51:4 52:30 53:4 54:50 55:6 56:50 57:6 58:50 59:6 60:50 61:6 62:50 63:6 64:30 65:4 66:30 67:4 68:30 69:4 70:50 71:6 72:50 73:6 74:50 75:5 76:50 77:5 78:50 79:5 80:30 81:4 82:30 83:4 84:30 85:4 86:30 87:4 88:30 89:4 90:50 91:5 92:50 93:6 94:50 95:5 96:30 97:4 98:30 99:4 100:30 101:4 102:30 103:4 104:30 105:4 106:50 107:6 108:50 109:6 110:50 111:5 112:50 113:6 114:42 115:10 116:42 117:10 118:36 119:10 120:36 121:10 122:36 123:9 124:36 125:9 126:36 127:9 128:-1 
5.5134621416627e-08 0:51 1:12 2:55 3:11 4:55 5:10 6:42 7:9 8:42 9:8 10:42 11:9 12:42 13:9 14:50 15:5 16:43 17:12 18:43 19:12 20:43 21:12 22:42 23:9 24:42 25:9 26:50 27:5 28:50 29:5 30:50 31:5 32:43 33:13 34:43 35:12 36:43 37:12 38:42 39:8 40:42 41:8 42:50 43:5 44:50 45:5 46:50 47:5 48:43 49:13 50:42 51:9 52:42 53:8 54:55 55:10 56:55 57:10 58:66 59:8 60:66 61:9 62:50 63:6 64:43 65:13 66:42 67:9 68:55 69:10 70:55 71:10 72:55 73:10 74:66 75:9 76:66 77:9 78:50 79:6 80:43 81:14 82:55 83:11 84:55 85:11 86:55 87:10 88:60 89:12 90:66 91:9 92:66 93:8 94:66 95:9 96:42 97:10 98:55 99:12 100:55 101:11 102:60 103:13 104:60 105:12 106:70 107:10 108:66 109:8 110:66 111:9 112:50 113:6 114:66 115:10 116:66 117:9 118:70 119:11 120:73 121:16 122:73 123:15 124:70 125:10 126:70 127:10 128:-1 
1.10676817669037e-08 0:63 1:18 2:63 3:19 4:63 5:18 6:66 7:18 8:73 9:16 10:74 11:19 12:80 13:15 14:79 15:17 16:66 17:17 18:66 19:18 20:68 21:20 22:74 23:20 24:74 25:20 26:74 27:22 28:79 29:18 30:80 31:19 32:73 33:15 34:74 35:18 36:74 37:19 38:74 39:19 40:74 41:22 42:74 43:22 44:80 45:20 46:80 47:19 48:74 49:17 50:74 51:17 52:74 53:18 54:74 55:22 56:80 57:20 58:80 59:20 60:80 61:20 62:80 63:19 64:74 65:19 66:74 67:18 68:74 69:21 70:74 71:22 72:80 73:20 74:80 75:20 76:80 77:20 78:80 79:20 80:74 81:20 82:74 83:22 84:74 85:21 86:74 87:21 88:80 89:25 90:80 91:25 92:80 93:25 94:80 95:24 96:74 97:23 98:74 99:22 100:74 101:22 102:74 103:22 104:80 105:26 106:80 107:26 108:80 109:25 110:80 111:25 112:74 113:23 114:76 115:25 116:76 117:25 118:76 119:26 120:80 121:26 122:80 123:25 124:80 125:26 126:80 127:26 128:-1 
2.340278864429001e-10 0:30 1:4 2:30 3:4 4:165 5:4 6:165 7:5 8:165 9:4 10:165 11:4 12:165 13:4 14:165 15:4 16:30 17:4 18:30 19:4 20:165 21:4 22:165 23:4 24:165 25:5 26:165 27:4 28:165 29:4 30:165 31:4 32:0 33:0 34:0 35:0 36:165 37:4 38:165 39:4 40:173 41:9 42:173 43:9 44:173 45:8 46:173 47:8 48:0 49:0 50:165 51:4 52:165 53:5 54:173 55:9 56:173 57:9 58:173 59:9 60:170 61:12 62:173 63:9 64:165 65:4 66:165 67:4 68:173 69:9 70:170 71:13 72:0 73:14 74:0 75:13 76:177 77:18 78:0 79:13 80:165 81:5 82:173 83:9 84:170 85:13 86:170 87:13 88:177 89:19 90:177 91:19 92:177 93:18 94:177 95:16 96:173 97:9 98:173 99:9 100:170 101:13 102:170 103:20 104:177 105:21 106:177 107:21 108:177 109:21 110:177 111:20 112:173 113:9 114:170 115:13 116:170 117:20 118:170 119:20 120:177 121:23 122:177 123:23 124:177 125:25 126:177 127:28 128:-1 
4.115681702952188e-10 0:175 1:24 2:175 3:20 4:177 5:14 6:177 7:14 8:177 9:14 10:177 11:15 12:177 13:15 14:177 15:15 16:177 17:19 18:177 19:18 20:177 21:13 22:177 23:12 24:177 25:13 26:177 27:14 28:177 29:16 30:177 31:18 32:177 33:15 34:177 35:16 36:0 37:9 38:0 39:8 40:0 41:9 42:0 43:10 44:0 45:11 46:177 47:16 48:0 49:10 50:0 51:10 52:0 53:9 54:0 55:9 56:0 57:8 58:0 59:9 60:0 61:11 62:177 63:15 64:0 65:10 66:0 67:9 68:6 69:8 70:6 71:7 72:6 73:7 74:0 75:9 76:0 77:11 78:177 79:15 80:0 81:10 82:0 83:9 84:6 85:7 86:0 87:9 88:0 89:8 90:0 91:9 92:0 93:12 94:177 95:15 96:170 97:17 98:170 99:16 100:170 101:10 102:177 103:14 104:177 105:13 106:177 107:14 108:177 109:16 110:11 111:14 112:170 113:14 114:170 115:19 116:170 117:17 118:177 119:14 120:177 121:13 122:177 123:14 124:177 125:16 126:6 127:16 128:-1 
1.04673179198682e-07 0:80 1:12 2:80 3:12 4:80 5:10 6:70 7:9 8:70 9:11 10:60 11:13 12:66 13:20 14:66 15:18 16:80 17:18 18:80 19:18 20:80 21:15 22:70 23:10 24:70 25:11 26:60 27:14 28:60 29:15 30:60 31:12 32:80 33:19 34:80 35:19 36:80 37:16 38:73 39:14 40:60 41:12 42:60 43:14 44:60 45:14 46:60 47:12 48:70 49:14 50:70 51:13 52:70 53:11 54:70 55:10 56:60 57:12 58:60 59:14 60:70 61:12 62:70 63:10 64:70 65:12 66:70 67:12 68:70 69:11 70:70 71:10 72:60 73:12 74:60 75:14 76:70 77:12 78:70 79:10 80:70 81:11 82:70 83:12 84:70 85:11 86:70 87:10 88:70 89:11 90:70 91:13 92:70 93:13 94:70 95:10 96:70 97:12 98:70 99:12 100:70 101:12 102:70 103:12 104:70 105:12 106:70 107:13 108:70 109:13 110:70 111:10 112:60 113:15 114:60 115:14 116:73 117:18 118:73 119:18 120:80 121:12 122:80 123:13 124:83 125:8 126:83 127:6 128:-1 
1.172866066609075e-08 0:36 1:12 2:20 3:6 4:20 5:6 6:20 7:6 8:20 9:7 10:165 11:5 12:165 13:4 14:30 15:4 16:36 17:13 18:20 19:7 20:20 21:6 22:20 23:6 24:20 25:6 26:165 27:5 28:165 29:5 30:30 31:4 32:36 33:12 34:24 35:11 36:24 37:10 38:20 39:6 40:20 41:6 42:30 43:5 44:30 45:5 46:30 47:4 48:36 49:13 50:24 51:11 52:24 53:10 54:20 55:6 56:20 57:6 58:30 59:5 60:30 61:5 62:30 63:4 64:42 65:12 66:36 67:11 68:36 69:11 70:30 71:4 72:30 73:4 74:30 75:5 76:30 77:5 78:42 79:12 80:42 81:15 82:36 83:12 84:36 85:12 86:30 87:5 88:30 89:5 90:30 91:6 92:30 93:6 94:42 95:12 96:42 97:11 98:42 99:11 100:42 101:11 102:42 103:10 104:42 105:10 106:42 107:12 108:42 109:14 110:42 111:13 112:42 113:9 114:42 115:8 116:55 117:10 118:42 119:9 120:55 121:11 122:42 123:9 124:42 125:10 126:42 127:11 128:-1 
2.480830035651258e-07 0:13 1:11 2:13 3:11 4:6 5:8 6:20 7:6 8:30 9:4 10:30 11:5 12:30 13:6 14:30 15:8 16:24 17:10 18:24 19:9 20:20 21:6 22:30 23:5 24:30 25:5 26:30 27:4 28:30 29:5 30:30 31:8 32:36 33:11 34:36 35:11 36:30 37:5 38:30 39:5 40:0 41:0 42:0 43:0 44:30 45:5 46:30 47:6 48:42 49:10 50:42 51:9 52:42 53:10 54:42 55:12 56:30 57:5 58:30 59:5 60:30 61:5 62:30 63:6 64:35 65:12 66:35 67:11 68:43 69:12 70:43 71:15 72:42 73:12 74:36 75:12 76:24 77:13 78:24 79:15 80:34 81:15 82:34 83:14 84:40 85:16 86:40 87:17 88:43 89:16 90:35 91:14 92:24 93:12 94:24 95:14 96:35 97:11 98:35 99:11 100:35 101:10 102:35 103:12 104:42 105:10 106:36 107:11 108:24 109:12 110:24 111:13 112:35 113:11 114:35 115:11 116:35 117:12 118:35 119:13 120:42 121:12 122:36 123:12 124:36 125:12 126:36 127:11 128:-1 
9.416656695199109e-09 0:170 1:25 2:170 3:26 4:170 5:28 6:170 7:29 8:170 9:27 10:170 11:23 12:170 13:20 14:169 15:22 16:170 17:27 18:170 19:29 20:170 21:29 22:170 23:29 24:170 25:24 26:170 27:19 28:170 29:18 30:169 31:19 32:169 33:22 34:170 35:30 36:170 37:28 38:170 39:24 40:170 41:21 42:170 43:17 44:170 45:17 46:169 47:17 48:169 49:22 50:169 51:26 52:169 53:26 54:170 55:23 56:170 57:18 58:170 59:17 60:170 61:18 62:169 63:17 64:170 65:18 66:170 67:21 68:170 69:20 70:177 71:18 72:175 73:18 74:170 75:17 76:170 77:18 78:170 79:19 80:170 81:16 82:170 83:12 84:170 85:19 86:177 87:19 88:175 89:20 90:170 91:20 92:170 93:20 94:170 95:19 96:170 97:11 98:170 99:11 100:170 101:18 102:170 103:27 104:170 105:31 106:170 107:31 108:170 109:28 110:170 111:20 112:170 113:11 114:170 115:16 116:170 117:17 118:170 119:26 120:170 121:34 122:170 123:31 124:170 125:31 126:170 127:22 128:-1 
4.266590552278504e-11 0:0 1:9 2:0 3:9 4:0 5:9 6:177 7:14 8:175 9:21 10:174 11:31 12:171 13:38 14:170 15:36 16:6 17:8 18:6 19:8 20:0 21:9 22:177 23:14 24:175 25:21 26:174 27:29 28:169 29:35 30:171 31:38 32:6 33:8 34:6 35:8 36:0 37:10 38:177 39:14 40:175 41:21 42:174 43:28 44:169 45:35 46:171 47:38 48:6 49:8 50:0 51:10 52:177 53:15 54:177 55:17 56:174 57:28 58:174 59:31 60:171 61:36 62:171 63:33 64:0 65:10 66:177 67:16 68:175 69:24 70:174 71:31 72:174 73:32 74:174 75:35 76:174 77:32 78:173 79:34 80:177 81:17 82:177 83:23 84:174 85:34 86:174 87:40 88:174 89:40 90:173 91:37 92:173 93:34 94:173 95:32 96:169 97:22 98:170 99:35 100:174 101:37 102:174 103:44 104:173 105:42 106:172 107:37 108:172 109:36 110:172 111:34 112:170 113:23 114:169 115:38 116:174 117:43 118:173 119:49 120:173 121:39 122:172 123:36 124:172 125:37 126:172 127:37 128:-1 
3.228256754290791e-08 0:170 1:24 2:170 3:23 4:170 5:28 6:170 7:28 8:170 9:26 10:169 11:28 12:169 13:28 14:169 15:29 16:170 17:14 18:169 19:18 20:170 21:19 22:170 23:19 24:170 25:25 26:169 27:27 28:169 29:28 30:169 31:28 32:170 33:13 34:169 35:16 36:170 37:18 38:170 39:18 40:170 41:23 42:169 43:27 44:171 45:30 46:171 47:32 48:170 49:14 50:170 51:14 52:169 53:16 54:170 55:18 56:170 57:24 58:169 59:28 60:171 61:31 62:171 63:32 64:170 65:9 66:170 67:14 68:169 69:17 70:170 71:19 72:170 73:24 74:169 75:27 76:169 77:28 78:171 79:32 80:170 81:9 82:170 83:10 84:170 85:14 86:169 87:17 88:170 89:19 90:170 91:19 92:170 93:24 94:169 95:29 96:170 97:9 98:170 99:10 100:170 101:10 102:170 103:14 104:170 105:14 106:169 107:16 108:170 109:19 110:170 111:19 112:170 113:9 114:170 115:10 116:170 117:10 118:170 119:10 120:170 121:13 122:170 123:13 124:169 125:17 126:169 127:17 128:-1 
2.966174759823054e-09 0:20 1:5 2:20 3:5 4:30 5:3 6:30 7:3 8:30 9:3 10:50 11:5 12:50 13:5 14:50 15:7 16:20 17:5 18:20 19:5 20:30 21:3 22:30 23:3 24:50 25:5 26:50 27:5 28:50 29:5 30:50 31:5 32:0 33:0 34:0 35:0 36:0 37:0 38:0 39:0 40:75 41:4 42:75 43:3 44:50 45:5 46:50 47:5 48:0 49:0 50:0 51:0 52:0 53:0 54:75 55:5 56:75 57:4 58:75 59:3 60:50 61:5 62:50 63:4 64:50 65:6 66:50 67:6 68:75 69:5 70:75 71:5 72:75 73:5 74:83 75:7 76:66 77:8 78:66 79:8 80:50 81:6 82:50 83:5 84:75 85:5 86:75 87:6 88:83 89:9 90:83 91:6 92:66 93:8 94:66 95:8 96:50 97:5 98:50 99:5 100:75 101:5 102:75 103:6 104:83 105:9 106:83 107:6 108:66 109:8 110:66 111:8 112:50 113:5 114:50 115:5 116:75 117:4 118:75 119:6 120:75 121:4 122:83 123:6 124:66 125:8 126:66 127:8 128:-1 
2.411722415716124e-07 0:30 1:4 2:30 3:4 4:30 5:4 6:50 7:6 8:42 9:11 10:55 11:13 12:55 13:14 14:60 15:14 16:24 17:10 18:36 19:10 20:36 21:10 22:42 23:10 24:42 25:10 26:55 27:12 28:55 29:13 30:55 31:13 32:24 33:10 34:24 35:11 36:36 37:10 38:36 39:10 40:42 41:10 42:42 43:9 44:55 45:12 46:55 47:13 48:24 49:10 50:24 51:11 52:36 53:11 54:36 55:11 56:42 57:10 58:42 59:10 60:42 61:10 62:42 63:11 64:24 65:11 66:24 67:14 68:36 69:13 70:36 71:13 72:42 73:12 74:42 75:12 76:42 77:12 78:42 79:12 80:36 81:13 82:36 83:14 84:36 85:15 86:36 87:15 88:36 89:14 90:36 91:13 92:42 93:13 94:42 95:12 96:36 97:12 98:36 99:18 100:36 101:15 102:36 103:15 104:36 105:15 106:36 107:15 108:36 109:15 110:42 111:13 112:36 113:11 114:36 115:13 116:24 117:14 118:24 119:15 120:24 121:15 122:36 123:18 124:36 125:17 126:36 127:16 128:-1 
1.115510665686957e-08 0:80 1:10 2:80 3:10 4:80 5:15 6:79 7:18 8:79 9:18 10:80 11:20 12:80 13:25 14:76 15:25 16:80 17:10 18:83 19:7 20:80 21:10 22:80 23:14 24:79 25:17 26:80 27:20 28:80 29:26 30:76 31:25 32:83 33:8 34:75 35:4 36:83 37:8 38:80 39:10 40:80 41:15 42:79 43:19 44:80 45:21 46:80 47:26 48:75 49:5 50:75 51:6 52:75 53:5 54:83 55:8 56:80 57:12 58:80 59:19 60:79 61:21 62:80 63:22 64:75 65:5 66:0 67:0 68:75 69:5 70:75 71:5 72:83 73:10 74:80 75:12 76:80 77:18 78:80 79:22 80:75 81:4 82:75 83:5 84:0 85:0 86:75 87:6 88:83 89:13 90:83 91:9 92:80 93:18 94:79 95:20 96:83 97:8 98:75 99:4 100:75 101:5 102:75 103:6 104:83 105:12 106:83 107:11 108:80 109:18 110:79 111:20 112:80 113:11 114:83 115:8 116:75 117:5 118:75 119:6 120:83 121:13 122:80 123:16 124:80 125:17 126:79 127:19 128:-1 
3.446497519633876e-09 0:173 1:7 2:170 3:13 4:170 5:14 6:169 7:22 8:169 9:18 10:169 11:17 12:169 13:17 14:169 15:19 16:173 17:7 18:170 19:12 20:170 21:14 22:169 23:27 24:169 25:24 26:169 27:16 28:169 29:17 30:169 31:19 32:173 33:6 34:170 35:12 36:170 37:14 38:170 39:25 40:170 41:25 42:170 43:15 44:170 45:13 46:170 47:16 48:170 49:8 50:170 51:11 52:170 53:14 54:170 55:27 56:170 57:27 58:170 59:19 60:170 61:14 62:170 63:17 64:170 65:8 66:170 67:11 68:170 69:13 70:170 71:28 72:170 73:31 74:170 75:23 76:170 77:15 78:170 79:12 80:170 81:11 82:170 83:11 84:170 85:12 86:169 87:26 88:170 89:25 90:170 91:20 92:170 93:15 94:170 95:17 96:169 97:15 98:169 99:13 100:169 101:14 102:170 103:20 104:169 105:20 106:169 107:19 108:169 109:18 110:169 111:19 112:169 113:16 114:170 115:15 116:170 117:15 118:170 119:18 120:170 121:17 122:170 123:17 124:169 125:16 126:169 127:17 128:-1 
4.816623869303948e-08 0:175 1:16 2:174 3:19 4:174 5:17 6:174 7:18 8:174 9:20 10:174 11:27 12:177 13:29 14:176 15:28 16:175 17:17 18:174 19:19 20:174 21:18 22:174 23:18 24:174 25:22 26:173 27:27 28:176 29:28 30:176 31:27 32:175 33:17 34:174 35:20 36:174 37:19 38:174 39:21 40:177 41:23 42:177 43:23 44:176 45:26 46:176 47:27 48:174 49:22 50:174 51:20 52:174 53:19 54:174 55:22 56:177 57:22 58:177 59:24 60:177 61:24 62:176 63:27 64:174 65:22 66:174 67:20 68:174 69:19 70:174 71:18 72:178 73:20 74:177 75:26 76:177 77:26 78:177 79:25 80:175 81:17 82:174 83:20 84:174 85:18 86:174 87:18 88:178 89:20 90:178 91:25 92:177 93:29 94:177 95:26 96:177 97:14 98:175 99:16 100:175 101:15 102:174 103:19 104:174 105:18 106:174 107:23 108:174 109:31 110:174 111:30 112:177 113:15 114:177 115:13 116:177 117:14 118:175 119:16 120:174 121:18 122:174 123:20 124:174 125:27 126:174 127:29 128:-1 
2.339774245868982e-10 0:165 1:4 2:165 3:4 4:165 5:4 6:0 7:0 8:0 9:0 10:165 11:4 12:165 13:3 14:165 15:3 16:173 17:6 18:165 19:3 20:165 21:3 22:165 23:3 24:165 25:3 26:165 27:4 28:165 29:4 30:165 31:3 32:170 33:8 34:173 35:6 36:173 37:5 38:173 39:5 40:173 41:6 42:173 43:7 44:173 45:7 46:173 47:7 48:177 49:13 50:177 51:12 52:177 53:11 54:177 55:11 56:177 57:14 58:177 59:17 60:177 61:16 62:0 63:11 64:177 65:14 66:177 67:13 68:177 69:13 70:177 71:13 72:177 73:17 74:177 75:20 76:177 77:17 78:177 79:18 80:177 81:16 82:177 83:14 84:177 85:11 86:177 87:13 88:177 89:19 90:170 91:21 92:170 93:13 94:170 95:12 96:177 97:15 98:177 99:12 100:177 101:12 102:177 103:15 104:0 105:16 106:170 107:15 108:170 109:13 110:170 111:13 112:0 113:9 114:0 115:8 116:0 117:9 118:170 119:14 120:170 121:16 122:170 123:13 124:173 125:10 126:173 127:10 128:-1 
1.970024274743357e-08 0:169 1:26 2:169 3:26 4:171 5:28 6:171 7:26 8:171 9:27 10:171 11:27 12:170 13:32 14:170 15:32 16:169 17:26 18:169 19:26 20:169 21:25 22:171 23:27 24:171 25:27 26:171 27:28 28:171 29:30 30:170 31:34 32:169 33:27 34:171 35:29 36:171 37:29 38:171 39:28 40:171 41:28 42:171 43:29 44:171 45:33 46:170 47:35 48:169 49:27 50:171 51:29 52:171 53:29 54:171 55:29 56:171 57:30 58:171 59:31 60:171 61:33 62:171 63:31 64:169 65:27 66:169 67:27 68:169 69:27 70:174 71:26 72:174 73:26 74:174 75:27 76:174 77:27 78:174 79:28 80:170 81:24 82:170 83:25 84:170 85:25 86:174 87:26 88:174 89:26 90:174 91:26 92:174 93:27 94:174 95:27 96:170 97:20 98:170 99:20 100:170 101:19 102:175 103:21 104:175 105:21 106:177 107:17 108:177 109:18 110:177 111:19 112:170 113:17 114:170 115:15 116:170 117:14 118:177 119:14 120:177 121:16 122:177 123:15 124:177 125:16 126:177 127:17 128:-1 
4.049716091856926e-08 0:24 1:8 2:36 3:12 4:36 5:11 6:36 7:9 8:36 9:9 10:36 11:10 12:35 13:12 14:34 15:15 16:24 17:8 18:24 19:12 20:24 21:12 22:25 23:12 24:25 25:12 26:35 27:12 28:35 29:12 30:34 31:16 32:24 33:8 34:24 35:9 36:24 37:13 38:25 39:12 40:25 41:12 42:35 43:12 44:34 45:16 46:34 47:16 48:13 49:11 50:19 51:13 52:19 53:18 54:25 55:12 56:25 57:12 58:35 59:11 60:34 61:15 62:40 63:17 64:13 65:12 66:19 67:13 68:19 69:14 70:25 71:11 72:25 73:11 74:25 75:11 76:35 77:11 78:40 79:16 80:11 81:15 82:19 83:14 84:19 85:14 86:19 87:15 88:25 89:12 90:25 91:11 92:35 93:11 94:40 95:17 96:11 97:16 98:13 99:14 100:19 101:14 102:19 103:15 104:19 105:17 106:25 107:13 108:25 109:13 110:35 111:11 112:13 113:13 114:13 115:13 116:13 117:12 118:13 119:13 120:13 121:16 122:24 123:14 124:24 125:13 126:36 127:10 128:-1 
1.693536182282178e-09 0:177 1:15 2:177 3:14 4:177 5:13 6:169 7:14 8:169 9:14 10:169 11:14 12:169 13:16 14:170 15:13 16:177 17:15 18:177 19:15 20:177 21:16 22:169 23:16 24:169 25:15 26:169 27:16 28:169 29:18 30:170 31:14 32:170 33:18 34:170 35:19 36:170 37:21 38:169 39:19 40:169 41:17 42:170 43:14 44:170 45:14 46:170 47:14 48:164 49:19 50:170 51:20 52:170 53:22 54:169 55:21 56:169 57:19 58:170 59:14 60:170 61:14 62:170 63:14 64:164 65:17 66:169 67:17 68:169 69:18 70:169 71:20 72:169 73:19 74:177 75:14 76:177 77:14 78:0 79:10 80:163 81:12 82:169 83:15 84:169 85:16 86:169 87:18 88:170 89:16 90:177 91:14 92:0 93:9 94:0 95:9 96:160 97:8 98:170 99:12 100:170 101:13 102:170 103:15 104:170 105:16 106:177 107:15 108:0 109:10 110:11 111:13 112:160 113:8 114:170 115:13 116:170 117:14 118:170 119:14 120:170 121:16 122:0 123:12 124:0 125:10 126:13 127:12 128:-1 
2.592473184168875e-08 0:6 1:9 2:24 3:8 4:24 5:8 6:36 7:8 8:36 9:8 10:36 11:9 12:36 13:9 14:36 15:10 16:13 17:12 18:25 19:10 20:25 21:10 22:35 23:10 24:36 25:8 26:36 27:9 28:24 29:10 30:24 31:10 32:19 33:14 34:25 35:10 36:35 37:10 38:36 39:9 40:36 41:10 42:36 43:11 44:30 45:4 46:30 47:5 48:24 49:9 50:36 51:9 52:36 53:9 54:30 55:4 56:50 57:6 58:50 59:6 60:75 61:4 62:50 63:6 64:36 65:9 66:36 67:9 68:30 69:4 70:30 71:4 72:75 73:4 74:75 75:4 76:75 77:4 78:75 79:3 80:30 81:4 82:50 83:5 84:30 85:3 86:30 87:3 88:50 89:5 90:50 91:5 92:66 93:8 94:66 95:8 96:50 97:5 98:50 99:5 100:50 101:5 102:50 103:5 104:50 105:4 106:50 107:4 108:66 109:8 110:66 111:8 112:75 113:3 114:75 115:3 116:50 117:5 118:66 119:8 120:66 121:7 122:66 123:7 124:55 125:9 126:55 127:9 128:-1 
5.521045303154957e-08 0:50 1:6 2:75 3:3 4:96 5:9 6:80 7:10 8:80 9:10 10:73 11:16 12:66 13:19 14:56 15:16 16:66 17:9 18:83 19:7 20:80 21:10 22:80 23:10 24:80 25:10 26:73 27:16 28:66 29:19 30:63 31:21 32:70 33:11 34:80 35:10 36:80 37:10 38:80 39:10 40:70 41:10 42:66 43:17 44:66 45:18 46:63 47:21 48:80 49:10 50:80 51:10 52:80 53:15 54:73 55:15 56:73 57:15 58:66 59:17 60:66 61:18 62:63 63:20 64:80 65:10 66:80 67:15 68:80 69:15 70:73 71:15 72:73 73:15 74:66 75:17 76:66 77:18 78:63 79:19 80:80 81:10 82:73 83:15 84:74 85:18 86:73 87:16 88:73 89:16 90:60 91:12 92:60 93:12 94:56 95:14 96:80 97:15 98:73 99:15 100:74 101:19 102:73 103:16 104:66 105:18 106:60 107:12 108:60 109:12 110:56 111:14 112:80 113:15 114:73 115:15 116:74 117:19 118:66 119:17 120:66 121:18 122:60 123:12 124:56 125:15 126:56 127:14 128:-1 
3.944271995079213e-08 0:80 1:12 2:80 3:11 4:80 5:11 6:80 7:11 8:83 9:7 10:66 11:9 12:50 13:6 14:42 15:10 16:83 17:8 18:80 19:11 20:80 21:11 22:80 23:11 24:83 25:7 26:83 27:7 28:50 29:6 30:50 31:6 32:83 33:9 34:83 35:8 36:83 37:7 38:83 39:8 40:75 41:4 42:75 43:3 44:50 45:5 46:50 47:7 48:75 49:5 50:83 51:8 52:83 53:8 54:83 55:8 56:75 57:3 58:75 59:3 60:50 61:5 62:50 63:7 64:75 65:5 66:75 67:5 68:75 69:4 70:75 71:4 72:75 73:3 74:75 75:3 76:50 77:6 78:50 79:8 80:75 81:5 82:75 83:5 84:75 85:4 86:75 87:4 88:75 89:3 90:75 91:3 92:50 93:6 94:50 95:8 96:75 97:5 98:83 99:10 100:83 101:9 102:83 103:8 104:83 105:7 106:83 107:7 108:50 109:6 110:50 111:7 112:83 113:10 114:83 115:10 116:83 117:8 118:83 119:7 120:83 121:7 122:83 123:7 124:50 125:7 126:50 127:7 128:-1 
3.055092337931763e-08 0:35 1:25 2:35 3:23 4:40 5:20 6:43 7:16 8:36 9:11 10:36 11:9 12:35 13:10 14:43 15:11 16:35 17:26 18:35 19:23 20:40 21:21 22:43 23:17 24:36 25:10 26:36 27:9 28:35 29:10 30:35 31:10 32:35 33:27 34:35 35:24 36:34 37:19 38:35 39:14 40:36 41:10 42:36 43:9 44:36 45:8 46:35 47:10 48:35 49:26 50:35 51:26 52:34 53:17 54:35 55:13 56:36 57:10 58:36 59:9 60:36 61:9 62:36 63:8 64:35 65:26 66:35 67:27 68:34 69:19 70:35 71:14 72:24 73:10 74:24 75:9 76:36 77:9 78:36 79:9 80:35 81:26 82:34 83:19 84:35 85:15 86:35 87:14 88:24 89:9 90:24 91:9 92:36 93:9 94:36 95:9 96:30 97:19 98:30 99:18 100:25 101:12 102:24 103:9 104:24 105:9 106:24 107:9 108:24 109:9 110:24 111:9 112:30 113:19 114:25 115:11 116:24 117:8 118:24 119:8 120:24 121:9 122:24 123:9 124:24 125:9 126:24 127:9 128:-1 
3.818600009550296e-07 0:34 1:14 2:34 3:14 4:34 5:14 6:34 7:15 8:34 9:15 10:34 11:14 12:36 13:9 14:30 15:4 16:34 17:13 18:34 19:13 20:34 21:14 22:34 23:15 24:34 25:14 26:35 27:11 28:36 29:9 30:30 31:4 32:34 33:14 34:34 35:14 36:34 37:14 38:34 39:14 40:35 41:11 42:35 43:11 44:36 45:10 46:30 47:4 48:34 49:14 50:34 51:14 52:34 53:15 54:34 55:15 56:35 57:11 58:35 59:11 60:36 61:10 62:30 63:4 64:35 65:11 66:35 67:11 68:43 69:13 70:43 71:13 72:40 73:16 74:35 75:11 76:35 77:11 78:24 79:10 80:35 81:11 82:35 83:11 84:43 85:12 86:43 87:13 88:40 89:16 90:40 91:17 92:35 93:12 94:25 95:12 96:35 97:11 98:35 99:11 100:35 101:11 102:35 103:11 104:40 105:16 106:40 107:17 108:35 109:11 110:35 111:12 112:36 113:9 114:35 115:11 116:35 117:11 118:35 119:11 120:40 121:16 122:40 123:17 124:35 125:12 126:35 127:12 128:-1 
1.35932369410924e-07 0:80 1:19 2:80 3:19 4:80 5:20 6:80 7:20 8:80 9:14 10:80 11:14 12:80 13:14 14:80 15:16 16:80 17:18 18:80 19:19 20:80 21:19 22:80 23:19 24:80 25:13 26:80 27:13 28:80 29:14 30:80 31:16 32:80 33:12 34:80 35:12 36:80 37:13 38:80 39:13 40:80 41:12 42:80 43:12 44:80 45:13 46:80 47:15 48:83 49:8 50:80 51:12 52:80 53:13 54:80 55:14 56:80 57:12 58:80 59:11 60:80 61:11 62:80 63:11 64:75 65:4 66:83 67:8 68:83 69:8 70:83 71:9 72:83 73:8 74:83 75:7 76:80 77:10 78:80 79:10 80:75 81:4 82:75 83:4 84:83 85:8 86:83 87:8 88:83 89:7 90:83 91:7 92:80 93:10 94:80 95:11 96:75 97:5 98:75 99:4 100:75 101:4 102:75 103:4 104:83 105:7 106:83 107:7 108:83 109:7 110:80 111:11 112:75 113:5 114:75 115:4 116:75 117:4 118:75 119:4 120:83 121:8 122:83 123:8 124:83 125:8 126:83 127:9 128:-1 
8.753836191286189e-10 0:75 1:7 2:75 3:6 4:75 5:5 6:75 7:4 8:83 9:8 10:80 11:10 12:80 13:10 14:80 15:10 16:0 17:0 18:0 19:0 20:75 21:5 22:75 23:4 24:83 25:8 26:80 27:10 28:80 29:10 30:80 31:10 32:75 33:5 34:75 35:4 36:75 37:4 38:75 39:4 40:83 41:7 42:80 43:10 44:80 45:10 46:80 47:10 48:96 49:11 50:110 51:6 52:110 53:5 54:110 55:5 56:110 57:5 58:96 59:9 60:96 61:9 62:96 63:10 64:96 65:10 66:96 67:10 68:110 69:6 70:110 71:6 72:110 73:6 74:110 75:6 76:110 77:7 78:110 79:7 80:103 81:15 82:103 83:15 84:110 85:6 86:110 87:7 88:110 89:7 90:110 91:8 92:110 93:9 94:110 95:10 96:103 97:15 98:103 99:15 100:110 101:8 102:110 103:9 104:110 105:10 106:110 107:12 108:110 109:12 110:110 111:11 112:114 113:13 114:114 115:13 116:114 117:14 118:114 119:17 120:120 121:8 122:120 123:8 124:120 125:8 126:120 127:7 128:-1 
9.850070289363049e-09 0:170 1:18 2:169 3:16 4:170 5:16 6:169 7:16 8:169 9:20 10:170 11:18 12:170 13:15 14:170 15:9 16:169 17:18 18:170 19:15 20:169 21:17 22:170 23:15 24:170 25:18 26:170 27:12 28:170 29:11 30:170 31:9 32:170 33:15 34:170 35:16 36:170 37:17 38:170 39:12 40:170 41:11 42:170 43:12 44:170 45:10 46:173 47:6 48:170 49:9 50:170 51:10 52:170 53:10 54:173 55:6 56:173 57:6 58:173 59:6 60:173 61:6 62:165 63:3 64:170 65:9 66:170 67:9 68:173 69:6 70:173 71:6 72:173 73:6 74:173 75:6 76:165 77:3 78:165 79:3 80:173 81:6 82:173 83:6 84:173 85:6 86:173 87:6 88:165 89:3 90:165 91:3 92:165 93:3 94:165 95:3 96:173 97:6 98:173 99:7 100:173 101:7 102:173 103:6 104:165 105:3 106:165 107:3 108:165 109:3 110:165 111:4 112:173 113:7 114:173 115:7 116:173 117:7 118:173 119:7 120:165 121:3 122:165 123:3 124:165 125:3 126:165 127:4 128:-1 
1.198507380693648e-11 0:120 1:3 2:165 3:3 4:165 5:3 6:0 7:0 8:0 9:0 10:75 11:4 12:75 13:4 14:75 15:4 16:120 17:4 18:165 19:3 20:165 21:3 22:0 23:0 24:0 25:0 26:75 27:4 28:83 29:8 30:75 31:4 32:120 33:4 34:165 35:3 36:165 37:3 38:0 39:0 40:0 41:0 42:75 43:3 44:75 45:4 46:75 47:4 48:140 49:5 50:173 51:7 52:173 53:7 54:165 55:3 56:0 57:0 58:75 59:3 60:75 61:3 62:75 63:4 64:140 65:5 66:173 67:6 68:173 69:7 70:165 71:4 72:0 73:0 74:75 75:3 76:75 77:4 78:75 79:4 80:140 81:5 82:173 83:7 84:173 85:7 86:165 87:4 88:0 89:0 90:75 91:4 92:75 93:4 94:75 95:4 96:140 97:5 98:156 99:8 100:156 101:8 102:165 103:3 104:0 105:0 106:75 107:4 108:75 109:4 110:75 111:4 112:140 113:5 114:140 115:5 116:140 117:5 118:0 119:0 120:0 121:0 122:75 123:4 124:75 125:4 126:75 127:4 128:-1 
4.656666558941672e-09 0:0 1:0 2:165 3:6 4:165 5:5 6:165 7:5 8:173 9:12 10:173 11:12 12:170 13:29 14:170 15:25 16:173 17:9 18:173 19:10 20:170 21:13 22:170 23:12 24:170 25:13 26:170 27:19 28:169 29:24 30:169 31:26 32:169 33:19 34:170 35:24 36:170 37:29 38:170 39:26 40:169 41:28 42:170 43:26 44:170 45:21 46:169 47:21 48:170 49:24 50:170 51:32 52:169 53:30 54:169 55:27 56:171 57:31 58:169 59:30 60:170 61:21 62:169 63:19 64:170 65:18 66:169 67:21 68:170 69:21 70:170 71:21 72:170 73:27 74:170 75:22 76:170 77:21 78:169 79:20 80:170 81:16 82:170 83:16 84:169 85:20 86:169 87:22 88:170 89:23 90:169 91:20 92:169 93:19 94:169 95:20 96:170 97:16 98:170 99:16 100:170 101:17 102:170 103:18 104:169 105:22 106:169 107:21 108:169 109:22 110:170 111:22 112:170 113:17 114:170 115:17 116:170 117:17 118:170 119:17 120:169 121:21 122:170 123:18 124:170 125:22 126:170 127:23 128:-1 
3.329298041638561e-08 0:169 1:15 2:169 3:14 4:169 5:18 6:169 7:22 8:169 9:23 10:170 11:16 12:170 13:13 14:170 15:12 16:169 17:14 18:169 19:15 20:169 21:19 22:169 23:25 24:169 25:24 26:169 27:20 28:170 29:14 30:170 31:13 32:164 33:18 34:164 35:20 36:164 37:26 38:170 39:27 40:169 41:22 42:169 43:21 44:169 45:21 46:169 47:20 48:164 49:19 50:164 51:23 52:164 53:27 54:170 55:24 56:170 57:23 58:169 59:21 60:169 61:23 62:169 63:25 64:164 65:22 66:164 67:24 68:164 69:25 70:170 71:21 72:170 73:21 74:170 75:24 76:170 77:28 78:170 79:28 80:164 81:23 82:164 83:26 84:164 85:25 86:170 87:20 88:170 89:22 90:170 91:24 92:170 93:25 94:170 95:24 96:169 97:21 98:169 99:25 100:169 101:23 102:169 103:18 104:169 105:19 106:169 107:23 108:169 109:22 110:169 111:19 112:169 113:20 114:169 115:21 116:169 117:20 118:169 119:17 120:169 121:17 122:169 123:22 124:169 125:22 126:169 127:22 128:-1 
3.612106011597578e-10 0:30 1:4 2:50 3:5 4:83 5:7 6:80 7:11 8:73 9:17 10:74 11:24 12:74 13:22 14:74 15:17 16:165 17:5 18:0 19:0 20:0 21:0 22:75 23:4 24:80 25:12 26:80 27:20 28:73 29:16 30:73 31:13 32:165 33:5 34:165 35:5 36:0 37:0 38:0 39:0 40:83 41:8 42:80 43:12 44:70 45:10 46:73 47:13 48:165 49:5 50:165 51:5 52:165 53:4 54:0 55:0 56:75 57:4 58:83 59:9 60:80 61:10 62:80 63:9 64:173 65:9 66:165 67:5 68:173 69:9 70:165 71:4 72:0 73:0 74:75 75:4 76:83 77:8 78:80 79:9 80:160 81:12 82:156 83:12 84:170 85:13 86:173 87:9 88:0 89:0 90:75 91:4 92:83 93:8 94:83 95:7 96:160 97:12 98:160 99:13 100:170 101:19 102:170 103:13 104:165 105:4 106:0 107:0 108:75 109:4 110:83 111:8 112:163 113:17 114:163 115:16 116:164 117:20 118:163 119:17 120:156 121:10 122:140 123:7 124:75 125:5 126:75 127:4 128:-1 
1.863595421099932e-08 0:170 1:12 2:170 3:11 4:170 5:11 6:170 7:11 8:170 9:17 10:170 11:15 12:170 13:14 14:170 15:14 16:170 17:16 18:170 19:16 20:170 21:11 22:170 23:17 24:170 25:17 26:170 27:17 28:170 29:16 30:170 31:16 32:170 33:15 34:170 35:15 36:170 37:15 38:170 39:15 40:170 41:15 42:169 43:20 44:169 45:21 46:169 47:22 48:170 49:15 50:170 51:15 52:170 53:14 54:170 55:14 56:170 57:14 58:169 59:18 60:169 61:20 62:169 63:22 64:170 65:10 66:170 67:10 68:170 69:10 70:170 71:10 72:170 73:10 74:170 75:15 76:170 77:16 78:170 79:16 80:170 81:10 82:170 83:10 84:170 85:10 86:170 87:10 88:170 89:10 90:170 91:14 92:170 93:14 94:170 95:15 96:170 97:10 98:160 99:11 100:160 101:11 102:163 103:18 104:163 105:15 106:163 107:14 108:163 109:14 110:170 111:14 112:170 113:11 114:160 115:11 116:160 117:12 118:163 119:19 120:163 121:16 122:163 123:14 124:163 125:15 126:170 127:16 128:-1 
2.275697225868819e-10 0:174 1:22 2:0 3:21 4:0 5:23 6:0 7:25 8:0 9:25 10:0 11:25 12:0 13:23 14:175 15:19 16:0 17:21 18:0 19:22 20:0 21:23 22:0 23:25 24:0 25:27 26:0 27:26 28:0 29:22 30:177 31:17 32:178 33:24 34:178 35:27 36:0 37:31 38:0 39:35 40:2 41:33 42:2 43:36 44:0 45:28 46:177 47:19 48:0 49:29 50:0 51:34 52:0 53:36 54:0 55:37 56:0 57:35 58:2 59:36 60:5 61:31 62:177 63:18 64:179 65:39 66:177 67:43 68:1 69:41 70:1 71:35 72:3 73:35 74:2 75:32 76:5 77:27 78:177 79:15 80:2 81:44 82:1 83:45 84:1 85:41 86:2 87:39 88:1 89:32 90:2 91:25 92:5 93:22 94:177 95:15 96:3 97:51 98:3 99:52 100:3 101:47 102:4 103:42 104:4 105:32 106:5 107:26 108:5 109:20 110:177 111:15 112:3 113:49 114:4 115:54 116:4 117:47 118:4 119:41 120:4 121:37 122:3 123:28 124:0 125:17 126:177 127:15 128:-1 
3.186055324757184e-08 0:52 1:22 2:52 3:24 4:52 5:24 6:52 7:23 8:56 9:17 10:56 11:19 12:51 13:13 14:51 15:11 16:48 17:25 18:52 19:27 20:52 21:24 22:52 23:24 24:56 25:18 26:56 27:18 28:51 29:15 30:51 31:11 32:43 33:22 34:51 35:21 36:51 37:20 38:51 39:17 40:55 41:14 42:55 43:15 44:55 45:15 46:55 47:10 48:35 49:17 50:43 51:20 52:51 53:20 54:51 55:18 56:55 57:15 58:55 59:17 60:55 61:17 62:55 63:12 64:36 65:11 66:42 67:12 68:55 69:14 70:55 71:16 72:55 73:16 74:55 75:17 76:70 77:17 78:70 79:14 80:36 81:10 82:42 83:9 84:55 85:12 86:55 87:13 88:55 89:15 90:60 91:19 92:70 93:15 94:73 95:19 96:36 97:9 98:42 99:9 100:55 101:10 102:55 103:11 104:70 105:12 106:70 107:13 108:70 109:14 110:73 111:18 112:36 113:10 114:42 115:9 116:42 117:9 118:55 119:10 120:66 121:9 122:70 123:11 124:70 125:12 126:73 127:17 128:-1 
8.214237065341442e-08 0:51 1:18 2:51 3:17 4:51 5:16 6:43 7:16 8:48 9:22 10:48 11:22 12:48 13:19 14:48 15:18 16:51 17:19 18:51 19:19 20:51 21:19 22:48 23:28 24:48 25:30 26:45 27:35 28:45 29:24 30:48 31:19 32:56 33:21 34:56 35:21 36:56 37:19 38:52 39:25 40:52 41:27 42:45 43:31 44:45 45:29 46:38 47:24 48:56 49:21 50:56 51:18 52:56 53:17 54:56 55:15 56:52 57:22 58:48 59:23 60:45 61:29 62:38 63:31 64:56 65:20 66:60 67:14 68:56 69:14 70:51 71:12 72:48 73:17 74:48 75:20 76:48 77:22 78:48 79:25 80:56 81:18 82:60 83:14 84:60 85:12 86:56 87:13 88:56 89:13 90:51 91:13 92:51 93:15 94:51 95:16 96:57 97:24 98:63 99:21 100:63 101:18 102:66 103:16 104:66 105:16 106:60 107:13 108:60 109:15 110:60 111:16 112:57 113:25 114:57 115:24 116:63 117:19 118:66 119:16 120:66 121:15 122:66 123:17 124:66 125:21 126:66 127:22 128:-1 
2.367262160703317e-07 0:48 1:23 2:48 3:19 4:48 5:19 6:51 7:15 8:51 9:15 10:42 11:10 12:42 13:10 14:42 15:10 16:48 17:21 18:48 19:19 20:48 21:21 22:51 23:16 24:51 25:17 26:42 27:11 28:42 29:10 30:42 31:9 32:48 33:17 34:51 35:12 36:51 37:16 38:55 39:14 40:55 41:15 42:42 43:11 44:42 45:10 46:42 47:10 48:48 49:17 50:51 51:11 52:51 53:13 54:55 55:14 56:55 57:14 58:42 59:10 60:42 61:9 62:42 63:9 64:43 65:11 66:43 67:11 68:43 69:12 70:42 71:9 72:42 73:11 74:42 75:9 76:42 77:9 78:42 79:9 80:43 81:11 82:43 83:11 84:43 85:11 86:42 87:9 88:42 89:9 90:42 91:9 92:42 93:9 94:42 95:9 96:43 97:11 98:43 99:11 100:43 101:11 102:43 103:12 104:43 105:12 106:36 107:8 108:36 109:8 110:36 111:8 112:43 113:11 114:43 115:11 116:43 117:12 118:43 119:11 120:43 121:11 122:36 123:8 124:36 125:8 126:36 127:7 128:-1 
3.50498153252277e-08 0:75 1:4 2:83 3:7 4:83 5:6 6:80 7:9 8:80 9:9 10:80 11:15 12:80 13:16 14:70 15:11 16:75 17:4 18:83 19:7 20:83 21:6 22:80 23:9 24:80 25:9 26:80 27:15 28:80 29:16 30:80 31:10 32:75 33:4 34:83 35:7 36:83 37:6 38:80 39:9 40:80 41:10 42:80 43:15 44:80 45:16 46:80 47:11 48:110 49:5 50:96 51:8 52:96 53:8 54:80 55:9 56:80 57:10 58:80 59:10 60:80 61:11 62:83 63:7 64:110 65:5 66:96 67:8 68:96 69:8 70:80 71:10 72:80 73:10 74:80 75:10 76:80 77:10 78:83 79:7 80:114 81:8 82:96 83:9 84:96 85:9 86:80 87:10 88:80 89:10 90:80 91:10 92:80 93:10 94:83 95:7 96:126 97:8 98:110 99:5 100:96 101:9 102:83 103:8 104:80 105:12 106:80 107:10 108:80 109:10 110:83 111:7 112:126 113:8 114:110 115:5 116:96 117:9 118:83 119:8 120:83 121:8 122:80 123:10 124:80 125:10 126:83 127:7 128:-1 
4.194593150686191e-09 0:43 1:15 2:43 3:15 4:43 5:14 6:43 7:14 8:43 9:14 10:43 11:14 12:42 13:9 14:42 15:8 16:35 17:12 18:35 19:12 20:42 21:10 22:42 23:10 24:42 25:9 26:42 27:9 28:42 29:9 30:42 31:9 32:35 33:12 34:35 35:12 36:36 37:10 38:42 39:9 40:42 41:8 42:42 43:8 44:42 45:9 46:42 47:9 48:25 49:12 50:35 51:12 52:36 53:9 54:30 55:3 56:30 57:3 58:30 59:3 60:36 61:8 62:36 63:8 64:25 65:12 66:24 67:10 68:30 69:4 70:30 71:3 72:30 73:3 74:30 75:3 76:30 77:3 78:36 79:8 80:36 81:10 82:36 83:9 84:20 85:6 86:20 87:6 88:165 89:3 90:20 91:5 92:20 93:4 94:24 95:8 96:36 97:9 98:36 99:10 100:30 101:4 102:20 103:6 104:165 105:3 106:165 107:3 108:20 109:5 110:20 111:5 112:50 113:5 114:50 115:6 116:75 117:4 118:0 119:0 120:0 121:0 122:0 123:0 124:30 125:3 126:30 127:4 128:-1 
1.422783057862619e-08 0:75 1:3 2:75 3:4 4:75 5:5 6:110 7:8 8:110 9:8 10:96 11:14 12:96 13:12 14:83 15:8 16:75 17:3 18:75 19:3 20:75 21:4 22:110 23:6 24:110 25:7 26:96 27:15 28:96 29:15 30:83 31:9 32:75 33:3 34:75 35:3 36:75 37:3 38:83 39:7 40:83 41:8 42:83 43:10 44:83 45:10 46:80 47:15 48:75 49:3 50:75 51:3 52:75 53:3 54:83 55:7 56:83 57:7 58:83 59:7 60:83 61:9 62:80 63:11 64:83 65:7 66:83 67:7 68:83 69:7 70:83 71:7 72:83 73:7 74:80 75:10 76:80 77:10 78:80 79:10 80:83 81:8 82:83 83:7 84:83 85:7 86:83 87:7 88:83 89:6 90:80 91:10 92:80 93:9 94:80 95:9 96:75 97:3 98:83 99:7 100:83 101:6 102:83 103:6 104:83 105:6 106:83 107:6 108:83 109:6 110:80 111:9 112:75 113:3 114:83 115:6 116:83 117:6 118:83 119:6 120:83 121:7 122:83 123:7 124:83 125:6 126:83 127:6 128:-1 
2.557687640636621e-08 0:76 1:35 2:74 3:30 4:74 5:27 6:79 7:22 8:79 9:23 10:74 11:23 12:74 13:22 14:73 15:20 16:74 17:28 18:74 19:28 20:74 21:26 22:79 23:23 24:79 25:23 26:74 27:27 28:74 29:27 30:74 31:22 32:79 33:24 34:79 35:22 36:79 37:21 38:80 39:22 40:80 41:24 42:80 43:29 44:80 45:30 46:80 47:24 48:80 49:18 50:80 51:18 52:79 53:21 54:79 55:21 56:80 57:22 58:80 59:27 60:80 61:28 62:80 63:26 64:70 65:11 66:70 67:13 68:73 69:19 70:73 71:18 72:74 73:21 74:74 75:21 76:74 77:25 78:74 79:23 80:70 81:12 82:70 83:15 84:70 85:16 86:70 87:15 88:70 89:14 90:73 91:20 92:73 93:21 94:70 95:14 96:66 97:12 98:66 99:17 100:66 101:18 102:66 103:19 104:66 105:17 106:66 107:17 108:66 109:15 110:50 111:8 112:66 113:12 114:50 115:9 116:50 117:11 118:50 119:12 120:50 121:12 122:30 123:8 124:30 125:7 126:30 127:6 128:-1 
8.85222248356326e-07 0:35 1:18 2:35 3:20 4:42 5:15 6:42 7:12 8:42 9:9 10:42 11:8 12:42 13:8 14:55 15:9 16:35 17:17 18:35 19:17 20:35 21:14 22:35 23:10 24:35 25:9 26:35 27:9 28:35 29:8 30:43 31:9 32:35 33:15 34:35 35:12 36:35 37:10 38:35 39:8 40:35 41:8 42:35 43:8 44:35 45:8 46:35 47:8 48:34 49:14 50:34 51:11 52:34 53:10 54:34 55:10 56:34 57:10 58:34 59:10 60:30 61:10 62:30 63:11 64:34 65:12 66:35 67:14 68:35 69:14 70:35 71:14 72:35 73:14 74:34 75:10 76:30 77:10 78:30 79:11 80:35 81:14 82:35 83:16 84:35 85:16 86:35 87:17 88:35 89:17 90:35 91:14 92:35 93:14 94:34 95:11 96:35 97:16 98:35 99:17 100:35 101:17 102:35 103:17 104:35 105:17 106:35 107:17 108:35 109:14 110:34 111:10 112:38 113:14 114:38 115:14 116:38 117:15 118:38 119:15 120:35 121:14 122:35 123:14 124:34 125:10 126:34 127:11 128:-1 
1.124087692892912e-08 0:110 1:8 2:110 3:6 4:75 5:3 6:75 7:3 8:75 9:3 10:75 11:3 12:30 13:3 14:30 15:5 16:0 17:0 18:0 19:0 20:75 21:5 22:75 23:3 24:50 25:4 26:50 27:4 28:30 29:3 30:30 31:4 32:0 33:0 34:0 35:0 36:75 37:5 38:75 39:5 40:50 41:5 42:50 43:5 44:30 45:3 46:30 47:3 48:30 49:3 50:30 51:4 52:50 53:10 54:50 55:8 56:50 57:7 58:50 59:5 60:30 61:3 62:30 63:3 64:30 65:3 66:30 67:3 68:50 69:6 70:50 71:7 72:50 73:6 74:50 75:5 76:30 77:3 78:30 79:3 80:30 81:4 82:30 83:4 84:50 85:6 86:50 87:5 88:50 89:5 90:50 91:5 92:30 93:3 94:30 95:3 96:30 97:4 98:30 99:4 100:50 101:5 102:50 103:5 104:50 105:5 106:50 107:5 108:30 109:3 110:30 111:3 112:0 113:0 114:0 115:0 116:30 117:3 118:30 119:3 120:50 121:5 122:50 123:5 124:50 125:5 126:50 127:5 128:-1 
1.119781425993886e-12 0:83 1:11 2:83 3:8 4:80 5:11 6:80 7:11 8:80 9:10 10:80 11:9 12:83 13:6 14:83 15:6 16:83 17:11 18:83 19:8 20:80 21:11 22:80 23:10 24:83 25:6 26:83 27:6 28:75 29:3 30:75 31:3 32:83 33:11 34:83 35:9 36:80 37:10 38:80 39:10 40:83 41:6 42:83 43:6 44:75 45:3 46:75 47:3 48:83 49:12 50:83 51:9 52:66 53:9 54:66 55:8 56:83 57:6 58:83 59:7 60:75 61:4 62:0 63:0 64:75 65:5 66:83 67:9 68:50 69:6 70:50 71:5 72:75 73:3 74:75 75:3 76:0 77:0 78:0 79:0 80:0 81:0 82:75 83:4 84:0 85:0 86:0 87:0 88:0 89:0 90:0 91:0 92:165 93:3 94:165 95:3 96:0 97:0 98:0 99:0 100:0 101:0 102:0 103:0 104:165 105:3 106:165 107:3 108:165 109:3 110:165 111:3 112:30 113:3 114:30 115:3 116:30 117:3 118:30 119:3 120:30 121:3 122:30 123:3 124:165 125:3 126:165 127:3 128:-1 
2.889406663926618e-09 0:90 1:1 2:75 3:2 4:83 5:5 6:83 7:6 8:83 9:7 10:83 11:8 12:83 13:8 14:83 15:8 16:75 17:2 18:75 19:2 20:83 21:4 22:83 23:6 24:83 25:7 26:83 27:8 28:83 29:8 30:83 31:8 32:75 33:2 34:75 35:2 36:75 37:2 38:75 39:2 40:83 41:6 42:83 43:8 44:83 45:8 46:83 47:8 48:75 49:2 50:75 51:2 52:75 53:2 54:75 55:2 56:83 57:5 58:83 59:7 60:83 61:8 62:83 63:8 64:75 65:2 66:75 67:2 68:75 69:2 70:75 71:2 72:75 73:2 74:75 75:3 76:75 77:4 78:75 79:4 80:75 81:3 82:75 83:2 84:75 85:2 86:75 87:2 88:75 89:2 90:75 91:3 92:75 93:4 94:75 95:4 96:75 97:3 98:75 99:2 100:75 101:2 102:75 103:2 104:75 105:2 106:75 107:2 108:75 109:3 110:75 111:4 112:75 113:4 114:75 115:3 116:75 117:2 118:75 119:2 120:75 121:2 122:75 123:2 124:75 125:3 126:75 127:4 128:-1 
8.785670437670944e-09 0:50 1:5 2:42 3:9 4:42 5:9 6:42 7:10 8:55 9:11 10:55 11:11 12:55 13:11 14:55 15:11 16:50 17:5 18:42 19:10 20:55 21:13 22:55 23:11 24:60 25:12 26:55 27:10 28:55 29:10 30:55 31:10 32:42 33:8 34:55 35:12 36:60 37:15 38:60 39:13 40:66 41:17 42:60 43:12 44:60 45:11 46:60 47:12 48:55 49:9 50:60 51:13 52:66 53:21 54:66 55:18 56:68 57:19 58:68 59:18 60:66 61:16 62:66 63:17 64:55 65:10 66:60 67:14 68:66 69:18 70:69 71:22 72:69 73:22 74:69 75:21 76:69 77:21 78:68 79:18 80:60 81:12 82:66 83:20 84:68 85:20 86:69 87:23 88:71 89:27 90:71 91:27 92:71 93:26 94:69 95:22 96:60 97:13 98:66 99:21 100:68 101:21 102:69 103:24 104:71 105:28 106:72 107:29 108:71 109:28 110:69 111:23 112:60 113:12 114:66 115:20 116:68 117:22 118:69 119:24 120:71 121:28 122:71 123:28 124:71 125:28 126:69 127:23 128:-1 
1.306797926703296e-08 0:50 1:6 2:30 3:4 4:20 5:6 6:30 7:4 8:30 9:5 10:30 11:7 12:30 13:6 14:30 15:6 16:50 17:6 18:20 19:5 20:20 21:6 22:30 23:4 24:30 25:4 26:30 27:5 28:30 29:5 30:30 31:5 32:50 33:6 34:20 35:5 36:20 37:5 38:30 39:4 40:50 41:7 42:50 43:6 44:50 45:7 46:30 47:6 48:50 49:6 50:30 51:4 52:30 53:3 54:50 55:6 56:50 57:7 58:50 59:6 60:50 61:6 62:30 63:5 64:42 65:10 66:36 67:9 68:36 69:8 70:50 71:6 72:50 73:8 74:50 75:6 76:50 77:6 78:36 79:11 80:42 81:9 82:42 83:9 84:36 85:8 86:42 87:10 88:50 89:7 90:50 91:6 92:42 93:10 94:36 95:11 96:56 97:15 98:43 99:13 100:43 101:12 102:42 103:10 104:42 105:11 106:42 107:9 108:43 109:14 110:34 111:17 112:56 113:15 114:48 115:18 116:40 117:16 118:42 119:10 120:42 121:12 122:43 123:15 124:35 125:13 126:34 127:21 128:-1 
1.053756279402797e-08 0:75 1:5 2:75 3:5 4:83 5:9 6:83 7:9 8:75 9:5 10:75 11:5 12:0 13:0 14:0 15:0 16:75 17:6 18:83 19:11 20:83 21:10 22:83 23:10 24:75 25:5 26:75 27:5 28:75 29:5 30:75 31:5 32:83 33:10 34:83 35:11 36:83 37:9 38:83 39:8 40:75 41:4 42:75 43:4 44:75 45:4 46:50 47:7 48:83 49:8 50:80 51:14 52:83 53:8 54:83 55:8 56:75 57:4 58:75 59:4 60:50 61:6 62:50 63:6 64:80 65:15 66:80 67:18 68:80 69:12 70:80 71:12 72:83 73:8 74:83 75:8 76:66 77:10 78:66 79:9 80:74 81:20 82:74 83:20 84:79 85:19 86:79 87:21 88:73 89:17 90:73 91:17 92:70 93:11 94:66 95:9 96:74 97:18 98:76 99:22 100:74 101:20 102:74 103:22 104:74 105:20 106:73 107:16 108:70 109:10 110:70 111:10 112:69 113:19 114:69 115:19 116:69 117:18 118:69 119:19 120:68 121:17 122:66 123:16 124:60 125:11 126:60 127:12 128:-1 
2.726242300670783e-08 0:80 1:12 2:80 3:18 4:83 5:18 6:83 7:20 8:83 9:18 10:80 11:29 12:80 13:30 14:80 15:20 16:80 17:12 18:80 19:16 20:80 21:26 22:80 23:31 24:83 25:20 26:80 27:29 28:80 29:19 30:80 31:18 32:80 33:13 34:80 35:17 36:70 37:26 38:73 39:43 40:80 41:27 42:80 43:31 44:80 45:23 46:80 47:24 48:80 49:14 50:80 51:18 52:73 53:34 54:73 55:37 56:80 57:28 58:80 59:24 60:80 61:23 62:80 63:24 64:80 65:17 66:80 67:17 68:73 69:27 70:73 71:29 72:73 73:25 74:73 75:24 76:80 77:24 78:80 79:25 80:80 81:17 82:70 83:16 84:73 85:25 86:73 87:26 88:73 89:24 90:73 91:23 92:80 93:24 94:80 95:26 96:70 97:16 98:70 99:15 100:73 101:23 102:66 103:24 104:66 105:22 106:66 107:24 108:73 109:23 110:73 111:23 112:70 113:14 114:70 115:16 116:66 117:23 118:66 119:23 120:66 121:22 122:66 123:22 124:73 125:21 126:73 127:19 128:-1 
7.320263001904194e-07 0:43 1:12 2:34 3:14 4:34 5:13 6:34 7:14 8:34 9:14 10:25 11:10 12:19 13:14 14:13 15:13 16:35 17:10 18:35 19:11 20:34 21:14 22:34 23:14 24:34 25:14 26:25 27:10 28:25 29:11 30:24 31:9 32:25 33:11 34:25 35:11 36:25 37:10 38:25 39:10 40:25 41:10 42:35 43:10 44:35 45:10 46:36 47:8 48:24 49:10 50:24 51:10 52:25 53:11 54:25 55:10 56:25 57:10 58:35 59:10 60:35 61:10 62:36 63:8 64:24 65:10 66:24 67:10 68:24 69:9 70:36 71:9 72:36 73:9 74:36 75:8 76:36 77:8 78:42 79:9 80:20 81:6 82:24 83:10 84:24 85:10 86:36 87:9 88:36 89:9 90:36 91:8 92:36 93:8 94:42 95:9 96:30 97:4 98:30 99:4 100:30 101:4 102:30 103:5 104:30 105:4 106:36 107:8 108:36 109:8 110:35 111:10 112:30 113:4 114:30 115:4 116:30 117:4 118:30 119:4 120:30 121:4 122:36 123:8 124:36 125:7 126:35 127:10 128:-1 
5.506403464451355e-08 0:73 1:22 2:70 3:14 4:60 5:14 6:60 7:15 8:66 9:25 10:66 11:22 12:66 13:18 14:66 15:21 16:73 17:23 18:66 19:20 20:66 21:17 22:66 23:18 24:68 25:24 26:68 27:23 28:68 29:23 30:66 31:21 32:66 33:21 34:66 35:19 36:66 37:18 38:63 39:19 40:63 41:20 42:63 43:23 44:66 45:23 46:60 47:16 48:66 49:18 50:66 51:18 52:63 53:19 54:63 55:19 56:63 57:20 58:56 59:16 60:60 61:16 62:60 63:19 64:60 65:12 66:60 67:13 68:56 69:15 70:56 71:15 72:52 73:21 74:51 75:14 76:55 77:12 78:55 79:14 80:70 81:10 82:60 83:12 84:60 85:13 86:56 87:15 88:51 89:13 90:51 91:13 92:55 93:11 94:55 95:11 96:70 97:11 98:60 99:12 100:60 101:12 102:56 103:13 104:51 105:12 106:51 107:12 108:42 109:8 110:42 111:9 112:70 113:11 114:70 115:10 116:70 117:10 118:60 119:11 120:55 121:10 122:55 123:11 124:42 125:10 126:42 127:10 128:-1 
2.121415915964318e-10 0:0 1:0 2:0 3:0 4:0 5:0 6:0 7:0 8:0 9:0 10:0 11:0 12:0 13:0 14:120 15:5 16:0 17:0 18:0 19:0 20:0 21:0 22:165 23:5 24:165 25:6 26:165 27:6 28:165 29:5 30:165 31:5 32:0 33:0 34:0 35:0 36:0 37:0 38:165 39:4 40:165 41:6 42:165 43:6 44:165 45:5 46:165 47:5 48:165 49:4 50:140 51:5 52:140 53:5 54:156 55:8 56:156 57:10 58:156 59:13 60:156 61:13 62:156 63:12 64:165 65:4 66:140 67:6 68:140 69:5 70:156 71:8 72:156 73:8 74:156 75:10 76:156 77:13 78:156 79:12 80:120 81:4 82:120 83:4 84:120 85:4 86:132 87:9 88:132 89:9 90:132 91:8 92:132 93:10 94:140 95:7 96:120 97:4 98:120 99:4 100:120 101:5 102:126 103:12 104:132 105:12 106:132 107:10 108:132 109:9 110:140 111:6 112:75 113:4 114:110 115:8 116:110 117:9 118:110 119:9 120:120 121:7 122:120 123:6 124:120 125:4 126:120 127:4 128:-1 
1.482154815173488e-09 0:165 1:4 2:165 3:4 4:0 5:0 6:0 7:0 8:75 9:3 10:75 11:3 12:83 13:8 14:80 15:12 16:165 17:3 18:165 19:4 20:0 21:0 22:0 23:0 24:75 25:4 26:83 27:7 28:80 29:11 30:80 31:15 32:0 33:0 34:0 35:0 36:120 37:5 38:120 39:4 40:110 41:6 42:96 43:9 44:90 45:9 46:87 47:13 48:0 49:0 50:0 51:0 52:120 53:4 54:110 55:7 56:96 57:11 58:90 59:10 60:90 61:8 62:87 63:13 64:0 65:0 66:0 67:0 68:110 69:6 70:110 71:7 72:96 73:12 74:90 75:11 76:90 77:9 78:87 79:15 80:0 81:0 82:0 83:0 84:110 85:6 86:110 87:7 88:96 89:10 90:90 91:10 92:87 93:14 94:87 95:16 96:165 97:3 98:0 99:0 100:75 101:5 102:75 103:4 104:83 105:7 106:80 107:10 108:80 109:15 110:80 111:16 112:165 113:3 114:0 115:0 116:75 117:4 118:83 119:9 120:80 121:11 122:80 123:10 124:80 125:15 126:80 127:16 128:-1 
2.702873066712142e-08 0:20 1:7 2:20 3:6 4:20 5:5 6:30 7:3 8:30 9:3 10:50 11:5 12:50 13:5 14:75 15:4 16:6 17:10 18:6 19:9 20:20 21:6 22:20 23:5 24:30 25:4 26:30 27:4 28:50 29:6 30:50 31:6 32:6 33:9 34:6 35:9 36:20 37:6 38:20 39:6 40:30 41:4 42:30 43:4 44:30 45:4 46:30 47:4 48:6 49:9 50:6 51:9 52:20 53:5 54:20 55:6 56:30 57:4 58:30 59:4 60:30 61:5 62:30 63:5 64:6 65:8 66:6 67:8 68:20 69:5 70:20 71:5 72:30 73:4 74:30 75:5 76:30 77:5 78:30 79:5 80:6 81:9 82:20 83:5 84:20 85:5 86:20 87:5 88:30 89:3 90:30 91:4 92:30 93:4 94:30 95:4 96:20 97:6 98:20 99:6 100:165 101:4 102:0 103:0 104:0 105:0 106:0 107:0 108:30 109:3 110:30 111:3 112:20 113:6 114:20 115:6 116:0 117:0 118:0 119:0 120:0 121:0 122:0 123:0 124:30 125:3 126:30 127:3 128:-1 
-3.691650840705639e-09 0:123 1:10 2:122 3:15 4:122 5:16 6:131 7:8 8:129 9:10 10:129 11:13 12:126 13:19 14:127 15:29 16:122 17:14 18:122 19:15 20:135 21:2 22:143 23:4 24:150 25:3 26:150 27:3 28:127 29:17 30:125 31:25 32:116 33:16 34:122 35:15 36:130 37:3 38:135 39:2 40:135 41:2 42:150 43:3 44:129 45:14 46:125 47:28 48:116 49:20 50:122 51:17 52:135 53:2 54:135 55:2 56:135 57:2 58:124 59:15 60:123 61:28 62:123 63:34 64:119 65:26 66:122 67:21 68:135 69:2 70:135 71:2 72:124 73:16 74:123 75:28 76:119 77:32 78:120 79:34 80:119 81:28 82:123 83:24 84:123 85:22 86:123 87:22 88:123 89:24 90:119 91:26 92:119 93:28 94:120 95:32 96:123 97:26 98:123 99:23 100:128 101:4 102:122 103:18 104:123 105:10 106:118 107:18 108:119 109:20 110:118 111:25 112:122 113:20 114:128 115:4 116:135 117:2 118:135 119:2 120:130 121:3 122:135 123:2 124:110 125:3 126:120 127:6 128:-1 
-5.143346508192249e-08 0:125 1:36 2:125 3:37 4:123 5:42 6:120 7:38 8:119 9:37 10:119 11:33 12:116 13:34 14:116 15:33 16:125 17:36 18:123 19:35 20:120 21:36 22:120 23:33 24:119 25:35 26:119 27:32 28:116 29:33 30:116 31:33 32:123 33:37 34:123 35:36 36:120 37:33 38:120 39:30 40:119 41:31 42:119 43:32 44:119 45:31 46:119 47:32 48:123 49:37 50:123 51:36 52:120 53:32 54:120 55:29 56:121 57:31 58:119 59:32 60:119 61:33 62:119 63:33 64:123 65:37 66:123 67:34 68:123 69:32 70:120 71:30 72:121 73:32 74:121 75:34 76:119 77:37 78:119 79:35 80:123 81:30 82:123 83:34 84:123 85:34 86:123 87:32 88:121 89:33 90:121 91:34 92:119 93:35 94:119 95:34 96:124 97:32 98:124 99:35 100:123 101:36 102:123 103:33 104:121 105:34 106:121 107:34 108:120 109:35 110:119 111:35 112:124 113:33 114:124 115:35 116:123 117:39 118:123 119:36 120:121 121:35 122:121 123:34 124:120 125:36 126:119 127:36 128:-1 
-4.818866467185978e-08 0:116 1:17 2:116 3:17 4:116 5:19 6:116 7:20 8:116 9:18 10:116 11:14 12:122 13:17 14:122 15:16 16:116 17:16 18:116 19:16 20:116 21:18 22:116 23:20 24:122 25:16 26:120 27:12 28:120 29:13 30:120 31:16 32:120 33:11 34:113 35:13 36:120 37:14 38:120 39:16 40:125 41:13 42:125 43:12 44:125 45:14 46:120 47:16 48:125 49:7 50:120 51:9 52:124 53:10 54:124 55:10 56:130 57:10 58:138 59:12 60:130 61:15 62:124 63:16 64:126 65:6 66:125 67:7 68:125 69:8 70:133 71:11 72:141 73:11 74:141 75:11 76:133 77:12 78:133 79:13 80:126 81:6 82:126 83:7 84:125 85:10 86:125 87:11 88:133 89:12 90:133 91:10 92:133 93:9 94:125 95:9 96:126 97:7 98:126 99:8 100:125 101:11 102:125 103:12 104:133 105:12 106:125 107:8 108:125 109:7 110:125 111:8 112:126 113:8 114:126 115:8 116:126 117:11 118:125 119:12 120:125 121:10 122:124 123:11 124:120 125:10 126:120 127:11 128:-1 
-6.951826815477842e-09 0:116 1:22 2:115 3:20 4:116 5:17 6:116 7:17 8:120 9:14 10:120 11:14 12:115 13:10 14:115 15:10 16:116 17:19 18:113 19:17 20:116 21:16 22:116 23:19 24:120 25:19 26:120 27:19 28:120 29:15 30:115 31:11 32:116 33:19 34:116 35:17 36:120 37:15 38:120 39:17 40:120 41:22 42:120 43:22 44:125 45:22 46:124 47:15 48:120 49:17 50:113 51:16 52:120 53:17 54:120 55:17 56:120 57:20 58:120 59:22 60:125 61:20 62:124 63:14 64:120 65:21 66:120 67:19 68:125 69:18 70:125 71:17 72:125 73:17 74:125 75:18 76:125 77:18 78:124 79:14 80:120 81:17 82:120 83:16 84:125 85:18 86:125 87:18 88:125 89:17 90:124 91:12 92:124 93:13 94:125 95:10 96:120 97:14 98:120 99:15 100:120 101:12 102:120 103:12 104:124 105:12 106:124 107:12 108:124 109:13 110:125 111:10 112:125 113:17 114:120 115:12 116:120 117:12 118:120 119:12 120:124 121:12 122:125 123:9 124:125 125:10 126:115 127:10 128:-1 
-1.903893047986285e-09 0:126 1:7 2:125 3:8 4:126 5:5 6:150 7:1 8:150 9:1 10:120 11:1 12:135 13:2 14:122 15:19 16:115 17:8 18:114 19:7 20:114 21:6 22:126 23:5 24:150 25:1 26:150 27:2 28:150 29:2 30:125 31:17 32:114 33:7 34:114 35:7 36:114 37:7 38:125 39:7 40:126 41:5 42:150 43:2 44:150 45:2 46:143 47:4 48:120 49:3 50:110 51:4 52:110 53:4 54:126 55:7 56:130 57:10 58:140 59:3 60:150 61:2 62:128 63:4 64:0 65:0 66:75 67:3 68:0 69:0 70:132 71:7 72:133 73:10 74:125 75:13 76:125 77:14 78:122 79:19 80:30 81:3 82:30 83:3 84:0 85:0 86:132 87:7 88:133 89:11 90:125 91:15 92:125 93:16 94:122 95:17 96:30 97:3 98:30 99:3 100:0 101:0 102:140 103:4 104:132 105:9 106:124 107:12 108:125 109:15 110:120 111:16 112:30 113:3 114:0 115:0 116:0 117:0 118:140 119:4 120:132 121:8 122:124 123:14 124:125 125:17 126:120 127:17 128:-1 
-1.178854425119904e-10 0:125 1:23 2:127 3:26 4:127 5:30 6:126 7:34 8:127 9:35 10:130 11:35 12:131 13:32 14:132 15:25 16:127 17:26 18:127 19:27 20:127 21:35 22:127 23:37 24:127 25:37 26:130 27:33 28:132 29:28 30:133 31:23 32:128 33:24 34:127 35:31 36:127 37:34 38:127 39:36 40:127 41:33 42:131 43:31 44:132 45:28 46:133 47:21 48:125 49:23 50:127 51:31 52:127 53:32 54:127 55:31 56:128 57:29 58:132 59:27 60:133 61:25 62:133 63:22 64:124 65:19 66:127 67:21 68:128 69:24 70:127 71:21 72:127 73:22 74:132 75:27 76:133 77:26 78:133 79:26 80:125 81:11 82:150 83:2 84:150 85:2 86:150 87:2 88:130 89:6 90:127 91:19 92:127 93:24 94:127 95:26 96:130 97:3 98:150 99:1 100:150 101:1 102:150 103:2 104:135 105:4 106:150 107:3 108:129 109:13 110:127 111:18 112:150 113:1 114:150 115:1 116:130 117:3 118:150 119:1 120:150 121:1 122:150 123:2 124:150 125:2 126:127 127:18 128:-1 
-1.308714093262899e-08 0:125 1:23 2:127 3:26 4:127 5:30 6:126 7:34 8:127 9:35 10:130 11:35 12:131 13:32 14:132 15:25 16:127 17:26 18:127 19:27 20:127 21:35 22:127 23:37 24:127 25:37 26:130 27:33 28:132 29:28 30:133 31:23 32:128 33:24 34:127 35:31 36:127 37:34 38:127 39:36 40:127 41:33 42:131 43:31 44:132 45:28 46:133 47:21 48:125 49:23 50:127 51:31 52:127 53:32 54:127 55:31 56:128 57:29 58:132 59:27 60:133 61:25 62:133 63:22 64:124 65:19 66:127 67:21 68:128 69:24 70:127 71:21 72:127 73:22 74:132 75:27 76:133 77:26 78:133 79:26 80:125 81:11 82:150 83:2 84:150 85:2 86:150 87:2 88:130 89:6 90:127 91:19 92:127 93:24 94:127 95:26 96:130 97:3 98:150 99:1 100:150 101:1 102:150 103:2 104:135 105:4 106:150 107:3 108:129 109:13 110:127 111:18 112:150 113:1 114:150 115:1 116:130 117:3 118:150 119:1 120:150 121:1 122:150 123:2 124:150 125:2 126:127 127:18 128:-1 
-7.020712433683005e-10 0:125 1:19 2:125 3:21 4:124 5:15 6:125 7:11 8:126 9:10 10:126 11:9 12:126 13:10 14:125 15:11 16:125 17:22 18:125 19:25 20:124 21:19 22:125 23:15 24:126 25:13 26:120 27:5 28:120 29:5 30:126 31:11 32:125 33:25 34:125 35:25 36:124 37:18 38:126 39:11 40:120 41:4 42:0 43:0 44:0 45:0 46:120 47:5 48:125 49:15 50:125 51:15 52:126 53:11 54:120 55:3 56:0 57:0 58:0 59:0 60:0 61:0 62:120 63:4 64:125 65:15 66:126 67:12 68:126 69:10 70:120 71:3 72:0 73:0 74:0 75:0 76:0 77:0 78:120 79:4 80:125 81:14 82:126 83:12 84:126 85:9 86:120 87:3 88:120 89:3 90:0 91:0 92:0 93:0 94:120 95:3 96:126 97:12 98:126 99:9 100:120 101:3 102:120 103:3 104:0 105:0 106:0 107:0 108:0 109:0 110:0 111:0 112:120 113:5 114:0 115:0 116:30 117:3 118:30 119:3 120:30 121:3 122:30 123:3 124:30 125:3 126:30 127:3 128:-1 
-7.202626285365684e-10 0:129 1:42 2:129 3:40 4:130 5:36 6:131 7:34 8:131 9:36 10:130 11:35 12:129 13:35 14:129 15:30 16:129 17:45 18:129 19:34 20:130 21:32 22:130 23:36 24:129 25:39 26:129 27:37 28:129 29:37 30:128 31:22 32:129 33:41 34:130 35:29 36:141 37:16 38:130 39:35 40:129 41:38 42:129 43:38 44:127 45:32 46:132 47:18 48:129 49:35 50:141 51:14 52:129 53:33 54:129 55:37 56:129 57:39 58:129 59:36 60:129 61:24 62:129 63:23 64:147 65:10 66:138 67:17 68:129 69:34 70:129 71:39 72:129 73:36 74:129 75:35 76:126 77:33 78:128 79:22 80:141 81:13 82:129 83:35 84:129 85:41 86:129 87:39 88:126 89:35 90:126 91:34 92:127 93:34 94:126 95:30 96:130 97:28 98:129 99:39 100:129 101:44 102:129 103:38 104:126 105:35 106:127 107:34 108:127 109:33 110:127 111:29 112:129 113:34 114:129 115:38 116:129 117:45 118:129 119:38 120:127 121:35 122:126 123:31 124:127 125:28 126:127 127:25 128:-1 
-7.476642099416445e-10 0:150 1:1 2:150 3:1 4:150 5:3 6:150 7:3 8:150 9:1 10:150 11:1 12:105 13:2 14:90 15:1 16:150 17:1 18:150 19:1 20:150 21:1 22:150 23:1 24:150 25:1 26:150 27:1 28:90 29:1 30:90 31:1 32:0 33:0 34:0 35:0 36:0 37:0 38:120 39:1 40:0 41:0 42:150 43:1 44:150 45:1 46:150 47:1 48:120 49:2 50:120 51:2 52:0 53:0 54:0 55:0 56:0 57:0 58:130 59:3 60:150 61:1 62:135 63:2 64:120 65:2 66:120 67:2 68:0 69:0 70:0 71:0 72:0 73:0 74:150 75:1 76:135 77:2 78:150 79:2 80:120 81:2 82:120 83:2 84:0 85:0 86:0 87:0 88:135 89:2 90:130 91:3 92:150 93:1 94:150 95:2 96:120 97:1 98:0 99:0 100:120 101:1 102:0 103:0 104:150 105:1 106:150 107:1 108:150 109:1 110:140 111:3 112:150 113:1 114:120 115:1 116:0 117:0 118:120 119:1 120:150 121:1 122:150 123:1 124:124 125:8 126:130 127:6 128:-1 
-3.910009482393671e-10 0:150 1:1 2:130 3:3 4:0 5:0 6:150 7:1 8:150 9:1 10:138 11:5 12:131 13:8 14:129 15:13 16:150 17:1 18:0 19:0 20:120 21:1 22:150 23:1 24:150 25:1 26:150 27:2 28:143 29:4 30:128 31:11 32:120 33:1 34:0 35:0 36:0 37:0 38:128 39:4 40:135 41:2 42:150 43:1 44:138 45:5 46:130 47:10 48:120 49:2 50:120 51:2 52:120 53:2 54:135 55:2 56:150 57:1 58:150 59:1 60:150 61:1 62:143 63:4 64:126 65:5 66:126 67:5 68:130 69:3 70:150 71:1 72:135 73:2 74:0 75:0 76:150 77:1 78:150 79:1 80:126 81:5 82:135 83:2 84:150 85:1 86:150 87:1 88:150 89:1 90:0 91:0 92:0 93:0 94:150 95:1 96:150 97:1 98:150 99:1 100:150 101:1 102:120 103:1 104:120 105:1 106:0 107:0 108:0 109:0 110:150 111:1 112:150 113:1 114:150 115:1 116:150 117:1 118:0 119:0 120:0 121:0 122:120 123:1 124:0 125:0 126:150 127:1 128:-1 
-4.649323987293999e-10 0:150 1:1 2:130 3:3 4:0 5:0 6:150 7:1 8:150 9:1 10:138 11:5 12:131 13:8 14:129 15:13 16:150 17:1 18:0 19:0 20:120 21:1 22:150 23:1 24:150 25:1 26:150 27:2 28:143 29:4 30:128 31:11 32:120 33:1 34:0 35:0 36:0 37:0 38:128 39:4 40:135 41:2 42:150 43:1 44:138 45:5 46:130 47:10 48:120 49:2 50:120 51:2 52:120 53:2 54:135 55:2 56:150 57:1 58:150 59:1 60:150 61:1 62:143 63:4 64:126 65:5 66:126 67:5 68:130 69:3 70:150 71:1 72:135 73:2 74:0 75:0 76:150 77:1 78:150 79:1 80:126 81:5 82:135 83:2 84:150 85:1 86:150 87:1 88:150 89:1 90:0 91:0 92:0 93:0 94:150 95:1 96:150 97:1 98:150 99:1 100:150 101:1 102:120 103:1 104:120 105:1 106:0 107:0 108:0 109:0 110:150 111:1 112:150 113:1 114:150 115:1 116:150 117:1 118:0 119:0 120:0 121:0 122:120 123:1 124:0 125:0 126:150 127:1 128:-1 
-4.044562497627379e-09 0:125 1:12 2:125 3:16 4:125 5:19 6:125 7:22 8:125 9:19 10:125 11:17 12:125 13:17 14:120 15:16 16:125 17:13 18:125 19:13 20:125 21:15 22:125 23:19 24:124 25:15 26:124 27:14 28:124 29:14 30:120 31:14 32:125 33:13 34:125 35:14 36:124 37:11 38:124 39:13 40:125 41:12 42:125 43:11 44:125 45:11 46:120 47:14 48:124 49:11 50:124 51:11 52:124 53:11 54:124 55:13 56:125 57:11 58:125 59:12 60:125 61:11 62:120 63:14 64:120 65:11 66:124 67:11 68:124 69:11 70:124 71:12 72:125 73:10 74:125 75:12 76:125 77:12 78:120 79:14 80:113 81:16 82:120 83:11 84:120 85:11 86:120 87:14 88:120 89:16 90:120 91:19 92:120 93:15 94:124 95:15 96:113 97:17 98:111 99:14 100:113 101:15 102:120 103:13 104:120 105:15 106:120 107:17 108:120 109:15 110:124 111:15 112:120 113:12 114:120 115:14 116:120 117:14 118:120 119:13 120:120 121:14 122:120 123:16 124:120 125:14 126:124 127:15 128:-1 
-5.459570551429335e-09 0:124 1:12 2:125 3:19 4:125 5:19 6:125 7:21 8:124 9:22 10:125 11:26 12:124 13:22 14:125 15:18 16:125 17:19 18:124 19:16 20:125 21:19 22:125 23:17 24:125 25:18 26:124 27:17 28:124 29:22 30:125 31:18 32:125 33:20 34:124 35:15 36:124 37:12 38:125 39:14 40:125 41:14 42:129 43:7 44:125 45:16 46:125 47:19 48:125 49:22 50:125 51:17 52:124 53:10 54:150 55:1 56:150 57:2 58:150 59:2 60:125 61:13 62:125 63:19 64:125 65:19 66:125 67:14 68:124 69:9 70:135 71:2 72:150 73:1 74:140 75:3 76:125 77:14 78:125 79:22 80:125 81:13 82:124 83:8 84:150 85:1 86:150 87:1 88:140 89:3 90:150 91:2 92:125 93:17 94:124 95:26 96:125 97:14 98:124 99:7 100:150 101:1 102:150 103:1 104:150 105:2 106:140 107:3 108:124 109:19 110:124 111:27 112:130 113:12 114:128 115:8 116:150 117:2 118:120 119:2 120:120 121:1 122:125 123:14 124:125 125:22 126:128 127:29 128:-1 
-5.047982868485151e-08 0:122 1:25 2:125 3:28 4:127 5:30 6:127 7:29 8:127 9:27 10:125 11:26 12:125 13:26 14:125 15:26 16:122 17:24 18:125 19:26 20:127 21:28 22:127 23:29 24:127 25:26 26:125 27:26 28:125 29:25 30:125 31:28 32:122 33:26 34:125 35:27 36:128 37:28 38:128 39:30 40:128 41:29 42:128 43:28 44:128 45:29 46:124 47:30 48:125 49:29 50:128 51:28 52:128 53:26 54:128 55:27 56:128 57:28 58:128 59:29 60:128 61:28 62:124 63:30 64:125 65:24 66:128 67:29 68:131 69:29 70:128 71:30 72:128 73:33 74:127 75:32 76:127 77:32 78:125 79:31 80:125 81:22 82:128 83:27 84:131 85:31 86:128 87:37 88:128 89:38 90:127 91:35 92:127 93:31 94:125 95:30 96:125 97:21 98:127 99:22 100:132 101:27 102:128 103:38 104:128 105:38 106:127 107:35 108:127 109:32 110:125 111:30 112:125 113:24 114:128 115:25 116:131 117:31 118:128 119:37 120:128 121:38 122:127 123:36 124:127 125:32 126:127 127:30 128:-1 
-1.002330106660453e-08 0:125 1:10 2:125 3:16 4:125 5:19 6:125 7:21 8:125 9:24 10:125 11:23 12:125 13:23 14:125 15:19 16:125 17:10 18:125 19:16 20:125 21:16 22:124 23:21 24:124 25:28 26:124 27:27 28:124 29:27 30:125 31:23 32:124 33:12 34:124 35:17 36:124 37:17 38:125 39:27 40:124 41:28 42:124 43:29 44:124 45:29 46:124 47:27 48:125 49:16 50:124 51:17 52:125 53:20 54:125 55:23 56:125 57:32 58:124 59:27 60:124 61:23 62:124 63:24 64:129 65:21 66:124 67:18 68:124 69:17 70:124 71:18 72:124 73:26 74:124 75:24 76:124 77:19 78:124 79:17 80:128 81:22 82:124 83:18 84:124 85:17 86:124 87:18 88:124 89:25 90:124 91:24 92:124 93:17 94:124 95:16 96:125 97:24 98:124 99:19 100:125 101:16 102:125 103:18 104:125 105:25 106:125 107:23 108:125 109:18 110:124 111:17 112:125 113:27 114:124 115:19 116:125 117:18 118:125 119:21 120:125 121:26 122:125 123:29 124:125 125:23 126:124 127:21 128:-1 
-7.919930913467609e-09 0:132 1:25 2:132 3:26 4:131 5:29 6:131 7:24 8:128 9:22 10:127 11:22 12:128 13:22 14:124 15:21 16:132 17:24 18:131 19:28 20:130 21:28 22:130 23:25 24:127 25:24 26:128 27:25 28:125 29:22 30:124 31:17 32:128 33:26 34:128 35:23 36:127 37:24 38:127 39:24 40:127 41:25 42:127 43:29 44:125 45:22 46:122 47:17 48:128 49:26 50:127 51:24 52:127 53:23 54:127 55:23 56:127 57:27 58:125 59:28 60:125 61:25 62:122 63:18 64:127 65:30 66:127 67:24 68:125 69:23 70:126 71:20 72:126 73:19 74:125 75:24 76:125 77:25 78:125 79:25 80:130 81:32 82:127 83:25 84:127 85:26 86:126 87:20 88:126 89:20 90:125 91:25 92:124 93:27 94:125 95:25 96:130 97:30 98:127 99:23 100:129 101:21 102:129 103:21 104:125 105:26 106:125 107:30 108:124 109:27 110:125 111:22 112:130 113:26 114:133 115:18 116:131 117:17 118:127 119:26 120:125 121:27 122:125 123:33 124:125 125:29 126:124 127:24 128:-1 
-4.900860313472275e-10 0:0 1:0 2:0 3:0 4:120 5:1 6:0 7:0 8:150 9:1 10:150 11:1 12:150 13:1 14:135 15:2 16:120 17:1 18:0 19:0 20:0 21:0 22:0 23:0 24:150 25:1 26:135 27:2 28:130 29:3 30:150 31:1 32:0 33:0 34:0 35:0 36:0 37:0 38:0 39:0 40:150 41:1 42:150 43:1 44:150 45:1 46:150 47:1 48:0 49:0 50:0 51:0 52:0 53:0 54:0 55:0 56:135 57:2 58:150 59:1 60:150 61:1 62:130 63:3 64:150 65:1 66:150 67:1 68:150 69:1 70:150 71:1 72:0 73:0 74:150 75:1 76:150 77:1 78:150 79:2 80:125 81:7 82:135 83:2 84:150 85:1 86:150 87:1 88:0 89:0 90:150 91:1 92:150 93:1 94:140 95:3 96:125 97:7 98:125 99:6 100:150 101:1 102:150 103:1 104:0 105:0 106:0 107:0 108:135 109:2 110:135 111:2 112:125 113:6 114:150 115:1 116:150 117:1 118:150 119:1 120:0 121:0 122:0 123:0 124:150 125:1 126:150 127:1 128:-1 
-2.864790426404651e-08 0:126 1:37 2:126 3:36 4:126 5:34 6:127 7:25 8:127 9:25 10:125 11:36 12:125 13:42 14:125 15:40 16:126 17:36 18:126 19:36 20:126 21:35 22:127 23:32 24:127 25:25 26:126 27:36 28:125 29:43 30:125 31:40 32:126 33:35 34:129 35:36 36:129 37:36 38:129 39:35 40:127 41:29 42:129 43:37 44:126 45:42 46:126 47:43 48:126 49:35 50:129 51:36 52:129 53:37 54:129 55:35 56:129 57:33 58:129 59:36 60:126 61:40 62:126 63:43 64:125 65:31 66:126 67:35 68:126 69:34 70:126 71:34 72:126 73:34 74:126 75:33 76:126 77:36 78:126 79:39 80:125 81:30 82:126 83:34 84:126 85:37 86:126 87:36 88:126 89:34 90:126 91:33 92:125 93:31 94:125 95:31 96:125 97:30 98:125 99:38 100:125 101:39 102:125 103:38 104:125 105:36 106:125 107:33 108:125 109:29 110:126 111:21 112:125 113:32 114:125 115:37 116:125 117:37 118:125 119:35 120:125 121:35 122:125 123:32 124:127 125:18 126:140 127:3 128:-1 
-1.288817439573536e-10 0:150 1:1 2:150 3:2 4:150 5:1 6:150 7:1 8:150 9:1 10:150 11:1 12:150 13:1 14:150 15:1 16:150 17:1 18:150 19:1 20:150 21:2 22:150 23:1 24:150 25:1 26:150 27:1 28:150 29:1 30:135 31:2 32:150 33:1 34:150 35:1 36:150 37:1 38:150 39:1 40:150 41:1 42:150 43:1 44:150 45:1 46:150 47:1 48:150 49:1 50:150 51:1 52:150 53:1 54:150 55:1 56:150 57:1 58:150 59:1 60:0 61:0 62:120 63:1 64:150 65:1 66:150 67:1 68:150 69:1 70:0 71:0 72:0 73:0 74:0 75:0 76:0 77:0 78:0 79:0 80:150 81:1 82:150 83:1 84:150 85:1 86:0 87:0 88:0 89:0 90:0 91:0 92:0 93:0 94:0 95:0 96:150 97:1 98:135 99:2 100:150 101:1 102:0 103:0 104:0 105:0 106:150 107:1 108:150 109:1 110:120 111:1 112:150 113:1 114:150 115:1 116:150 117:1 118:0 119:0 120:0 121:0 122:150 123:1 124:150 125:1 126:135 127:2 128:-1 
-2.255670089374918e-08 0:125 1:15 2:125 3:16 4:125 5:17 6:124 7:14 8:124 9:17 10:124 11:18 12:124 13:16 14:124 15:13 16:125 17:15 18:125 19:16 20:125 21:16 22:125 23:18 24:124 25:17 26:124 27:19 28:124 29:18 30:124 31:13 32:125 33:17 34:125 35:16 36:125 37:17 38:125 39:18 40:124 41:15 42:124 43:17 44:124 45:19 46:124 47:15 48:125 49:19 50:125 51:20 52:125 53:19 54:125 55:19 56:125 57:19 58:124 59:14 60:124 61:15 62:124 63:15 64:125 65:23 66:125 67:23 68:125 69:24 70:125 71:19 72:120 73:16 74:120 75:12 76:124 77:12 78:125 79:10 80:124 81:21 82:125 83:21 84:125 85:20 86:125 87:18 88:120 89:13 90:120 91:10 92:124 93:11 94:125 95:10 96:125 97:18 98:125 99:18 100:125 101:18 102:125 103:15 104:120 105:11 106:120 107:9 108:120 109:11 110:115 111:10 112:125 113:17 114:125 115:16 116:125 117:13 118:125 119:14 120:120 121:13 122:120 123:10 124:120 125:12 126:120 127:13 128:-1 
-2.926478139385078e-09 0:125 1:12 2:132 3:11 4:132 5:11 6:156 7:12 8:160 9:12 10:163 11:14 12:169 13:15 14:169 15:15 16:125 17:13 18:133 19:15 20:132 21:11 22:156 23:11 24:156 25:10 26:170 27:10 28:170 29:13 30:170 31:14 32:125 33:12 34:125 35:12 36:126 37:10 38:140 39:6 40:156 41:9 42:170 43:10 44:170 45:10 46:170 47:10 48:124 49:17 50:125 51:12 52:126 53:9 54:140 55:5 56:156 57:9 58:173 59:6 60:170 61:9 62:173 63:6 64:130 65:18 66:125 67:11 68:126 69:8 70:140 71:5 72:156 73:8 74:173 75:6 76:173 77:6 78:6 79:8 80:125 81:12 82:126 83:8 84:120 85:3 86:140 87:4 88:173 89:5 90:173 91:5 92:173 93:6 94:6 95:8 96:125 97:10 98:126 99:8 100:120 101:3 102:140 103:4 104:165 105:3 106:165 107:3 108:20 109:4 110:20 111:4 112:114 113:7 114:110 115:4 116:75 117:3 118:0 119:0 120:165 121:3 122:20 123:4 124:20 125:4 126:20 127:4 128:-1 
-1.256466501583563e-08 0:130 1:6 2:125 3:20 4:125 5:24 6:125 7:27 8:125 9:27 10:125 11:27 12:126 13:19 14:127 15:18 16:125 17:18 18:125 19:22 20:124 21:25 22:124 23:24 24:125 25:25 26:125 27:24 28:126 29:21 30:128 31:15 32:125 33:19 34:125 35:21 36:124 37:23 38:124 39:23 40:124 41:23 42:124 43:22 44:125 45:17 46:128 47:11 48:125 49:19 50:125 51:21 52:124 53:23 54:124 55:23 56:124 57:25 58:124 59:22 60:126 61:14 62:129 63:10 64:150 65:2 66:125 67:17 68:125 69:22 70:124 71:24 72:124 73:27 74:124 75:25 76:124 77:22 78:128 79:12 80:150 81:2 82:150 83:2 84:135 85:6 86:124 87:23 88:124 89:27 90:124 91:28 92:124 93:24 94:125 95:18 96:150 97:2 98:150 99:2 100:150 101:3 102:125 103:20 104:124 105:24 106:125 107:29 108:125 109:30 110:124 111:23 112:135 113:2 114:150 115:2 116:140 117:3 118:126 119:15 120:124 121:23 122:125 123:28 124:125 125:28 126:124 127:23 128:-1 
-3.970281498216943e-08 0:90 1:3 2:90 3:3 4:102 5:5 6:110 7:9 8:112 9:17 10:112 11:22 12:112 13:23 14:112 15:22 16:90 17:3 18:90 19:3 20:98 21:4 22:109 23:8 24:112 25:17 26:112 27:23 28:112 29:24 30:112 31:20 32:100 33:3 34:98 35:4 36:100 37:3 38:115 39:11 40:112 41:18 42:112 43:24 44:112 45:23 46:111 47:18 48:105 49:4 50:100 51:3 52:110 53:12 54:112 55:16 56:112 57:20 58:112 59:22 60:111 61:19 62:111 63:18 64:114 65:10 66:116 67:15 68:113 69:17 70:113 71:19 72:112 73:20 74:112 75:21 76:111 77:18 78:111 79:18 80:116 81:20 82:114 83:14 84:113 85:17 86:113 87:20 88:112 89:20 90:112 91:19 92:106 93:19 94:106 95:21 96:116 97:20 98:114 99:15 100:113 101:18 102:113 103:20 104:112 105:19 106:112 107:18 108:106 109:18 110:106 111:20 112:116 113:18 114:116 115:16 116:113 117:19 118:112 119:20 120:112 121:18 122:112 123:17 124:106 125:17 126:106 127:18 128:-1 
-5.127782976799775e-08 0:90 1:17 2:95 3:17 4:95 5:16 6:104 7:17 8:104 9:17 10:106 11:15 12:106 13:16 14:113 15:18 16:87 17:14 18:93 19:15 20:95 21:15 22:104 23:17 24:104 25:19 26:111 27:20 28:111 29:20 30:116 31:21 32:87 33:14 34:93 35:14 36:93 37:14 38:104 39:19 40:106 41:19 42:111 43:22 44:112 45:22 46:116 47:20 48:87 49:14 50:87 51:13 52:96 53:14 54:106 55:19 56:111 57:22 58:112 59:25 60:112 61:21 62:113 63:21 64:87 65:14 66:87 67:13 68:96 69:15 70:106 71:19 72:113 73:22 74:112 75:23 76:112 77:21 78:115 79:22 80:87 81:13 82:87 83:12 84:96 85:15 86:103 87:16 88:113 89:21 90:112 91:24 92:112 93:21 94:111 95:25 96:87 97:13 98:87 99:12 100:101 101:11 102:103 103:16 104:106 105:20 106:111 107:22 108:112 109:23 110:110 111:22 112:87 113:13 114:101 115:11 116:101 117:11 118:103 119:15 120:104 121:21 122:106 123:22 124:108 125:25 126:110 127:24 128:-1 
-8.804505850496155e-09 0:111 1:33 2:112 3:31 4:114 5:27 6:112 7:26 8:98 9:12 10:108 11:22 12:102 13:15 14:100 15:15 16:111 17:35 18:112 19:30 20:112 21:28 22:112 23:25 24:90 25:7 26:90 27:7 28:90 29:7 30:90 31:7 32:112 33:36 34:112 35:31 36:112 37:28 38:112 39:25 40:90 41:7 42:90 43:8 44:90 45:6 46:90 47:7 48:112 49:36 50:112 51:29 52:112 53:28 54:112 55:25 56:90 57:6 58:90 59:6 60:90 61:6 62:90 63:7 64:112 65:32 66:112 67:28 68:112 69:28 70:112 71:27 72:102 73:10 74:90 75:6 76:90 77:6 78:90 79:6 80:112 81:30 82:112 83:26 84:114 85:26 86:114 87:26 88:111 89:20 90:90 91:6 92:90 93:4 94:96 95:5 96:112 97:29 98:112 99:26 100:114 101:25 102:114 103:26 104:111 105:21 106:106 107:13 108:90 109:4 110:90 111:4 112:112 113:28 114:112 115:27 116:114 117:26 118:114 119:26 120:116 121:21 122:107 123:9 124:90 125:4 126:107 127:9 128:-1 
-1.053811433534135e-08 0:120 1:27 2:120 3:16 4:120 5:21 6:118 7:31 8:118 9:32 10:118 11:29 12:118 13:25 14:114 15:10 16:120 17:26 18:120 19:28 20:120 21:30 22:118 23:31 24:118 25:29 26:118 27:28 28:117 29:18 30:115 31:13 32:123 33:27 34:120 35:28 36:120 37:29 38:119 39:33 40:119 41:30 42:119 43:26 44:119 45:24 46:118 47:17 48:123 49:29 50:120 51:29 52:120 53:30 54:119 55:32 56:119 57:23 58:119 59:24 60:118 61:27 62:118 63:29 64:120 65:31 66:120 67:32 68:120 69:32 70:119 71:31 72:119 73:27 74:118 75:25 76:118 77:27 78:120 79:27 80:120 81:33 82:120 83:32 84:120 85:33 86:119 87:31 88:118 89:26 90:118 91:28 92:118 93:29 94:119 95:25 96:120 97:31 98:120 99:30 100:120 101:30 102:119 103:31 104:118 105:25 106:118 107:30 108:117 109:28 110:119 111:27 112:120 113:28 114:120 115:28 116:120 117:27 118:118 119:27 120:118 121:25 122:118 123:28 124:117 125:30 126:119 127:29 128:-1 
-3.35452448208865e-08 0:109 1:14 2:115 3:10 4:114 5:8 6:114 7:7 8:110 9:4 10:75 11:3 12:50 13:6 14:66 15:9 16:109 17:14 18:114 19:8 20:114 21:8 22:110 23:5 24:110 25:5 26:75 27:4 28:50 29:6 30:66 31:9 32:103 33:13 34:114 35:8 36:114 37:8 38:110 39:5 40:110 41:6 42:75 43:4 44:75 45:4 46:66 47:9 48:103 49:12 50:103 51:11 52:114 53:7 54:110 55:4 56:110 57:5 58:75 59:4 60:83 61:8 62:66 63:9 64:96 65:8 66:96 67:7 68:96 69:7 70:96 71:8 72:96 73:8 74:83 75:7 76:83 77:7 78:66 79:9 80:96 81:7 82:96 83:7 84:96 85:8 86:96 87:8 88:90 89:9 90:83 91:6 92:80 93:10 94:70 95:10 96:83 97:6 98:83 99:6 100:80 101:11 102:80 103:11 104:80 105:15 106:80 107:10 108:80 109:14 110:73 111:14 112:83 113:6 114:80 115:10 116:80 117:11 118:80 119:16 120:80 121:16 122:80 123:15 124:80 125:15 126:73 127:15 128:-1 
-6.727699115733375e-09 0:103 1:16 2:103 3:15 4:103 5:14 6:101 7:11 8:103 9:10 10:96 11:8 12:75 13:3 14:75 15:3 16:103 17:14 18:103 19:14 20:103 21:13 22:103 23:13 24:103 25:10 26:103 27:11 28:110 29:4 30:75 31:3 32:103 33:13 34:103 35:12 36:103 37:12 38:103 39:12 40:103 41:10 42:114 43:7 44:120 45:3 46:120 47:3 48:103 49:12 50:103 51:12 52:103 53:12 54:103 55:12 56:109 57:11 58:114 59:7 60:114 61:7 62:110 63:5 64:103 65:12 66:103 67:12 68:106 69:15 70:103 71:12 72:103 73:12 74:103 75:10 76:103 77:10 78:96 79:7 80:106 81:14 82:106 83:15 84:106 85:15 86:106 87:15 88:106 89:15 90:103 91:12 92:101 93:11 94:90 95:9 96:106 97:16 98:111 99:19 100:111 101:18 102:106 103:15 104:106 105:15 106:103 107:12 108:101 109:10 110:90 111:8 112:111 113:20 114:111 115:20 116:111 117:19 118:111 119:17 120:111 121:17 122:106 123:14 124:103 125:12 126:96 127:7 128:-1 
-1.711905998065029e-08 0:87 1:13 2:96 3:15 4:96 5:15 6:103 7:14 8:103 9:14 10:98 11:16 12:98 13:16 14:98 15:16 16:87 17:14 18:96 19:16 20:96 21:16 22:103 23:14 24:103 25:13 26:101 27:11 28:101 29:11 30:101 31:12 32:87 33:15 34:96 35:16 36:96 37:16 38:103 39:13 40:101 41:12 42:101 43:11 44:101 45:12 46:103 47:13 48:87 49:16 50:96 51:17 52:96 53:16 54:101 55:12 56:103 57:10 58:103 59:10 60:96 61:8 62:96 63:11 64:87 65:16 66:96 67:17 68:101 69:13 70:103 71:10 72:103 73:10 74:103 75:11 76:96 77:9 78:96 79:9 80:87 81:15 82:96 83:16 84:101 85:12 86:109 87:12 88:114 89:8 90:103 91:12 92:103 93:12 94:103 95:10 96:87 97:15 98:96 99:16 100:101 101:12 102:103 103:11 104:114 105:8 106:103 107:12 108:103 109:12 110:103 111:10 112:90 113:10 114:101 115:13 116:101 117:13 118:103 119:11 120:96 121:8 122:96 123:9 124:96 125:10 126:101 127:15 128:-1 
-3.875565470147291e-09 0:96 1:15 2:98 3:17 4:98 5:16 6:103 7:12 8:103 9:12 10:109 11:11 12:109 13:11 14:109 15:12 16:96 17:15 18:98 19:16 20:98 21:15 22:103 23:12 24:103 25:12 26:103 27:9 28:103 29:10 30:103 31:10 32:96 33:14 34:98 35:16 36:98 37:15 38:103 39:12 40:103 41:12 42:103 43:10 44:103 45:10 46:103 47:10 48:96 49:14 50:96 51:14 52:96 53:14 54:103 55:12 56:103 57:12 58:103 59:10 60:103 61:10 62:103 63:10 64:96 65:14 66:96 67:14 68:96 69:14 70:103 71:13 72:103 73:13 74:103 75:10 76:103 77:11 78:103 79:11 80:98 81:15 82:98 83:15 84:98 85:15 86:98 87:16 88:98 89:16 90:103 91:14 92:103 93:14 94:109 95:12 96:98 97:15 98:98 99:15 100:98 101:15 102:98 103:15 104:98 105:15 106:103 107:13 108:103 109:13 110:109 111:12 112:101 113:20 114:101 115:19 116:101 117:19 118:104 119:17 120:104 121:17 122:106 123:14 124:106 125:15 126:106 127:15 128:-1 
-5.949543428320132e-09 0:129 1:16 2:128 3:11 4:150 5:2 6:150 7:2 8:131 9:8 10:128 11:12 12:133 13:16 14:133 15:16 16:129 17:15 18:150 19:2 20:150 21:3 22:150 23:2 24:129 25:10 26:128 27:13 28:133 29:16 30:133 31:16 32:130 33:12 34:150 35:3 36:150 37:2 38:150 39:3 40:130 41:9 42:130 43:11 44:128 45:12 46:143 47:4 48:150 49:3 50:150 51:2 52:150 53:3 54:143 55:4 56:130 57:10 58:130 59:10 60:130 61:9 62:150 63:3 64:150 65:3 66:150 67:2 68:130 69:9 70:133 71:8 72:133 73:8 74:133 75:7 76:150 77:2 78:150 79:2 80:150 81:2 82:150 83:3 84:133 85:7 86:133 87:7 88:143 89:4 90:150 91:2 92:150 93:2 94:150 95:3 96:150 97:2 98:150 99:2 100:150 101:2 102:150 103:2 104:150 105:1 106:135 107:2 108:135 109:2 110:150 111:1 112:128 113:11 114:150 115:2 116:143 117:4 118:150 119:1 120:150 121:1 122:150 123:1 124:150 125:1 126:150 127:1 128:-1 
-1.649201979633663e-09 0:0 1:0 2:0 3:0 4:0 5:0 6:0 7:0 8:0 9:0 10:150 11:1 12:150 13:1 14:0 15:0 16:0 17:0 18:0 19:0 20:0 21:0 22:120 23:1 24:0 25:0 26:150 27:1 28:150 29:1 30:0 31:0 32:0 33:0 34:150 35:1 36:150 37:1 38:0 39:0 40:0 41:0 42:0 43:0 44:0 45:0 46:150 47:2 48:0 49:0 50:0 51:0 52:0 53:0 54:0 55:0 56:0 57:0 58:0 59:0 60:0 61:0 62:150 63:1 64:0 65:0 66:0 67:0 68:0 69:0 70:0 71:0 72:0 73:0 74:0 75:0 76:0 77:0 78:150 79:1 80:0 81:0 82:0 83:0 84:0 85:0 86:0 87:0 88:0 89:0 90:30 91:2 92:30 93:2 94:0 95:0 96:0 97:0 98:0 99:0 100:0 101:0 102:0 103:0 104:0 105:0 106:0 107:0 108:0 109:0 110:0 111:0 112:0 113:0 114:0 115:0 116:0 117:0 118:0 119:0 120:0 121:0 122:0 123:0 124:0 125:0 126:75 127:2 128:-1 
-4.034177373934094e-09 0:125 1:26 2:125 3:24 4:128 5:16 6:128 7:16 8:123 9:23 10:123 11:25 12:124 13:27 14:125 15:30 16:128 17:15 18:125 19:23 20:129 21:14 22:129 23:14 24:123 25:23 26:123 27:25 28:124 29:27 30:124 31:28 32:150 33:3 34:125 35:18 36:125 37:23 38:125 39:24 40:125 41:25 42:125 43:25 44:125 45:24 46:125 47:27 48:129 49:10 50:130 51:9 52:125 53:23 54:125 55:25 56:124 57:22 58:124 59:22 60:126 61:16 62:125 63:24 64:125 65:24 66:128 67:15 68:128 69:12 70:125 71:20 72:125 73:19 74:127 75:13 76:126 77:15 78:125 79:19 80:125 81:26 82:125 83:24 84:135 85:6 86:150 87:3 88:150 89:3 90:150 91:2 92:131 93:8 94:125 95:17 96:125 97:27 98:124 99:22 100:150 101:3 102:150 103:3 104:150 105:2 106:150 107:2 108:150 109:2 110:127 111:9 112:125 113:25 114:124 115:21 116:143 117:4 118:140 119:3 120:150 121:2 122:140 123:3 124:150 125:2 126:135 127:4 128:-1 
-4.868805456033978e-09 0:125 1:24 2:124 3:22 4:150 5:4 6:150 7:3 8:150 9:4 10:150 11:4 12:140 13:3 14:125 15:13 16:125 17:24 18:124 19:24 20:128 21:20 22:150 23:3 24:150 25:3 26:150 27:3 28:150 29:2 30:125 31:13 32:125 33:25 34:124 35:24 36:128 37:24 38:127 39:17 40:150 41:4 42:150 43:3 44:150 45:3 46:135 47:6 48:126 49:16 50:124 51:24 52:128 53:24 54:128 55:24 56:128 57:15 58:150 59:3 60:150 61:2 62:150 63:2 64:150 65:3 66:126 67:15 68:127 69:26 70:128 71:23 72:131 73:25 74:143 75:9 76:150 77:3 78:150 79:3 80:150 81:3 82:150 83:3 84:127 85:24 86:127 87:26 88:131 89:24 90:127 91:18 92:150 93:3 94:150 95:2 96:143 97:4 98:125 99:19 100:127 101:26 102:128 103:23 104:127 105:19 106:129 107:14 108:150 109:3 110:150 111:2 112:125 113:20 114:124 115:27 116:127 117:27 118:128 119:23 120:129 121:13 122:150 123:3 124:140 125:3 126:150 127:1 128:-1 
-1.578365893142321e-09 0:132 1:5 2:150 3:1 4:150 5:2 6:0 7:0 8:0 9:0 10:0 11:0 12:0 13:0 14:0 15:0 16:132 17:5 18:140 19:3 20:150 21:1 22:0 23:0 24:0 25:0 26:0 27:0 28:0 29:0 30:0 31:0 32:132 33:5 34:140 35:3 36:140 37:3 38:0 39:0 40:0 41:0 42:0 43:0 44:0 45:0 46:0 47:0 48:138 49:5 50:132 51:5 52:140 53:3 54:0 55:0 56:0 57:0 58:0 59:0 60:0 61:0 62:0 63:0 64:150 65:2 66:135 67:2 68:0 69:0 70:0 71:0 72:0 73:0 74:0 75:0 76:0 77:0 78:0 79:0 80:150 81:2 82:150 83:1 84:120 85:1 86:0 87:0 88:0 89:0 90:0 91:0 92:0 93:0 94:0 95:0 96:150 97:2 98:150 99:1 100:150 101:2 102:0 103:0 104:0 105:0 106:0 107:0 108:0 109:0 110:0 111:0 112:150 113:2 114:150 115:1 116:150 117:1 118:0 119:0 120:0 121:0 122:0 123:0 124:0 125:0 126:0 127:0 128:-1 
-1.571187236415176e-08 0:112 1:22 2:112 3:20 4:113 5:20 6:113 7:19 8:116 9:20 10:116 11:20 12:124 13:18 14:125 15:17 16:112 17:19 18:112 19:19 20:113 21:19 22:115 23:21 24:116 25:19 26:116 27:21 28:124 29:20 30:125 31:19 32:116 33:18 34:113 35:18 36:115 37:21 38:115 39:20 40:116 41:18 42:116 43:20 44:122 45:19 46:122 47:19 48:116 49:19 50:115 51:20 52:115 53:20 54:116 55:22 56:118 57:19 58:116 59:7 60:113 61:9 62:116 63:16 64:115 65:23 66:115 67:20 68:116 69:22 70:116 71:22 72:110 73:3 74:113 75:4 76:100 77:3 78:100 79:3 80:115 81:23 82:115 83:21 84:116 85:25 86:116 87:25 88:118 89:21 90:118 91:19 92:118 93:16 94:118 95:14 96:115 97:22 98:115 99:21 100:115 101:24 102:115 103:25 104:118 105:25 106:118 107:24 108:118 109:22 110:118 111:21 112:116 113:19 114:116 115:17 116:116 117:18 118:116 119:20 120:116 121:22 122:116 123:23 124:122 125:24 126:122 127:24 128:-1 
-1.442845947519761e-08 0:123 1:26 2:123 3:32 4:123 5:33 6:120 7:30 8:120 9:24 10:120 11:17 12:119 13:24 14:123 15:27 16:123 17:26 18:123 19:27 20:123 21:31 22:120 23:31 24:120 25:27 26:120 27:15 28:118 29:12 30:123 31:23 32:123 33:24 34:123 35:26 36:123 37:30 38:120 39:32 40:120 41:32 42:120 43:26 44:119 45:20 46:124 47:16 48:123 49:24 50:123 51:26 52:123 53:27 54:123 55:36 56:120 57:37 58:123 59:28 60:123 61:25 62:124 63:14 64:122 65:20 66:124 67:25 68:125 69:29 70:124 71:34 72:123 73:35 74:125 75:32 76:123 77:28 78:123 79:29 80:122 81:20 82:125 83:23 84:124 85:30 86:125 87:32 88:125 89:30 90:125 91:31 92:125 93:30 94:123 95:32 96:122 97:17 98:122 99:21 100:122 101:26 102:125 103:32 104:125 105:29 106:125 107:29 108:125 109:29 110:125 111:27 112:122 113:18 114:122 115:20 116:122 117:28 118:125 119:31 120:125 121:27 122:125 123:26 124:124 125:24 126:125 127:25 128:-1 
-3.210114127139905e-09 0:135 1:2 2:150 3:1 4:135 5:2 6:150 7:1 8:150 9:1 10:150 11:1 12:150 13:2 14:150 15:3 16:150 17:1 18:135 19:2 20:150 21:1 22:135 23:2 24:150 25:1 26:130 27:3 28:150 29:3 30:133 31:9 32:90 33:1 34:90 35:1 36:150 37:1 38:150 39:1 40:150 41:2 42:150 43:2 44:150 45:3 46:128 47:15 48:105 49:2 50:90 51:1 52:150 53:1 54:150 55:1 56:150 57:3 58:150 59:3 60:135 61:8 62:127 63:19 64:150 65:1 66:135 67:2 68:150 69:1 70:135 71:2 72:150 73:2 74:140 75:3 76:128 77:16 78:127 79:19 80:150 81:1 82:150 83:1 84:150 85:1 86:150 87:1 88:140 89:3 90:124 91:14 92:127 93:19 94:127 95:20 96:135 97:2 98:150 99:1 100:150 101:1 102:150 103:1 104:125 105:12 106:124 107:16 108:125 109:21 110:125 111:23 112:150 113:1 114:130 115:3 116:150 117:1 118:150 119:2 120:124 121:15 122:125 123:21 124:125 125:22 126:125 127:23 128:-1 
-1.984425250416151e-09 0:0 1:0 2:0 3:0 4:0 5:0 6:0 7:0 8:0 9:0 10:30 11:2 12:30 13:2 14:0 15:0 16:0 17:0 18:0 19:0 20:0 21:0 22:0 23:0 24:0 25:0 26:0 27:0 28:0 29:0 30:0 31:0 32:0 33:0 34:0 35:0 36:0 37:0 38:0 39:0 40:0 41:0 42:0 43:0 44:0 45:0 46:0 47:0 48:150 49:2 50:0 51:0 52:120 53:2 54:0 55:0 56:0 57:0 58:0 59:0 60:0 61:0 62:0 63:0 64:150 65:2 66:150 67:1 68:150 69:1 70:150 71:1 72:120 73:1 74:120 75:1 76:120 77:1 78:0 79:0 80:129 81:15 82:135 83:8 84:150 85:2 86:135 87:2 88:150 89:1 90:150 91:1 92:150 93:1 94:150 95:1 96:128 97:23 98:127 99:18 100:150 101:4 102:124 103:15 104:124 105:17 106:125 107:13 108:140 109:3 110:125 111:13 112:127 113:25 114:127 115:27 116:127 117:25 118:125 119:29 120:125 121:30 122:125 123:31 124:124 125:27 126:124 127:28 128:-1 
-1.431116735800149e-08 0:130 1:3 2:150 3:1 4:150 5:2 6:124 7:16 8:125 9:22 10:124 11:21 12:124 13:21 14:125 15:25 16:150 17:1 18:150 19:1 20:140 21:3 22:124 23:16 24:125 25:22 26:125 27:25 28:125 29:24 30:124 31:18 32:150 33:1 34:124 35:8 36:130 37:6 38:124 39:15 40:125 41:22 42:125 43:24 44:124 45:19 46:125 47:11 48:125 49:6 50:124 51:8 52:130 53:6 54:125 55:13 56:124 57:17 58:124 59:19 60:124 61:19 62:124 63:15 64:126 65:5 66:125 67:6 68:150 69:1 70:150 71:2 72:125 73:15 74:124 75:19 76:124 77:19 78:125 79:15 80:150 81:1 82:135 83:2 84:150 85:1 86:150 87:1 88:129 89:7 90:125 91:17 92:124 93:19 94:125 95:16 96:150 97:1 98:135 99:2 100:150 101:1 102:135 103:2 104:150 105:1 106:125 107:12 108:124 109:19 110:125 111:20 112:150 113:1 114:150 115:1 116:150 117:1 118:150 119:1 120:150 121:1 122:150 123:2 124:125 125:15 126:125 127:17 128:-1 
-2.802315219041895e-08 0:111 1:16 2:111 3:14 4:111 5:13 6:109 7:11 8:109 9:12 10:103 11:10 12:103 13:10 14:96 15:7 16:109 17:12 18:111 19:14 20:109 21:10 22:109 23:11 24:103 25:10 26:103 27:11 28:103 29:10 30:96 31:7 32:103 33:11 34:109 35:12 36:103 37:10 38:103 39:10 40:103 41:11 42:103 43:11 44:96 45:8 46:110 47:5 48:103 49:11 50:103 51:11 52:103 53:11 54:103 55:11 56:103 57:11 58:96 59:8 60:96 61:8 62:110 63:5 64:96 65:8 66:90 67:9 68:90 69:9 70:96 71:8 72:96 73:8 74:96 75:8 76:96 77:8 78:110 79:4 80:96 81:8 82:90 83:9 84:90 85:9 86:96 87:8 88:96 89:8 90:96 91:8 92:96 93:8 94:110 95:4 96:90 97:9 98:90 99:9 100:90 101:9 102:90 103:10 104:90 105:10 106:96 107:8 108:96 109:8 110:96 111:7 112:90 113:9 114:90 115:9 116:90 117:9 118:90 119:11 120:90 121:10 122:96 123:8 124:96 125:8 126:96 127:7 128:-1 
-1.930858720946793e-08 0:106 1:13 2:106 3:14 4:109 5:11 6:109 7:13 8:114 9:10 10:115 11:11 12:111 13:18 14:111 15:21 16:106 17:14 18:106 19:13 20:109 21:10 22:109 23:12 24:114 25:8 26:103 27:11 28:109 29:13 30:111 31:16 32:106 33:14 34:106 35:13 36:109 37:10 38:109 39:11 40:103 41:10 42:103 43:11 44:109 45:14 46:103 47:17 48:106 49:15 50:106 51:14 52:109 53:11 54:109 55:11 56:103 57:10 58:103 59:10 60:103 61:17 62:103 63:17 64:103 65:15 66:103 67:13 68:103 69:12 70:103 71:12 72:109 73:11 74:109 75:12 76:103 77:12 78:103 79:13 80:103 81:18 82:103 83:14 84:103 85:12 86:103 87:12 88:109 89:11 90:103 91:10 92:103 93:11 94:103 95:12 96:103 97:13 98:103 99:11 100:103 101:9 102:103 103:9 104:103 105:10 106:103 107:10 108:114 109:8 110:110 111:5 112:103 113:13 114:103 115:11 116:103 117:9 118:103 119:9 120:103 121:10 122:96 123:7 124:110 125:5 126:110 127:5 128:-1 
-3.377239136657396e-09 0:116 1:19 2:116 3:17 4:116 5:20 6:116 7:22 8:119 9:30 10:119 11:27 12:119 13:28 14:119 15:30 16:112 17:20 18:112 19:19 20:115 21:21 22:115 23:25 24:119 25:28 26:119 27:26 28:119 29:27 30:119 31:30 32:112 33:21 34:112 35:19 36:113 37:19 38:115 39:25 40:118 41:25 42:118 43:24 44:119 45:26 46:116 47:30 48:106 49:23 50:108 51:21 52:108 53:21 54:110 55:26 56:113 57:20 58:115 59:22 60:115 61:24 62:111 63:30 64:106 65:24 66:106 67:19 68:108 69:21 70:108 71:26 72:113 73:22 74:113 75:20 76:110 77:26 78:110 79:30 80:106 81:23 82:103 83:21 84:105 85:22 86:105 87:27 88:108 89:26 90:108 91:25 92:110 93:29 94:110 95:28 96:103 97:22 98:103 99:22 100:105 101:23 102:105 103:26 104:108 105:27 106:108 107:30 108:110 109:31 110:110 111:29 112:108 113:19 114:108 115:19 116:108 117:20 118:108 119:21 120:113 121:24 122:113 123:26 124:113 125:27 126:113 127:24 128:-1 
-7.821657759500166e-09 0:119 1:24 2:117 3:23 4:117 5:26 6:118 7:33 8:117 9:32 10:117 11:29 12:117 13:25 14:117 15:23 16:116 17:23 18:119 19:21 20:119 21:22 22:119 23:28 24:119 25:30 26:117 27:31 28:118 29:31 30:117 31:26 32:115 33:19 34:117 35:9 36:119 37:21 38:119 39:26 40:119 41:30 42:117 43:32 44:118 45:33 46:117 47:28 48:117 49:9 50:117 51:9 52:118 53:19 54:118 55:22 56:119 57:28 58:117 59:33 60:117 61:33 62:117 63:30 64:100 65:3 66:113 67:4 68:118 69:18 70:118 71:21 72:116 73:25 74:116 75:30 76:117 77:31 78:117 79:29 80:100 81:3 82:98 83:4 84:113 85:12 86:115 87:17 88:112 89:23 90:114 91:30 92:114 93:32 94:114 95:31 96:107 97:7 98:114 99:15 100:111 101:21 102:104 103:11 104:112 105:22 106:114 107:28 108:114 109:30 110:114 111:28 112:115 113:19 114:116 115:21 116:114 117:24 118:112 119:25 120:112 121:26 122:114 123:28 124:114 125:28 126:117 127:23 128:-1 
-2.792318484918607e-08 0:116 1:18 2:116 3:18 4:116 5:19 6:122 7:17 8:122 9:15 10:125 11:17 12:125 13:14 14:124 15:11 16:116 17:17 18:116 19:18 20:116 21:19 22:122 23:17 24:122 25:16 26:125 27:15 28:125 29:16 30:125 31:13 32:122 33:16 34:122 35:14 36:122 37:14 38:122 39:15 40:122 41:15 42:120 43:13 44:120 45:13 46:120 47:13 48:124 49:7 50:124 51:7 52:120 53:6 54:122 55:13 56:120 57:12 58:120 59:12 60:120 61:12 62:120 63:12 64:120 65:2 66:120 67:2 68:120 69:1 70:120 71:2 72:120 73:6 74:120 75:7 76:120 77:9 78:120 79:12 80:120 81:1 82:120 83:1 84:120 85:1 86:120 87:1 88:120 89:1 90:120 91:1 92:120 93:2 94:120 95:8 96:120 97:1 98:120 99:1 100:120 101:1 102:120 103:2 104:120 105:1 106:120 107:1 108:120 109:1 110:120 111:1 112:120 113:2 114:120 115:1 116:120 117:1 118:120 119:2 120:120 121:1 122:120 123:1 124:120 125:2 126:120 127:4 128:-1 
-6.207098213093605e-08 0:113 1:18 2:112 3:19 4:112 5:22 6:112 7:23 8:113 9:22 10:113 11:21 12:115 13:24 14:115 15:23 16:113 17:18 18:112 19:19 20:112 21:23 22:113 23:28 24:113 25:27 26:115 27:28 28:115 29:26 30:115 31:26 32:113 33:17 34:113 35:20 36:113 37:23 38:113 39:27 40:115 41:29 42:116 43:32 44:116 45:29 46:115 47:24 48:115 49:20 50:113 51:20 52:113 53:24 54:115 55:29 56:116 57:30 58:116 59:28 60:116 61:25 62:115 63:21 64:115 65:20 66:115 67:21 68:115 69:23 70:116 71:29 72:116 73:27 74:116 75:26 76:112 77:23 78:111 79:22 80:116 81:22 82:115 83:21 84:116 85:25 86:116 87:26 88:116 89:23 90:116 91:22 92:115 93:18 94:115 95:19 96:116 97:22 98:116 99:23 100:115 101:22 102:115 103:22 104:111 105:23 106:113 107:18 108:116 109:16 110:116 111:17 112:116 113:24 114:116 115:24 116:116 117:24 118:115 119:22 120:111 121:25 122:113 123:20 124:116 125:19 126:120 127:15 128:-1 
-1.334187793249092e-09 0:150 1:1 2:0 3:0 4:120 5:1 6:120 7:1 8:0 9:0 10:150 11:1 12:150 13:1 14:150 15:1 16:130 17:3 18:120 19:2 20:120 21:1 22:0 23:0 24:0 25:0 26:135 27:2 28:135 29:2 30:150 31:1 32:126 33:5 34:126 35:5 36:135 37:2 38:150 39:1 40:135 41:2 42:150 43:1 44:150 45:1 46:124 47:8 48:120 49:9 50:120 51:8 52:90 53:1 54:135 55:2 56:150 57:1 58:150 59:1 60:125 61:11 62:125 63:14 64:120 65:11 66:120 67:1 68:120 69:2 70:150 71:1 72:150 73:1 74:125 75:11 76:125 77:15 78:125 79:22 80:122 81:15 82:120 83:3 84:120 85:1 86:150 87:2 88:125 89:11 90:125 91:16 92:124 93:19 94:122 95:22 96:122 97:16 98:122 99:15 100:120 101:12 102:125 103:14 104:125 105:15 106:124 107:19 108:125 109:24 110:122 111:26 112:122 113:16 114:125 115:19 116:124 117:16 118:125 119:15 120:125 121:16 122:124 123:20 124:125 125:25 126:122 127:26 128:-1 
-5.514887813115091e-08 0:116 1:22 2:116 3:25 4:116 5:22 6:116 7:24 8:116 9:25 10:116 11:27 12:116 13:26 14:116 15:25 16:116 17:20 18:116 19:25 20:116 21:23 22:116 23:24 24:116 25:23 26:116 27:25 28:116 29:27 30:116 31:27 32:116 33:20 34:116 35:26 36:116 37:25 38:116 39:25 40:116 41:23 42:116 43:21 44:116 45:23 46:116 47:25 48:116 49:18 50:116 51:25 52:116 53:26 54:116 55:28 56:116 57:26 58:116 59:22 60:116 61:21 62:116 63:23 64:116 65:16 66:116 67:25 68:116 69:26 70:116 71:28 72:116 73:27 74:116 75:23 76:116 77:21 78:116 79:22 80:108 81:5 82:118 83:21 84:116 85:26 86:116 87:29 88:116 89:27 90:116 91:23 92:116 93:21 94:116 95:21 96:135 97:2 98:122 99:19 100:118 101:24 102:119 103:26 104:119 105:23 106:119 107:22 108:119 109:21 110:118 111:20 112:135 113:2 114:122 115:19 116:122 117:23 118:119 119:22 120:117 121:11 122:116 123:7 124:114 125:5 126:118 127:19 128:-1 
